<?xml version="1.0"?>
<opencv_storage>
<cascade>
  <stageType>BOOST</stageType>
  <featureType>HAAR</featureType>
  <height>24</height>
  <width>24</width>
  <stageParams>
    <boostType>GAB</boostType>
    <minHitRate>9.9500000476837158e-01</minHitRate>
    <maxFalseAlarm>5.0000000000000000e-01</maxFalseAlarm>
    <weightTrimRate>9.4999999999999996e-01</weightTrimRate>
    <maxDepth>1</maxDepth>
    <maxWeakCount>100</maxWeakCount></stageParams>
  <featureParams>
    <maxCatCount>0</maxCatCount>
    <featSize>1</featSize>
    <mode>BASIC</mode></featureParams>
  <stageNum>25</stageNum>
  <stages>
    <!-- stage 0 -->
    <_>
      <maxWeakCount>8</maxWeakCount>
      <stageThreshold>-7.3521256446838379e-01</stageThreshold>
      <weakClassifiers>
        <_>
          <internalNodes>
            0 -1 115 -1.2185919284820557e-01</internalNodes>
          <leafValues>
            8.7527841329574585e-01 -4.7508305311203003e-01</leafValues></_>
        <_>
          <internalNodes>
            0 -1 55 1.8314700573682785e-02</internalNodes>
          <leafValues>
            -1.5910047292709351e-01 8.2767558097839355e-01</leafValues></_>
        <_>
          <internalNodes>
            0 -1 75 -3.3297531306743622e-02</internalNodes>
          <leafValues>
            6.6736209392547607e-01 -3.7019878625869751e-01</leafValues></_>
        <_>
          <internalNodes>
            0 -1 14 -2.7917653322219849e-02</internalNodes>
          <leafValues>
            4.6593469381332397e-01 -4.3097764253616333e-01</leafValues></_>
        <_>
          <internalNodes>
            0 -1 334 -4.0049932431429625e-04</internalNodes>
          <leafValues>
            -8.1552195549011230e-01 2.0903642475605011e-01</leafValues></_>
        <_>
          <internalNodes>
            0 -1 13 2.0774570107460022e-01</internalNodes>
          <leafValues>
            2.5933682918548584e-01 -6.4192920923233032e-01</leafValues></_>
        <_>
          <internalNodes>
            0 -1 257 -1.3268385082483292e-02</internalNodes>
          <leafValues>
            4.8646456003189087e-01 -3.9007413387298584e-01</leafValues></_>
        <_>
          <internalNodes>
            0 -1 70 -4.1411437094211578e-02</internalNodes>
          <leafValues>
            7.4471372365951538e-01 -2.5033670663833618e-01</leafValues></_></weakClassifiers></_>
    <!-- stage 1 -->
    <_>
      <maxWeakCount>6</maxWeakCount>
      <stageThreshold>-8.5595130920410156e-01</stageThreshold>
      <weakClassifiers>
        <_>
          <internalNodes>
            0 -1 170 -9.8874367773532867e-02</internalNodes>
          <leafValues>
            7.7142858505249023e-01 -4.9230769276618958e-01</leafValues></_>
        <_>
          <internalNodes>
            0 -1 148 3.1164430081844330e-02</internalNodes>
          <leafValues>
            -2.0252977311611176e-01 8.1953322887420654e-01</leafValues></_>
        <_>
          <internalNodes>
            0 -1 144 -1.5793908387422562e-02</internalNodes>
          <leafValues>
            4.4322872161865234e-01 -4.3064904212951660e-01</leafValues></_>
        <_>
          <internalNodes>
            0 -1 101 -5.0798133015632629e-02</internalNodes>
          <leafValues>
            7.8281670808792114e-01 -2.5263941287994385e-01</leafValues></_>
        <_>
          <internalNodes>
            0 -1 259 -1.5772521495819092e-02</internalNodes>
          <leafValues>
            7.0240294933319092e-01 -2.6331838965415955e-01</leafValues></_>
        <_>
          <internalNodes>
            0 -1 32 -9.9297398701310158e-03</internalNodes>
          <leafValues>
            7.8549301624298096e-01 -1.5819582343101501e-01</leafValues></_></weakClassifiers></_>
    <!-- stage 2 -->
    <_>
      <maxWeakCount>9</maxWeakCount>
      <stageThreshold>-7.5564062595367432e-01</stageThreshold>
      <weakClassifiers>
        <_>
          <internalNodes>
            0 -1 157 -6.9077789783477783e-02</internalNodes>
          <leafValues>
            7.3932582139968872e-01 -2.5901639461517334e-01</leafValues></_>
        <_>
          <internalNodes>
            0 -1 97 2.5364901870489120e-02</internalNodes>
          <leafValues>
            -1.9104661047458649e-01 6.9765573740005493e-01</leafValues></_>
        <_>
          <internalNodes>
            0 -1 109 -3.3495016396045685e-02</internalNodes>
          <leafValues>
            7.2106194496154785e-01 -2.0475314557552338e-01</leafValues></_>
        <_>
          <internalNodes>
            0 -1 27 -7.7381962910294533e-03</internalNodes>
          <leafValues>
            4.7875481843948364e-01 -3.2529947161674500e-01</leafValues></_>
        <_>
          <internalNodes>
            0 -1 297 4.0323543362319469e-04</internalNodes>
          <leafValues>
            2.1444541215896606e-01 -6.3995146751403809e-01</leafValues></_>
        <_>
          <internalNodes>
            0 -1 328 8.2375817000865936e-03</internalNodes>
          <leafValues>
            -1.9594991207122803e-01 7.8576993942260742e-01</leafValues></_>
        <_>
          <internalNodes>
            0 -1 163 -9.7004873678088188e-03</internalNodes>
          <leafValues>
            5.6197524070739746e-01 -2.4741658568382263e-01</leafValues></_>
        <_>
          <internalNodes>
            0 -1 61 -9.3124903738498688e-02</internalNodes>
          <leafValues>
            2.8515505790710449e-01 -5.3984963893890381e-01</leafValues></_>
        <_>
          <internalNodes>
            0 -1 52 2.3218517890200019e-04</internalNodes>
          <leafValues>
            1.6824100911617279e-01 -7.0378160476684570e-01</leafValues></_></weakClassifiers></_>
    <!-- stage 3 -->
    <_>
      <maxWeakCount>10</maxWeakCount>
      <stageThreshold>-9.7279107570648193e-01</stageThreshold>
      <weakClassifiers>
        <_>
          <internalNodes>
            0 -1 303 6.2226601876318455e-03</internalNodes>
          <leafValues>
            -1.3207547366619110e-01 6.7592591047286987e-01</leafValues></_>
        <_>
          <internalNodes>
            0 -1 86 9.0859718620777130e-02</internalNodes>
          <leafValues>
            -3.6991110444068909e-01 4.9849754571914673e-01</leafValues></_>
        <_>
          <internalNodes>
            0 -1 83 5.9016668237745762e-03</internalNodes>
          <leafValues>
            -1.9669063389301300e-01 7.7887272834777832e-01</leafValues></_>
        <_>
          <internalNodes>
            0 -1 139 4.4181361794471741e-02</internalNodes>
          <leafValues>
            -1.9744238257408142e-01 7.7502113580703735e-01</leafValues></_>
        <_>
          <internalNodes>
            0 -1 260 -5.0919228233397007e-03</internalNodes>
          <leafValues>
            -7.3164457082748413e-01 2.3558872938156128e-01</leafValues></_>
        <_>
          <internalNodes>
            0 -1 193 4.3833404779434204e-03</internalNodes>
          <leafValues>
            -2.0575554668903351e-01 7.2279155254364014e-01</leafValues></_>
        <_>
          <internalNodes>
            0 -1 29 -3.0647669918835163e-03</internalNodes>
          <leafValues>
            5.6698602437973022e-01 -2.2100171446800232e-01</leafValues></_>
        <_>
          <internalNodes>
            0 -1 125 -9.2422310262918472e-03</internalNodes>
          <leafValues>
            6.2316173315048218e-01 -2.2058187425136566e-01</leafValues></_>
        <_>
          <internalNodes>
            0 -1 231 -5.0275288522243500e-03</internalNodes>
          <leafValues>
            6.2036424875259399e-01 -2.1143931150436401e-01</leafValues></_>
        <_>
          <internalNodes>
            0 -1 121 3.5866766702383757e-03</internalNodes>
          <leafValues>
            -2.9722535610198975e-01 4.6230795979499817e-01</leafValues></_></weakClassifiers></_>
    <!-- stage 4 -->
    <_>
      <maxWeakCount>11</maxWeakCount>
      <stageThreshold>-7.5636148452758789e-01</stageThreshold>
      <weakClassifiers>
        <_>
          <internalNodes>
            0 -1 99 1.7464932054281235e-02</internalNodes>
          <leafValues>
            -9.0379007160663605e-02 6.9041770696640015e-01</leafValues></_>
        <_>
          <internalNodes>
            0 -1 111 1.3640898466110229e-01</internalNodes>
          <leafValues>
            -1.6703133285045624e-01 7.3772376775741577e-01</leafValues></_>
        <_>
          <internalNodes>
            0 -1 28 -8.3862133324146271e-03</internalNodes>
          <leafValues>
            5.0428688526153564e-01 -2.4051286280155182e-01</leafValues></_>
        <_>
          <internalNodes>
            0 -1 330 3.2387131359428167e-03</internalNodes>
          <leafValues>
            -2.6457247138023376e-01 5.0310420989990234e-01</leafValues></_>
        <_>
          <internalNodes>
            0 -1 140 -8.8385445997118950e-03</internalNodes>
          <leafValues>
            2.9773008823394775e-01 -4.3813148140907288e-01</leafValues></_>
        <_>
          <internalNodes>
            0 -1 310 7.7056849841028452e-04</internalNodes>
          <leafValues>
            1.9398033618927002e-01 -7.3740929365158081e-01</leafValues></_>
        <_>
          <internalNodes>
            0 -1 229 -5.7811317965388298e-03</internalNodes>
          <leafValues>
            2.0859158039093018e-01 -6.0904163122177124e-01</leafValues></_>
        <_>
          <internalNodes>
            0 -1 273 5.6199086830019951e-03</internalNodes>
          <leafValues>
            -3.6074697971343994e-01 3.2606479525566101e-01</leafValues></_>
        <_>
          <internalNodes>
            0 -1 25 4.2927816510200500e-02</internalNodes>
          <leafValues>
            -1.7867556214332581e-01 7.4222183227539063e-01</leafValues></_>
        <_>
          <internalNodes>
            0 -1 166 -5.3884629160165787e-02</internalNodes>
          <leafValues>
            5.7236295938491821e-01 -1.8471147119998932e-01</leafValues></_>
        <_>
          <internalNodes>
            0 -1 136 -6.4162013586610556e-04</internalNodes>
          <leafValues>
            -6.6493266820907593e-01 1.8055906891822815e-01</leafValues></_></weakClassifiers></_>
    <!-- stage 5 -->
    <_>
      <maxWeakCount>12</maxWeakCount>
      <stageThreshold>-6.3598173856735229e-01</stageThreshold>
      <weakClassifiers>
        <_>
          <internalNodes>
            0 -1 92 -1.3503628969192505e-01</internalNodes>
          <leafValues>
            6.6239315271377563e-01 -2.1276596188545227e-01</leafValues></_>
        <_>
          <internalNodes>
            0 -1 12 -1.1034286022186279e-01</internalNodes>
          <leafValues>
            6.9925218820571899e-01 -2.2671642899513245e-01</leafValues></_>
        <_>
          <internalNodes>
            0 -1 271 -1.0675893165171146e-02</internalNodes>
          <leafValues>
            4.2187947034835815e-01 -2.8587937355041504e-01</leafValues></_>
        <_>
          <internalNodes>
            0 -1 100 1.1371603608131409e-01</internalNodes>
          <leafValues>
            -1.9298736751079559e-01 7.1840131282806396e-01</leafValues></_>
        <_>
          <internalNodes>
            0 -1 298 -2.8375390684232116e-04</internalNodes>
          <leafValues>
            -5.7018381357192993e-01 2.4910812079906464e-01</leafValues></_>
        <_>
          <internalNodes>
            0 -1 77 -2.8992579245823435e-05</internalNodes>
          <leafValues>
            2.8514268994331360e-01 -4.4512838125228882e-01</leafValues></_>
        <_>
          <internalNodes>
            0 -1 235 -8.4384474903345108e-03</internalNodes>
          <leafValues>
            2.9344543814659119e-01 -4.1102656722068787e-01</leafValues></_>
        <_>
          <internalNodes>
            0 -1 134 9.2837377451360226e-04</internalNodes>
          <leafValues>
            1.5668754279613495e-01 -6.6789793968200684e-01</leafValues></_>
        <_>
          <internalNodes>
            0 -1 265 -4.0571973659098148e-03</internalNodes>
          <leafValues>
            4.3472254276275635e-01 -2.6580610871315002e-01</leafValues></_>
        <_>
          <internalNodes>
            0 -1 17 1.6324982047080994e-02</internalNodes>
          <leafValues>
            -2.3018151521682739e-01 4.8098447918891907e-01</leafValues></_>
        <_>
          <internalNodes>
            0 -1 176 -8.0522336065769196e-04</internalNodes>
          <leafValues>
            -7.0691204071044922e-01 1.5468513965606689e-01</leafValues></_>
        <_>
          <internalNodes>
            0 -1 288 -2.0912317559123039e-02</internalNodes>
          <leafValues>
            4.9713090062141418e-01 -2.4195064604282379e-01</leafValues></_></weakClassifiers></_>
    <!-- stage 6 -->
    <_>
      <maxWeakCount>11</maxWeakCount>
      <stageThreshold>-8.4698617458343506e-01</stageThreshold>
      <weakClassifiers>
        <_>
          <internalNodes>
            0 -1 303 9.2361941933631897e-03</internalNodes>
          <leafValues>
            -3.1141867861151695e-02 6.7202574014663696e-01</leafValues></_>
        <_>
          <internalNodes>
            0 -1 168 -1.5477577224373817e-02</internalNodes>
          <leafValues>
            4.1802972555160522e-01 -3.2020190358161926e-01</leafValues></_>
        <_>
          <internalNodes>
            0 -1 39 -1.4315383508801460e-02</internalNodes>
          <leafValues>
            5.7011163234710693e-01 -2.5866353511810303e-01</leafValues></_>
        <_>
          <internalNodes>
            0 -1 30 -4.6419389545917511e-03</internalNodes>
          <leafValues>
            5.7267397642135620e-01 -2.6300111413002014e-01</leafValues></_>
        <_>
          <internalNodes>
            0 -1 188 3.3541549928486347e-03</internalNodes>
          <leafValues>
            -2.1089798212051392e-01 6.2532895803451538e-01</leafValues></_>
        <_>
          <internalNodes>
            0 -1 259 -1.4429844915866852e-02</internalNodes>
          <leafValues>
            5.1224809885025024e-01 -2.4689187109470367e-01</leafValues></_>
        <_>
          <internalNodes>
            0 -1 18 -5.4731350392103195e-03</internalNodes>
          <leafValues>
            7.2997158765792847e-01 -1.4466366171836853e-01</leafValues></_>
        <_>
          <internalNodes>
            0 -1 305 4.7455085441470146e-03</internalNodes>
          <leafValues>
            -1.8466947972774506e-01 6.3608914613723755e-01</leafValues></_>
        <_>
          <internalNodes>
            0 -1 62 4.0407455526292324e-03</internalNodes>
          <leafValues>
            -1.7592740058898926e-01 6.1313056945800781e-01</leafValues></_>
        <_>
          <internalNodes>
            0 -1 151 -6.0712834820151329e-03</internalNodes>
          <leafValues>
            4.7438558936119080e-01 -2.3523788154125214e-01</leafValues></_>
        <_>
          <internalNodes>
            0 -1 263 -4.5296661555767059e-02</internalNodes>
          <leafValues>
            3.4967523813247681e-01 -3.4354627132415771e-01</leafValues></_></weakClassifiers></_>
    <!-- stage 7 -->
    <_>
      <maxWeakCount>12</maxWeakCount>
      <stageThreshold>-5.3223973512649536e-01</stageThreshold>
      <weakClassifiers>
        <_>
          <internalNodes>
            0 -1 23 1.7264522612094879e-01</internalNodes>
          <leafValues>
            7.1794874966144562e-02 8.1904762983322144e-01</leafValues></_>
        <_>
          <internalNodes>
            0 -1 254 -1.1640303768217564e-02</internalNodes>
          <leafValues>
            4.8242178559303284e-01 -2.5501602888107300e-01</leafValues></_>
        <_>
          <internalNodes>
            0 -1 286 -1.6028358368203044e-04</internalNodes>
          <leafValues>
            -5.9214884042739868e-01 2.2848561406135559e-01</leafValues></_>
        <_>
          <internalNodes>
            0 -1 176 3.0946021433919668e-04</internalNodes>
          <leafValues>
            1.8452806770801544e-01 -5.6809747219085693e-01</leafValues></_>
        <_>
          <internalNodes>
            0 -1 79 2.0634650718420744e-04</internalNodes>
          <leafValues>
            1.0590655356645584e-01 -6.9247901439666748e-01</leafValues></_>
        <_>
          <internalNodes>
            0 -1 167 -3.6090906709432602e-02</internalNodes>
          <leafValues>
            3.9692980051040649e-01 -2.7024209499359131e-01</leafValues></_>
        <_>
          <internalNodes>
            0 -1 215 -1.8397854641079903e-02</internalNodes>
          <leafValues>
            8.0229401588439941e-01 -1.5125451982021332e-01</leafValues></_>
        <_>
          <internalNodes>
            0 -1 82 6.3632071018218994e-02</internalNodes>
          <leafValues>
            -1.6544252634048462e-01 6.2224620580673218e-01</leafValues></_>
        <_>
          <internalNodes>
            0 -1 182 -2.5670394301414490e-02</internalNodes>
          <leafValues>
            7.4185198545455933e-01 -1.6193638741970062e-01</leafValues></_>
        <_>
          <internalNodes>
            0 -1 284 -3.5969626624137163e-03</internalNodes>
          <leafValues>
            4.0502184629440308e-01 -2.9375991225242615e-01</leafValues></_>
        <_>
          <internalNodes>
            0 -1 152 2.1712714806199074e-03</internalNodes>
          <leafValues>
            1.5172164142131805e-01 -7.1876233816146851e-01</leafValues></_>
        <_>
          <internalNodes>
            0 -1 267 5.3443619981408119e-04</internalNodes>
          <leafValues>
            1.9162529706954956e-01 -5.7868856191635132e-01</leafValues></_></weakClassifiers></_>
    <!-- stage 8 -->
    <_>
      <maxWeakCount>13</maxWeakCount>
      <stageThreshold>-8.5510152578353882e-01</stageThreshold>
      <weakClassifiers>
        <_>
          <internalNodes>
            0 -1 202 -1.7912887036800385e-02</internalNodes>
          <leafValues>
            5.4625552892684937e-01 -3.2876712083816528e-01</leafValues></_>
        <_>
          <internalNodes>
            0 -1 306 1.7861193045973778e-02</internalNodes>
          <leafValues>
            -1.5904435515403748e-01 7.0669752359390259e-01</leafValues></_>
        <_>
          <internalNodes>
            0 -1 10 -1.3158734142780304e-01</internalNodes>
          <leafValues>
            2.5020444393157959e-01 -4.6032974123954773e-01</leafValues></_>
        <_>
          <internalNodes>
            0 -1 243 4.8133957898244262e-04</internalNodes>
          <leafValues>
            1.8078081309795380e-01 -5.8899062871932983e-01</leafValues></_>
        <_>
          <internalNodes>
            0 -1 314 3.6460887640714645e-03</internalNodes>
          <leafValues>
            -2.4382947385311127e-01 5.9034103155136108e-01</leafValues></_>
        <_>
          <internalNodes>
            0 -1 95 -3.6665270454250276e-04</internalNodes>
          <leafValues>
            3.3518469333648682e-01 -3.3255308866500854e-01</leafValues></_>
        <_>
          <internalNodes>
            0 -1 128 1.9149363040924072e-02</internalNodes>
          <leafValues>
            -2.6881051063537598e-01 4.6216911077499390e-01</leafValues></_>
        <_>
          <internalNodes>
            0 -1 160 5.2375644445419312e-03</internalNodes>
          <leafValues>
            -1.9438248872756958e-01 5.8396476507186890e-01</leafValues></_>
        <_>
          <internalNodes>
            0 -1 33 3.5662970039993525e-03</internalNodes>
          <leafValues>
            -1.7109911143779755e-01 6.4067792892456055e-01</leafValues></_>
        <_>
          <internalNodes>
            0 -1 287 4.5111682265996933e-04</internalNodes>
          <leafValues>
            2.0828853547573090e-01 -5.7981073856353760e-01</leafValues></_>
        <_>
          <internalNodes>
            0 -1 43 -7.4847275391221046e-03</internalNodes>
          <leafValues>
            4.3955281376838684e-01 -2.9169151186943054e-01</leafValues></_>
        <_>
          <internalNodes>
            0 -1 123 -5.5224481038749218e-03</internalNodes>
          <leafValues>
            5.5399578809738159e-01 -1.6526897251605988e-01</leafValues></_>
        <_>
          <internalNodes>
            0 -1 108 1.3091439381241798e-02</internalNodes>
          <leafValues>
            -1.2259256839752197e-01 8.5869789123535156e-01</leafValues></_></weakClassifiers></_>
    <!-- stage 9 -->
    <_>
      <maxWeakCount>14</maxWeakCount>
      <stageThreshold>-9.6892946958541870e-01</stageThreshold>
      <weakClassifiers>
        <_>
          <internalNodes>
            0 -1 91 -1.8518137512728572e-03</internalNodes>
          <leafValues>
            5.4285717010498047e-01 -1.5555556118488312e-01</leafValues></_>
        <_>
          <internalNodes>
            0 -1 165 -1.8106434494256973e-02</internalNodes>
          <leafValues>
            3.8058328628540039e-01 -3.3296227455139160e-01</leafValues></_>
        <_>
          <internalNodes>
            0 -1 106 5.1511442288756371e-03</internalNodes>
          <leafValues>
            -2.2627942264080048e-01 6.0479664802551270e-01</leafValues></_>
        <_>
          <internalNodes>
            0 -1 329 -3.9497846737504005e-03</internalNodes>
          <leafValues>
            5.4781049489974976e-01 -2.5045853853225708e-01</leafValues></_>
        <_>
          <internalNodes>
            0 -1 49 -1.1670978274196386e-03</internalNodes>
          <leafValues>
            3.5561424493789673e-01 -3.8402906060218811e-01</leafValues></_>
        <_>
          <internalNodes>
            0 -1 76 -1.2307726778090000e-02</internalNodes>
          <leafValues>
            5.1374250650405884e-01 -2.1948297321796417e-01</leafValues></_>
        <_>
          <internalNodes>
            0 -1 71 -4.9049064517021179e-02</internalNodes>
          <leafValues>
            7.0379000902175903e-01 -1.3830970227718353e-01</leafValues></_>
        <_>
          <internalNodes>
            0 -1 272 3.9953505620360374e-03</internalNodes>
          <leafValues>
            -2.3569682240486145e-01 4.5260578393936157e-01</leafValues></_>
        <_>
          <internalNodes>
            0 -1 130 -1.6707599163055420e-02</internalNodes>
          <leafValues>
            5.9333920478820801e-01 -1.6973653435707092e-01</leafValues></_>
        <_>
          <internalNodes>
            0 -1 124 -9.5279589295387268e-03</internalNodes>
          <leafValues>
            3.3075127005577087e-01 -3.4888303279876709e-01</leafValues></_>
        <_>
          <internalNodes>
            0 -1 47 -1.7616461263969541e-03</internalNodes>
          <leafValues>
            -7.6618349552154541e-01 1.3513782620429993e-01</leafValues></_>
        <_>
          <internalNodes>
            0 -1 213 -3.7331138737499714e-03</internalNodes>
          <leafValues>
            4.8959991335868835e-01 -2.0810836553573608e-01</leafValues></_>
        <_>
          <internalNodes>
            0 -1 234 9.1740721836686134e-04</internalNodes>
          <leafValues>
            1.6138935089111328e-01 -7.2929799556732178e-01</leafValues></_>
        <_>
          <internalNodes>
            0 -1 198 -1.9678283482789993e-02</internalNodes>
          <leafValues>
            6.3403141498565674e-01 -1.9010618329048157e-01</leafValues></_></weakClassifiers></_>
    <!-- stage 10 -->
    <_>
      <maxWeakCount>17</maxWeakCount>
      <stageThreshold>-8.9282876253128052e-01</stageThreshold>
      <weakClassifiers>
        <_>
          <internalNodes>
            0 -1 155 -3.9521493017673492e-02</internalNodes>
          <leafValues>
            4.6506986021995544e-01 -3.3333334326744080e-01</leafValues></_>
        <_>
          <internalNodes>
            0 -1 327 -4.9912473186850548e-03</internalNodes>
          <leafValues>
            5.7235419750213623e-01 -1.9094608724117279e-01</leafValues></_>
        <_>
          <internalNodes>
            0 -1 205 1.2441117316484451e-02</internalNodes>
          <leafValues>
            -2.0718063414096832e-01 5.4030966758728027e-01</leafValues></_>
        <_>
          <internalNodes>
            0 -1 196 3.8447547703981400e-03</internalNodes>
          <leafValues>
            -1.9785478711128235e-01 6.9195008277893066e-01</leafValues></_>
        <_>
          <internalNodes>
            0 -1 287 -3.3588235964998603e-04</internalNodes>
          <leafValues>
            -5.5325210094451904e-01 2.2482450306415558e-01</leafValues></_>
        <_>
          <internalNodes>
            0 -1 322 4.0087831439450383e-04</internalNodes>
          <leafValues>
            -3.4959983825683594e-01 2.7975878119468689e-01</leafValues></_>
        <_>
          <internalNodes>
            0 -1 122 -2.5177435018122196e-03</internalNodes>
          <leafValues>
            4.1928222775459290e-01 -2.2294616699218750e-01</leafValues></_>
        <_>
          <internalNodes>
            0 -1 154 -2.1880842745304108e-02</internalNodes>
          <leafValues>
            5.2843421697616577e-01 -1.7577670514583588e-01</leafValues></_>
        <_>
          <internalNodes>
            0 -1 2 1.1485312134027481e-03</internalNodes>
          <leafValues>
            1.9029305875301361e-01 -5.4412358999252319e-01</leafValues></_>
        <_>
          <internalNodes>
            0 -1 66 -2.7685002423822880e-03</internalNodes>
          <leafValues>
            3.9250078797340393e-01 -2.8195315599441528e-01</leafValues></_>
        <_>
          <internalNodes>
            0 -1 149 5.8911554515361786e-03</internalNodes>
          <leafValues>
            -1.7924369871616364e-01 5.7565093040466309e-01</leafValues></_>
        <_>
          <internalNodes>
            0 -1 127 -9.0636722743511200e-03</internalNodes>
          <leafValues>
            5.3049069643020630e-01 -1.9780333340167999e-01</leafValues></_>
        <_>
          <internalNodes>
            0 -1 64 -7.5204651802778244e-03</internalNodes>
          <leafValues>
            5.4318636655807495e-01 -1.7847473919391632e-01</leafValues></_>
        <_>
          <internalNodes>
            0 -1 135 1.0018180182669312e-04</internalNodes>
          <leafValues>
            2.3468773066997528e-01 -4.6718537807464600e-01</leafValues></_>
        <_>
          <internalNodes>
            0 -1 173 -1.4339551329612732e-02</internalNodes>
          <leafValues>
            6.0942852497100830e-01 -1.8124836683273315e-01</leafValues></_>
        <_>
          <internalNodes>
            0 -1 93 -6.2335636466741562e-03</internalNodes>
          <leafValues>
            2.8004184365272522e-01 -3.8342842459678650e-01</leafValues></_>
        <_>
          <internalNodes>
            0 -1 312 3.9086369797587395e-03</internalNodes>
          <leafValues>
            -1.0494643449783325e-01 8.4754735231399536e-01</leafValues></_></weakClassifiers></_>
    <!-- stage 11 -->
    <_>
      <maxWeakCount>16</maxWeakCount>
      <stageThreshold>-6.6669219732284546e-01</stageThreshold>
      <weakClassifiers>
        <_>
          <internalNodes>
            0 -1 89 5.3609028458595276e-02</internalNodes>
          <leafValues>
            1.6027088463306427e-01 8.2165604829788208e-01</leafValues></_>
        <_>
          <internalNodes>
            0 -1 146 -6.6732214763760567e-03</internalNodes>
          <leafValues>
            2.7253624796867371e-01 -4.4187775254249573e-01</leafValues></_>
        <_>
          <internalNodes>
            0 -1 20 8.7142447009682655e-03</internalNodes>
          <leafValues>
            -1.7435036599636078e-01 5.4814231395721436e-01</leafValues></_>
        <_>
          <internalNodes>
            0 -1 240 1.4763535931706429e-02</internalNodes>
          <leafValues>
            -1.7339722812175751e-01 5.8117997646331787e-01</leafValues></_>
        <_>
          <internalNodes>
            0 -1 164 6.6317892633378506e-03</internalNodes>
          <leafValues>
            -1.7310070991516113e-01 5.6266474723815918e-01</leafValues></_>
        <_>
          <internalNodes>
            0 -1 48 1.0204334103036672e-04</internalNodes>
          <leafValues>
            2.0725399255752563e-01 -5.6407320499420166e-01</leafValues></_>
        <_>
          <internalNodes>
            0 -1 291 -1.3691867701709270e-02</internalNodes>
          <leafValues>
            4.9327379465103149e-01 -2.1150185167789459e-01</leafValues></_>
        <_>
          <internalNodes>
            0 -1 218 1.0317047126591206e-03</internalNodes>
          <leafValues>
            -1.5219613909721375e-01 6.4014267921447754e-01</leafValues></_>
        <_>
          <internalNodes>
            0 -1 278 8.4953336045145988e-04</internalNodes>
          <leafValues>
            -1.7081058025360107e-01 5.6852561235427856e-01</leafValues></_>
        <_>
          <internalNodes>
            0 -1 73 -6.6717355512082577e-03</internalNodes>
          <leafValues>
            2.2777564823627472e-01 -4.5089030265808105e-01</leafValues></_>
        <_>
          <internalNodes>
            0 -1 307 2.8288550674915314e-03</internalNodes>
          <leafValues>
            -3.3770722150802612e-01 3.0129724740982056e-01</leafValues></_>
        <_>
          <internalNodes>
            0 -1 320 -6.5640255343168974e-04</internalNodes>
          <leafValues>
            5.3530359268188477e-01 -2.0819692313671112e-01</leafValues></_>
        <_>
          <internalNodes>
            0 -1 174 9.4547234475612640e-03</internalNodes>
          <leafValues>
            -1.0056407004594803e-01 8.7763500213623047e-01</leafValues></_>
        <_>
          <internalNodes>
            0 -1 250 -1.0621093679219484e-03</internalNodes>
          <leafValues>
            5.8084911108016968e-01 -1.4370259642601013e-01</leafValues></_>
        <_>
          <internalNodes>
            0 -1 274 -8.4749923553317785e-04</internalNodes>
          <leafValues>
            5.1905477046966553e-01 -2.1347515285015106e-01</leafValues></_>
        <_>
          <internalNodes>
            0 -1 252 -2.5752531364560127e-03</internalNodes>
          <leafValues>
            6.1097115278244019e-01 -1.3588200509548187e-01</leafValues></_></weakClassifiers></_>
    <!-- stage 12 -->
    <_>
      <maxWeakCount>15</maxWeakCount>
      <stageThreshold>-7.1754384040832520e-01</stageThreshold>
      <weakClassifiers>
        <_>
          <internalNodes>
            0 -1 189 1.5016436576843262e-02</internalNodes>
          <leafValues>
            8.5714288055896759e-02 6.8000000715255737e-01</leafValues></_>
        <_>
          <internalNodes>
            0 -1 283 5.4054735228419304e-03</internalNodes>
          <leafValues>
            -1.7076922953128815e-01 5.0525146722793579e-01</leafValues></_>
        <_>
          <internalNodes>
            0 -1 266 -1.6339315334334970e-04</internalNodes>
          <leafValues>
            -5.2717238664627075e-01 1.7490388453006744e-01</leafValues></_>
        <_>
          <internalNodes>
            0 -1 194 -2.2197030484676361e-02</internalNodes>
          <leafValues>
            2.0219206809997559e-01 -4.0496647357940674e-01</leafValues></_>
        <_>
          <internalNodes>
            0 -1 209 -7.1313112974166870e-02</internalNodes>
          <leafValues>
            2.7341064810752869e-01 -3.8450315594673157e-01</leafValues></_>
        <_>
          <internalNodes>
            0 -1 7 2.7281086891889572e-02</internalNodes>
          <leafValues>
            -2.7629730105400085e-01 3.2087078690528870e-01</leafValues></_>
        <_>
          <internalNodes>
            0 -1 42 -4.3177157640457153e-03</internalNodes>
          <leafValues>
            4.2102825641632080e-01 -2.1453648805618286e-01</leafValues></_>
        <_>
          <internalNodes>
            0 -1 331 2.1035145036876202e-03</internalNodes>
          <leafValues>
            -2.5311133265495300e-01 3.4603840112686157e-01</leafValues></_>
        <_>
          <internalNodes>
            0 -1 114 1.3267201371490955e-02</internalNodes>
          <leafValues>
            -1.8551704287528992e-01 5.5381137132644653e-01</leafValues></_>
        <_>
          <internalNodes>
            0 -1 52 1.2182984210085124e-04</internalNodes>
          <leafValues>
            1.8011772632598877e-01 -5.1378273963928223e-01</leafValues></_>
        <_>
          <internalNodes>
            0 -1 110 3.0198231339454651e-02</internalNodes>
          <leafValues>
            -1.4919577538967133e-01 7.1667563915252686e-01</leafValues></_>
        <_>
          <internalNodes>
            0 -1 141 -1.8759170779958367e-03</internalNodes>
          <leafValues>
            4.6326184272766113e-01 -1.8815837800502777e-01</leafValues></_>
        <_>
          <internalNodes>
            0 -1 239 -1.3065677136182785e-02</internalNodes>
          <leafValues>
            5.2120047807693481e-01 -1.5460786223411560e-01</leafValues></_>
        <_>
          <internalNodes>
            0 -1 227 -1.3953839661553502e-03</internalNodes>
          <leafValues>
            -6.7796796560287476e-01 1.5146471560001373e-01</leafValues></_>
        <_>
          <internalNodes>
            0 -1 37 2.5294241495430470e-03</internalNodes>
          <leafValues>
            -1.8316331505775452e-01 5.7172924280166626e-01</leafValues></_></weakClassifiers></_>
    <!-- stage 13 -->
    <_>
      <maxWeakCount>17</maxWeakCount>
      <stageThreshold>-4.8962476849555969e-01</stageThreshold>
      <weakClassifiers>
        <_>
          <internalNodes>
            0 -1 68 -2.3399342596530914e-01</internalNodes>
          <leafValues>
            6.5359479188919067e-01 3.6287582983366321e-17</leafValues></_>
        <_>
          <internalNodes>
            0 -1 118 3.5646714968606830e-04</internalNodes>
          <leafValues>
            2.3115199804306030e-01 -4.9187791347503662e-01</leafValues></_>
        <_>
          <internalNodes>
            0 -1 190 -1.3143241405487061e-02</internalNodes>
          <leafValues>
            6.5769481658935547e-01 -1.4749450981616974e-01</leafValues></_>
        <_>
          <internalNodes>
            0 -1 207 -7.4911210685968399e-03</internalNodes>
          <leafValues>
            5.5150312185287476e-01 -1.8691962957382202e-01</leafValues></_>
        <_>
          <internalNodes>
            0 -1 161 7.8400233760476112e-03</internalNodes>
          <leafValues>
            -2.2226880490779877e-01 4.8525464534759521e-01</leafValues></_>
        <_>
          <internalNodes>
            0 -1 293 1.4087669114815071e-05</internalNodes>
          <leafValues>
            -2.9249981045722961e-01 3.0786868929862976e-01</leafValues></_>
        <_>
          <internalNodes>
            0 -1 317 -2.4171223049052060e-04</internalNodes>
          <leafValues>
            3.9061152935028076e-01 -2.4231010675430298e-01</leafValues></_>
        <_>
          <internalNodes>
            0 -1 280 -3.5109962336719036e-03</internalNodes>
          <leafValues>
            4.4547075033187866e-01 -2.1352230012416840e-01</leafValues></_>
        <_>
          <internalNodes>
            0 -1 143 4.9150031059980392e-02</internalNodes>
          <leafValues>
            -1.7982856929302216e-01 6.2872219085693359e-01</leafValues></_>
        <_>
          <internalNodes>
            0 -1 158 -8.6440276354551315e-03</internalNodes>
          <leafValues>
            6.6588079929351807e-01 -1.3039802014827728e-01</leafValues></_>
        <_>
          <internalNodes>
            0 -1 150 6.9233370013535023e-03</internalNodes>
          <leafValues>
            -1.1331418901681900e-01 6.8762284517288208e-01</leafValues></_>
        <_>
          <internalNodes>
            0 -1 247 3.8554419006686658e-05</internalNodes>
          <leafValues>
            -2.1992352604866028e-01 3.7781313061714172e-01</leafValues></_>
        <_>
          <internalNodes>
            0 -1 177 -2.7367286384105682e-03</internalNodes>
          <leafValues>
            7.0794427394866943e-01 -1.1830014735460281e-01</leafValues></_>
        <_>
          <internalNodes>
            0 -1 58 4.9555627629160881e-03</internalNodes>
          <leafValues>
            2.1167537569999695e-01 -5.2636551856994629e-01</leafValues></_>
        <_>
          <internalNodes>
            0 -1 74 -4.6961497515439987e-02</internalNodes>
          <leafValues>
            3.5899078845977783e-01 -2.5918495655059814e-01</leafValues></_>
        <_>
          <internalNodes>
            0 -1 126 1.0452410788275301e-04</internalNodes>
          <leafValues>
            -2.4379278719425201e-01 4.0013882517814636e-01</leafValues></_>
        <_>
          <internalNodes>
            0 -1 319 2.3708524531684816e-04</internalNodes>
          <leafValues>
            -1.9372162222862244e-01 4.5739945769309998e-01</leafValues></_></weakClassifiers></_>
    <!-- stage 14 -->
    <_>
      <maxWeakCount>15</maxWeakCount>
      <stageThreshold>-4.9627462029457092e-01</stageThreshold>
      <weakClassifiers>
        <_>
          <internalNodes>
            0 -1 315 6.1707966960966587e-03</internalNodes>
          <leafValues>
            4.2124542593955994e-01 -5.5555558204650879e-01</leafValues></_>
        <_>
          <internalNodes>
            0 -1 31 -1.3362911995500326e-03</internalNodes>
          <leafValues>
            4.2231428623199463e-01 -2.3485192656517029e-01</leafValues></_>
        <_>
          <internalNodes>
            0 -1 179 1.3954980298876762e-02</internalNodes>
          <leafValues>
            -2.0473508536815643e-01 5.8269852399826050e-01</leafValues></_>
        <_>
          <internalNodes>
            0 -1 330 7.3850667104125023e-03</internalNodes>
          <leafValues>
            -1.8441434204578400e-01 5.6154429912567139e-01</leafValues></_>
        <_>
          <internalNodes>
            0 -1 85 -2.8549726121127605e-03</internalNodes>
          <leafValues>
            5.7781147956848145e-01 -1.6375066339969635e-01</leafValues></_>
        <_>
          <internalNodes>
            0 -1 297 -1.0146044660359621e-03</internalNodes>
          <leafValues>
            -7.8626590967178345e-01 1.6010999679565430e-01</leafValues></_>
        <_>
          <internalNodes>
            0 -1 9 1.6797604039311409e-02</internalNodes>
          <leafValues>
            -2.1632842719554901e-01 4.5196783542633057e-01</leafValues></_>
        <_>
          <internalNodes>
            0 -1 277 -2.3999433033168316e-03</internalNodes>
          <leafValues>
            4.2790853977203369e-01 -2.4157954752445221e-01</leafValues></_>
        <_>
          <internalNodes>
            0 -1 169 -1.6892079729586840e-03</internalNodes>
          <leafValues>
            6.3344758749008179e-01 -1.1786853522062302e-01</leafValues></_>
        <_>
          <internalNodes>
            0 -1 136 2.5344610912725329e-04</internalNodes>
          <leafValues>
            2.0066578686237335e-01 -5.6555747985839844e-01</leafValues></_>
        <_>
          <internalNodes>
            0 -1 204 2.8642546385526657e-03</internalNodes>
          <leafValues>
            -1.8743687868118286e-01 5.7296925783157349e-01</leafValues></_>
        <_>
          <internalNodes>
            0 -1 258 -9.5702847465872765e-03</internalNodes>
          <leafValues>
            2.4354365468025208e-01 -4.1916838288307190e-01</leafValues></_>
        <_>
          <internalNodes>
            0 -1 56 -1.0604801774024963e-01</internalNodes>
          <leafValues>
            5.1358115673065186e-01 -2.1740642189979553e-01</leafValues></_>
        <_>
          <internalNodes>
            0 -1 24 9.1053778305649757e-04</internalNodes>
          <leafValues>
            -1.9219183921813965e-01 4.4456258416175842e-01</leafValues></_>
        <_>
          <internalNodes>
            0 -1 96 2.4580920580774546e-04</internalNodes>
          <leafValues>
            1.4068141579627991e-01 -6.3294017314910889e-01</leafValues></_></weakClassifiers></_>
    <!-- stage 15 -->
    <_>
      <maxWeakCount>14</maxWeakCount>
      <stageThreshold>-5.7609027624130249e-01</stageThreshold>
      <weakClassifiers>
        <_>
          <internalNodes>
            0 -1 326 5.4527381435036659e-03</internalNodes>
          <leafValues>
            7.6923079788684845e-02 6.6412216424942017e-01</leafValues></_>
        <_>
          <internalNodes>
            0 -1 241 -1.1307530105113983e-02</internalNodes>
          <leafValues>
            3.1595206260681152e-01 -2.6456582546234131e-01</leafValues></_>
        <_>
          <internalNodes>
            0 -1 59 -6.4451703801751137e-03</internalNodes>
          <leafValues>
            2.5431534647941589e-01 -3.5249528288841248e-01</leafValues></_>
        <_>
          <internalNodes>
            0 -1 212 9.4638476148247719e-03</internalNodes>
          <leafValues>
            -1.3897566497325897e-01 5.5986064672470093e-01</leafValues></_>
        <_>
          <internalNodes>
            0 -1 180 -7.3344046249985695e-03</internalNodes>
          <leafValues>
            3.5076695680618286e-01 -2.8739637136459351e-01</leafValues></_>
        <_>
          <internalNodes>
            0 -1 80 -7.0568511728197336e-04</internalNodes>
          <leafValues>
            -5.6870603561401367e-01 1.6759178042411804e-01</leafValues></_>
        <_>
          <internalNodes>
            0 -1 103 6.8811746314167976e-04</internalNodes>
          <leafValues>
            -3.1269079446792603e-01 2.9846373200416565e-01</leafValues></_>
        <_>
          <internalNodes>
            0 -1 224 2.5999806821346283e-03</internalNodes>
          <leafValues>
            -3.0969318747520447e-01 2.9637604951858521e-01</leafValues></_>
        <_>
          <internalNodes>
            0 -1 302 -1.2856910936534405e-02</internalNodes>
          <leafValues>
            5.3406214714050293e-01 -1.8112796545028687e-01</leafValues></_>
        <_>
          <internalNodes>
            0 -1 81 4.7633042559027672e-03</internalNodes>
          <leafValues>
            -1.6094137728214264e-01 5.3433007001876831e-01</leafValues></_>
        <_>
          <internalNodes>
            0 -1 299 -6.8912166170775890e-04</internalNodes>
          <leafValues>
            -4.2835432291030884e-01 2.2306789457798004e-01</leafValues></_>
        <_>
          <internalNodes>
            0 -1 199 -6.1918683350086212e-03</internalNodes>
          <leafValues>
            -6.5684646368026733e-01 1.2803196907043457e-01</leafValues></_>
        <_>
          <internalNodes>
            0 -1 334 -2.6090876781381667e-04</internalNodes>
          <leafValues>
            -6.5866827964782715e-01 1.1491022258996964e-01</leafValues></_>
        <_>
          <internalNodes>
            0 -1 35 2.4833160568960011e-04</internalNodes>
          <leafValues>
            -2.6837790012359619e-01 3.6846795678138733e-01</leafValues></_></weakClassifiers></_>
    <!-- stage 16 -->
    <_>
      <maxWeakCount>14</maxWeakCount>
      <stageThreshold>-5.6992238759994507e-01</stageThreshold>
      <weakClassifiers>
        <_>
          <internalNodes>
            0 -1 300 -8.1508029252290726e-03</internalNodes>
          <leafValues>
            6.5068495273590088e-01 3.2467532902956009e-02</leafValues></_>
        <_>
          <internalNodes>
            0 -1 90 -4.9936659634113312e-03</internalNodes>
          <leafValues>
            4.7401964664459229e-01 -1.8883040547370911e-01</leafValues></_>
        <_>
          <internalNodes>
            0 -1 275 5.7859117077896371e-05</internalNodes>
          <leafValues>
            -3.1302922964096069e-01 3.0010038614273071e-01</leafValues></_>
        <_>
          <internalNodes>
            0 -1 132 1.9180916715413332e-03</internalNodes>
          <leafValues>
            -3.0832517147064209e-01 3.5680252313613892e-01</leafValues></_>
        <_>
          <internalNodes>
            0 -1 16 2.0422132685780525e-02</internalNodes>
          <leafValues>
            -1.9696678221225739e-01 4.5300725102424622e-01</leafValues></_>
        <_>
          <internalNodes>
            0 -1 233 -7.7877100557088852e-04</internalNodes>
          <leafValues>
            3.3929780125617981e-01 -2.6825234293937683e-01</leafValues></_>
        <_>
          <internalNodes>
            0 -1 301 -9.4728227704763412e-03</internalNodes>
          <leafValues>
            5.6478697061538696e-01 -1.6594508290290833e-01</leafValues></_>
        <_>
          <internalNodes>
            0 -1 15 -4.4535747729241848e-03</internalNodes>
          <leafValues>
            -8.3104497194290161e-01 1.4770455658435822e-01</leafValues></_>
        <_>
          <internalNodes>
            0 -1 237 3.0645489692687988e-02</internalNodes>
          <leafValues>
            -2.2488793730735779e-01 4.8953333497047424e-01</leafValues></_>
        <_>
          <internalNodes>
            0 -1 228 -4.5209224335849285e-03</internalNodes>
          <leafValues>
            2.9099899530410767e-01 -3.6227983236312866e-01</leafValues></_>
        <_>
          <internalNodes>
            0 -1 251 7.1948010008782148e-04</internalNodes>
          <leafValues>
            1.5857830643653870e-01 -5.4109716415405273e-01</leafValues></_>
        <_>
          <internalNodes>
            0 -1 307 3.1811147928237915e-03</internalNodes>
          <leafValues>
            -3.4541118144989014e-01 2.7788254618644714e-01</leafValues></_>
        <_>
          <internalNodes>
            0 -1 38 -3.4606400877237320e-03</internalNodes>
          <leafValues>
            6.2471586465835571e-01 -1.7028227448463440e-01</leafValues></_>
        <_>
          <internalNodes>
            0 -1 36 3.1061903573572636e-03</internalNodes>
          <leafValues>
            -2.1910330653190613e-01 5.3682368993759155e-01</leafValues></_></weakClassifiers></_>
    <!-- stage 17 -->
    <_>
      <maxWeakCount>16</maxWeakCount>
      <stageThreshold>-5.1707148551940918e-01</stageThreshold>
      <weakClassifiers>
        <_>
          <internalNodes>
            0 -1 50 -7.2690844535827637e-03</internalNodes>
          <leafValues>
            5.4198473691940308e-01 -6.2801934778690338e-02</leafValues></_>
        <_>
          <internalNodes>
            0 -1 264 2.6235934346914291e-03</internalNodes>
          <leafValues>
            -1.2243311107158661e-01 6.0750043392181396e-01</leafValues></_>
        <_>
          <internalNodes>
            0 -1 290 9.7052715718746185e-03</internalNodes>
          <leafValues>
            -1.8515171110630035e-01 5.0586116313934326e-01</leafValues></_>
        <_>
          <internalNodes>
            0 -1 162 2.0599970594048500e-02</internalNodes>
          <leafValues>
            -2.4413534998893738e-01 3.7141990661621094e-01</leafValues></_>
        <_>
          <internalNodes>
            0 -1 116 -1.4157013967633247e-02</internalNodes>
          <leafValues>
            7.6498794555664063e-01 -1.3189277052879333e-01</leafValues></_>
        <_>
          <internalNodes>
            0 -1 72 6.4254137687385082e-03</internalNodes>
          <leafValues>
            -1.5723162889480591e-01 4.8787507414817810e-01</leafValues></_>
        <_>
          <internalNodes>
            0 -1 255 -1.2170333415269852e-02</internalNodes>
          <leafValues>
            8.5831713676452637e-01 -1.0728585720062256e-01</leafValues></_>
        <_>
          <internalNodes>
            0 -1 65 -2.2083703428506851e-02</internalNodes>
          <leafValues>
            2.4286326766014099e-01 -4.6895557641983032e-01</leafValues></_>
        <_>
          <internalNodes>
            0 -1 323 -6.5310363424941897e-05</internalNodes>
          <leafValues>
            -5.2233111858367920e-01 1.8934442102909088e-01</leafValues></_>
        <_>
          <internalNodes>
            0 -1 3 1.7932399641722441e-03</internalNodes>
          <leafValues>
            1.6276310384273529e-01 -4.7754392027854919e-01</leafValues></_>
        <_>
          <internalNodes>
            0 -1 223 3.0104044708423316e-04</internalNodes>
          <leafValues>
            1.5464240312576294e-01 -5.3998911380767822e-01</leafValues></_>
        <_>
          <internalNodes>
            0 -1 248 8.5122784366831183e-04</internalNodes>
          <leafValues>
            2.3772743344306946e-01 -4.0277427434921265e-01</leafValues></_>
        <_>
          <internalNodes>
            0 -1 88 -6.6528301686048508e-03</internalNodes>
          <leafValues>
            5.4226303100585938e-01 -1.6690410673618317e-01</leafValues></_>
        <_>
          <internalNodes>
            0 -1 78 -1.2314490741118789e-03</internalNodes>
          <leafValues>
            3.6980849504470825e-01 -2.3126403987407684e-01</leafValues></_>
        <_>
          <internalNodes>
            0 -1 211 1.5408275648951530e-03</internalNodes>
          <leafValues>
            1.8787455558776855e-01 -5.4902756214141846e-01</leafValues></_>
        <_>
          <internalNodes>
            0 -1 295 -4.4678775593638420e-03</internalNodes>
          <leafValues>
            7.2642368078231812e-01 -1.3009421527385712e-01</leafValues></_></weakClassifiers></_>
    <!-- stage 18 -->
    <_>
      <maxWeakCount>13</maxWeakCount>
      <stageThreshold>-4.6848914027214050e-01</stageThreshold>
      <weakClassifiers>
        <_>
          <internalNodes>
            0 -1 335 -1.7059879377484322e-02</internalNodes>
          <leafValues>
            -4.5238095521926880e-01 4.6124032139778137e-01</leafValues></_>
        <_>
          <internalNodes>
            0 -1 11 2.8492461889982224e-02</internalNodes>
          <leafValues>
            -1.9862964749336243e-01 5.6789904832839966e-01</leafValues></_>
        <_>
          <internalNodes>
            0 -1 1 -8.8491232600063086e-04</internalNodes>
          <leafValues>
            -4.7763988375663757e-01 2.1167980134487152e-01</leafValues></_>
        <_>
          <internalNodes>
            0 -1 287 -4.8960559070110321e-04</internalNodes>
          <leafValues>
            -6.0981202125549316e-01 1.4604444801807404e-01</leafValues></_>
        <_>
          <internalNodes>
            0 -1 287 3.4201858215965331e-04</internalNodes>
          <leafValues>
            1.5831401944160461e-01 -5.4675000905990601e-01</leafValues></_>
        <_>
          <internalNodes>
            0 -1 53 -3.8614691584371030e-04</internalNodes>
          <leafValues>
            2.4103015661239624e-01 -3.8497561216354370e-01</leafValues></_>
        <_>
          <internalNodes>
            0 -1 80 1.3023628853261471e-03</internalNodes>
          <leafValues>
            7.8992269933223724e-02 -9.0194010734558105e-01</leafValues></_>
        <_>
          <internalNodes>
            0 -1 57 5.6994393467903137e-02</internalNodes>
          <leafValues>
            -1.4629794657230377e-01 8.6615920066833496e-01</leafValues></_>
        <_>
          <internalNodes>
            0 -1 21 1.1911531910300255e-02</internalNodes>
          <leafValues>
            1.1678724735975266e-01 -8.7929421663284302e-01</leafValues></_>
        <_>
          <internalNodes>
            0 -1 238 4.7176973894238472e-03</internalNodes>
          <leafValues>
            1.3130798935890198e-01 -7.0362699031829834e-01</leafValues></_>
        <_>
          <internalNodes>
            0 -1 200 -3.9803143590688705e-03</internalNodes>
          <leafValues>
            4.9332091212272644e-01 -2.1964503824710846e-01</leafValues></_>
        <_>
          <internalNodes>
            0 -1 226 -5.0976558122783899e-04</internalNodes>
          <leafValues>
            -5.7394886016845703e-01 2.1133787930011749e-01</leafValues></_>
        <_>
          <internalNodes>
            0 -1 333 -3.1461585313081741e-03</internalNodes>
          <leafValues>
            -7.4702936410903931e-01 1.2132245302200317e-01</leafValues></_></weakClassifiers></_>
    <!-- stage 19 -->
    <_>
      <maxWeakCount>15</maxWeakCount>
      <stageThreshold>-5.0729900598526001e-01</stageThreshold>
      <weakClassifiers>
        <_>
          <internalNodes>
            0 -1 87 -2.0420530438423157e-01</internalNodes>
          <leafValues>
            5.5865919589996338e-01 4.4084915000813731e-17</leafValues></_>
        <_>
          <internalNodes>
            0 -1 4 1.2293307110667229e-02</internalNodes>
          <leafValues>
            -1.9140219688415527e-01 4.3257215619087219e-01</leafValues></_>
        <_>
          <internalNodes>
            0 -1 54 -2.0942040719091892e-03</internalNodes>
          <leafValues>
            -3.7046936154365540e-01 2.4552790820598602e-01</leafValues></_>
        <_>
          <internalNodes>
            0 -1 142 -8.7958909571170807e-03</internalNodes>
          <leafValues>
            6.1678618192672729e-01 -1.4862759411334991e-01</leafValues></_>
        <_>
          <internalNodes>
            0 -1 181 -4.8369271680712700e-03</internalNodes>
          <leafValues>
            6.1020481586456299e-01 -1.8309251964092255e-01</leafValues></_>
        <_>
          <internalNodes>
            0 -1 195 1.8809864996001124e-03</internalNodes>
          <leafValues>
            -2.2622624039649963e-01 5.0647556781768799e-01</leafValues></_>
        <_>
          <internalNodes>
            0 -1 46 -2.0049635320901871e-02</internalNodes>
          <leafValues>
            5.8660918474197388e-01 -1.1438420414924622e-01</leafValues></_>
        <_>
          <internalNodes>
            0 -1 192 4.3412544764578342e-03</internalNodes>
          <leafValues>
            -1.1907088756561279e-01 6.0232180356979370e-01</leafValues></_>
        <_>
          <internalNodes>
            0 -1 159 1.1381525837350637e-04</internalNodes>
          <leafValues>
            2.4381728470325470e-01 -3.6511003971099854e-01</leafValues></_>
        <_>
          <internalNodes>
            0 -1 311 4.0239710360765457e-03</internalNodes>
          <leafValues>
            -1.8333910405635834e-01 4.6605685353279114e-01</leafValues></_>
        <_>
          <internalNodes>
            0 -1 313 -1.2016107211820781e-04</internalNodes>
          <leafValues>
            2.6870906352996826e-01 -3.6813890933990479e-01</leafValues></_>
        <_>
          <internalNodes>
            0 -1 294 6.8469950929284096e-04</internalNodes>
          <leafValues>
            1.3707442581653595e-01 -6.9130820035934448e-01</leafValues></_>
        <_>
          <internalNodes>
            0 -1 184 1.7896294593811035e-02</internalNodes>
          <leafValues>
            -2.3785233497619629e-01 3.9976614713668823e-01</leafValues></_>
        <_>
          <internalNodes>
            0 -1 120 -1.1943489313125610e-01</internalNodes>
          <leafValues>
            2.5484979152679443e-01 -3.6138275265693665e-01</leafValues></_>
        <_>
          <internalNodes>
            0 -1 178 -9.0946499258279800e-03</internalNodes>
          <leafValues>
            6.6243398189544678e-01 -1.6062375903129578e-01</leafValues></_></weakClassifiers></_>
    <!-- stage 20 -->
    <_>
      <maxWeakCount>20</maxWeakCount>
      <stageThreshold>-7.8555893898010254e-01</stageThreshold>
      <weakClassifiers>
        <_>
          <internalNodes>
            0 -1 282 -1.2294162064790726e-02</internalNodes>
          <leafValues>
            4.9545454978942871e-01 -1.1249999701976776e-01</leafValues></_>
        <_>
          <internalNodes>
            0 -1 246 -2.5048252195119858e-02</internalNodes>
          <leafValues>
            7.6189684867858887e-01 -9.0550906956195831e-02</leafValues></_>
        <_>
          <internalNodes>
            0 -1 67 -2.0689725875854492e-02</internalNodes>
          <leafValues>
            4.9361541867256165e-01 -1.8305978178977966e-01</leafValues></_>
        <_>
          <internalNodes>
            0 -1 112 -8.3100720075890422e-05</internalNodes>
          <leafValues>
            3.7813436985015869e-01 -1.8537189066410065e-01</leafValues></_>
        <_>
          <internalNodes>
            0 -1 253 -5.2049122750759125e-03</internalNodes>
          <leafValues>
            5.0068885087966919e-01 -1.7892113327980042e-01</leafValues></_>
        <_>
          <internalNodes>
            0 -1 289 -1.5529035590589046e-03</internalNodes>
          <leafValues>
            3.8710412383079529e-01 -1.6667719185352325e-01</leafValues></_>
        <_>
          <internalNodes>
            0 -1 309 1.4046965588931926e-05</internalNodes>
          <leafValues>
            -2.8554984927177429e-01 2.6632839441299438e-01</leafValues></_>
        <_>
          <internalNodes>
            0 -1 222 3.4538712352514267e-03</internalNodes>
          <leafValues>
            -1.0697208344936371e-01 6.6927528381347656e-01</leafValues></_>
        <_>
          <internalNodes>
            0 -1 221 -9.9475840106606483e-03</internalNodes>
          <leafValues>
            -8.3783107995986938e-01 1.1460077017545700e-01</leafValues></_>
        <_>
          <internalNodes>
            0 -1 175 -1.5390516491606832e-03</internalNodes>
          <leafValues>
            3.8142699003219604e-01 -2.1707813441753387e-01</leafValues></_>
        <_>
          <internalNodes>
            0 -1 19 3.8479277864098549e-03</internalNodes>
          <leafValues>
            1.1021164804697037e-01 -6.7892104387283325e-01</leafValues></_>
        <_>
          <internalNodes>
            0 -1 268 2.4267551489174366e-03</internalNodes>
          <leafValues>
            1.6843335330486298e-01 -4.5079332590103149e-01</leafValues></_>
        <_>
          <internalNodes>
            0 -1 145 9.7430386813357472e-04</internalNodes>
          <leafValues>
            -2.2533328831195831e-01 3.4467574954032898e-01</leafValues></_>
        <_>
          <internalNodes>
            0 -1 186 4.1066640987992287e-03</internalNodes>
          <leafValues>
            -1.1167105287313461e-01 7.5366437435150146e-01</leafValues></_>
        <_>
          <internalNodes>
            0 -1 107 -7.9416681546717882e-04</internalNodes>
          <leafValues>
            -4.6300014853477478e-01 1.7689259350299835e-01</leafValues></_>
        <_>
          <internalNodes>
            0 -1 201 -2.0187750458717346e-02</internalNodes>
          <leafValues>
            6.6214895248413086e-01 -1.1665041744709015e-01</leafValues></_>
        <_>
          <internalNodes>
            0 -1 261 2.0294079149607569e-04</internalNodes>
          <leafValues>
            1.6543385386466980e-01 -4.9849075078964233e-01</leafValues></_>
        <_>
          <internalNodes>
            0 -1 214 1.4037813059985638e-02</internalNodes>
          <leafValues>
            -1.7997126281261444e-01 4.5298111438751221e-01</leafValues></_>
        <_>
          <internalNodes>
            0 -1 44 -9.4827944412827492e-03</internalNodes>
          <leafValues>
            2.7657064795494080e-01 -2.6995497941970825e-01</leafValues></_>
        <_>
          <internalNodes>
            0 -1 191 -2.1365578472614288e-01</internalNodes>
          <leafValues>
            3.0117624998092651e-01 -2.7985295653343201e-01</leafValues></_></weakClassifiers></_>
    <!-- stage 21 -->
    <_>
      <maxWeakCount>22</maxWeakCount>
      <stageThreshold>-8.6721074581146240e-01</stageThreshold>
      <weakClassifiers>
        <_>
          <internalNodes>
            0 -1 6 4.4490527361631393e-03</internalNodes>
          <leafValues>
            4.6351930499076843e-01 -1.1940298229455948e-01</leafValues></_>
        <_>
          <internalNodes>
            0 -1 34 2.2930644918233156e-03</internalNodes>
          <leafValues>
            -5.8617293834686279e-02 8.1807422637939453e-01</leafValues></_>
        <_>
          <internalNodes>
            0 -1 304 -5.7123620063066483e-03</internalNodes>
          <leafValues>
            4.3382331728935242e-01 -2.0956726372241974e-01</leafValues></_>
        <_>
          <internalNodes>
            0 -1 131 -2.7203136123716831e-03</internalNodes>
          <leafValues>
            4.6352809667587280e-01 -1.4139153063297272e-01</leafValues></_>
        <_>
          <internalNodes>
            0 -1 176 1.7012364696711302e-04</internalNodes>
          <leafValues>
            1.8357792496681213e-01 -4.1101372241973877e-01</leafValues></_>
        <_>
          <internalNodes>
            0 -1 105 -4.5670904219150543e-02</internalNodes>
          <leafValues>
            5.1696604490280151e-01 -1.6929115355014801e-01</leafValues></_>
        <_>
          <internalNodes>
            0 -1 98 4.0563074871897697e-03</internalNodes>
          <leafValues>
            2.1842382848262787e-01 -4.3400683999061584e-01</leafValues></_>
        <_>
          <internalNodes>
            0 -1 225 -3.9545308798551559e-02</internalNodes>
          <leafValues>
            2.0898492634296417e-01 -3.8645952939987183e-01</leafValues></_>
        <_>
          <internalNodes>
            0 -1 281 -1.3456135056912899e-03</internalNodes>
          <leafValues>
            4.0957462787628174e-01 -2.0137931406497955e-01</leafValues></_>
        <_>
          <internalNodes>
            0 -1 270 2.0958003588020802e-03</internalNodes>
          <leafValues>
            -1.3786779344081879e-01 7.3688250780105591e-01</leafValues></_>
        <_>
          <internalNodes>
            0 -1 325 -1.1064738035202026e-02</internalNodes>
          <leafValues>
            -5.1179122924804688e-01 1.7996019124984741e-01</leafValues></_>
        <_>
          <internalNodes>
            0 -1 45 -3.3475181553512812e-03</internalNodes>
          <leafValues>
            4.8551994562149048e-01 -1.8616113066673279e-01</leafValues></_>
        <_>
          <internalNodes>
            0 -1 117 -2.7378436643630266e-03</internalNodes>
          <leafValues>
            3.5612922906875610e-01 -2.3211416602134705e-01</leafValues></_>
        <_>
          <internalNodes>
            0 -1 219 2.4445566814392805e-03</internalNodes>
          <leafValues>
            -1.5357084572315216e-01 5.9523314237594604e-01</leafValues></_>
        <_>
          <internalNodes>
            0 -1 242 3.7287312443368137e-04</internalNodes>
          <leafValues>
            4.1728532314300537e-01 -1.8729749321937561e-01</leafValues></_>
        <_>
          <internalNodes>
            0 -1 261 -5.2382337162271142e-04</internalNodes>
          <leafValues>
            -6.8041706085205078e-01 1.6763488948345184e-01</leafValues></_>
        <_>
          <internalNodes>
            0 -1 63 -7.5475787743926048e-03</internalNodes>
          <leafValues>
            4.9772089719772339e-01 -2.1661435067653656e-01</leafValues></_>
        <_>
          <internalNodes>
            0 -1 0 3.4712872002273798e-04</internalNodes>
          <leafValues>
            1.8275344371795654e-01 -5.0313246250152588e-01</leafValues></_>
        <_>
          <internalNodes>
            0 -1 318 1.1108957696706057e-03</internalNodes>
          <leafValues>
            -1.8179222941398621e-01 4.9466803669929504e-01</leafValues></_>
        <_>
          <internalNodes>
            0 -1 316 -3.6031624767929316e-03</internalNodes>
          <leafValues>
            5.3931432962417603e-01 -1.6163210570812225e-01</leafValues></_>
        <_>
          <internalNodes>
            0 -1 183 3.3947178162634373e-03</internalNodes>
          <leafValues>
            -1.2407985329627991e-01 6.0730874538421631e-01</leafValues></_>
        <_>
          <internalNodes>
            0 -1 262 -5.1707406528294086e-03</internalNodes>
          <leafValues>
            4.5628640055656433e-01 -1.9226500391960144e-01</leafValues></_></weakClassifiers></_>
    <!-- stage 22 -->
    <_>
      <maxWeakCount>20</maxWeakCount>
      <stageThreshold>-6.8570166826248169e-01</stageThreshold>
      <weakClassifiers>
        <_>
          <internalNodes>
            0 -1 276 -3.0939438147470355e-04</internalNodes>
          <leafValues>
            -2.1666666865348816e-01 4.7083333134651184e-01</leafValues></_>
        <_>
          <internalNodes>
            0 -1 5 3.6976419389247894e-02</internalNodes>
          <leafValues>
            -1.5943527221679688e-01 4.2571601271629333e-01</leafValues></_>
        <_>
          <internalNodes>
            0 -1 119 6.2832785770297050e-03</internalNodes>
          <leafValues>
            -1.1106017976999283e-01 6.0634917020797729e-01</leafValues></_>
        <_>
          <internalNodes>
            0 -1 171 -2.1148991072550416e-04</internalNodes>
          <leafValues>
            2.0084485411643982e-01 -3.8675439357757568e-01</leafValues></_>
        <_>
          <internalNodes>
            0 -1 137 -1.7272943258285522e-01</internalNodes>
          <leafValues>
            4.5865753293037415e-01 -1.9716466963291168e-01</leafValues></_>
        <_>
          <internalNodes>
            0 -1 69 -2.0817304030060768e-03</internalNodes>
          <leafValues>
            3.7203884124755859e-01 -1.7500641942024231e-01</leafValues></_>
        <_>
          <internalNodes>
            0 -1 113 -5.2492273971438408e-03</internalNodes>
          <leafValues>
            4.0256261825561523e-01 -1.8577444553375244e-01</leafValues></_>
        <_>
          <internalNodes>
            0 -1 133 -8.6764730513095856e-03</internalNodes>
          <leafValues>
            1.9772410392761230e-01 -3.8328734040260315e-01</leafValues></_>
        <_>
          <internalNodes>
            0 -1 60 4.0984852239489555e-04</internalNodes>
          <leafValues>
            1.6151557862758636e-01 -4.2255851626396179e-01</leafValues></_>
        <_>
          <internalNodes>
            0 -1 269 3.9588781073689461e-03</internalNodes>
          <leafValues>
            8.0398015677928925e-02 -9.2594915628433228e-01</leafValues></_>
        <_>
          <internalNodes>
            0 -1 232 -4.5455982908606529e-03</internalNodes>
          <leafValues>
            6.0000896453857422e-01 -1.4080508053302765e-01</leafValues></_>
        <_>
          <internalNodes>
            0 -1 197 -4.6722637489438057e-03</internalNodes>
          <leafValues>
            6.1307895183563232e-01 -9.3019194900989532e-02</leafValues></_>
        <_>
          <internalNodes>
            0 -1 324 -7.8960356768220663e-04</internalNodes>
          <leafValues>
            -6.3084304332733154e-01 1.2461061030626297e-01</leafValues></_>
        <_>
          <internalNodes>
            0 -1 153 6.0925609432160854e-03</internalNodes>
          <leafValues>
            -1.3505625724792480e-01 7.0429784059524536e-01</leafValues></_>
        <_>
          <internalNodes>
            0 -1 285 1.3895366464566905e-05</internalNodes>
          <leafValues>
            -2.6287394762039185e-01 2.7396535873413086e-01</leafValues></_>
        <_>
          <internalNodes>
            0 -1 138 -9.9533256143331528e-03</internalNodes>
          <leafValues>
            5.9525805711746216e-01 -1.3546329736709595e-01</leafValues></_>
        <_>
          <internalNodes>
            0 -1 296 -8.9391041547060013e-04</internalNodes>
          <leafValues>
            3.1874129176139832e-01 -2.6158052682876587e-01</leafValues></_>
        <_>
          <internalNodes>
            0 -1 249 -1.6750738024711609e-02</internalNodes>
          <leafValues>
            3.3534228801727295e-01 -2.4468396604061127e-01</leafValues></_>
        <_>
          <internalNodes>
            0 -1 26 2.5518378242850304e-03</internalNodes>
          <leafValues>
            -1.9470639526844025e-01 3.8327053189277649e-01</leafValues></_>
        <_>
          <internalNodes>
            0 -1 308 8.7352753325831145e-05</internalNodes>
          <leafValues>
            -3.5571986436843872e-01 2.0843914151191711e-01</leafValues></_></weakClassifiers></_>
    <!-- stage 23 -->
    <_>
      <maxWeakCount>18</maxWeakCount>
      <stageThreshold>-6.2897127866744995e-01</stageThreshold>
      <weakClassifiers>
        <_>
          <internalNodes>
            0 -1 324 -1.0115650948137045e-03</internalNodes>
          <leafValues>
            -4.3859648704528809e-01 4.1436463594436646e-01</leafValues></_>
        <_>
          <internalNodes>
            0 -1 332 7.5398740591481328e-05</internalNodes>
          <leafValues>
            -3.2494717836380005e-01 3.5373488068580627e-01</leafValues></_>
        <_>
          <internalNodes>
            0 -1 220 6.3908351585268974e-03</internalNodes>
          <leafValues>
            -2.4755650758743286e-01 3.7386420369148254e-01</leafValues></_>
        <_>
          <internalNodes>
            0 -1 279 4.3645473197102547e-03</internalNodes>
          <leafValues>
            -1.8255996704101563e-01 5.2477115392684937e-01</leafValues></_>
        <_>
          <internalNodes>
            0 -1 104 1.3833930715918541e-02</internalNodes>
          <leafValues>
            -2.2137053310871124e-01 3.8802331686019897e-01</leafValues></_>
        <_>
          <internalNodes>
            0 -1 176 -2.7881714049726725e-04</internalNodes>
          <leafValues>
            -4.4085389375686646e-01 1.6821524500846863e-01</leafValues></_>
        <_>
          <internalNodes>
            0 -1 230 1.8786612898111343e-02</internalNodes>
          <leafValues>
            -1.5864178538322449e-01 6.0736083984375000e-01</leafValues></_>
        <_>
          <internalNodes>
            0 -1 203 2.3167608305811882e-03</internalNodes>
          <leafValues>
            -1.4662410318851471e-01 5.5992287397384644e-01</leafValues></_>
        <_>
          <internalNodes>
            0 -1 217 -9.7926314920186996e-03</internalNodes>
          <leafValues>
            3.3832085132598877e-01 -2.4680058658123016e-01</leafValues></_>
        <_>
          <internalNodes>
            0 -1 147 -2.5140263460343704e-05</internalNodes>
          <leafValues>
            3.2494521141052246e-01 -2.4730853736400604e-01</leafValues></_>
        <_>
          <internalNodes>
            0 -1 256 1.0313787497580051e-03</internalNodes>
          <leafValues>
            -2.1251448988914490e-01 4.0463262796401978e-01</leafValues></_>
        <_>
          <internalNodes>
            0 -1 159 -1.3478915207087994e-04</internalNodes>
          <leafValues>
            -3.6200422048568726e-01 2.4558937549591064e-01</leafValues></_>
        <_>
          <internalNodes>
            0 -1 187 1.2828813865780830e-02</internalNodes>
          <leafValues>
            -1.8827109038829803e-01 4.2034256458282471e-01</leafValues></_>
        <_>
          <internalNodes>
            0 -1 236 -3.8405038416385651e-02</internalNodes>
          <leafValues>
            7.9481524229049683e-01 -8.7156817317008972e-02</leafValues></_>
        <_>
          <internalNodes>
            0 -1 245 4.5465509174391627e-04</internalNodes>
          <leafValues>
            -2.8076943755149841e-01 3.0239504575729370e-01</leafValues></_>
        <_>
          <internalNodes>
            0 -1 84 -1.7557205632328987e-02</internalNodes>
          <leafValues>
            6.5921378135681152e-01 -1.4788810908794403e-01</leafValues></_>
        <_>
          <internalNodes>
            0 -1 102 2.9424359090626240e-03</internalNodes>
          <leafValues>
            1.2319133430719376e-01 -7.4512779712677002e-01</leafValues></_>
        <_>
          <internalNodes>
            0 -1 172 5.1915301010012627e-03</internalNodes>
          <leafValues>
            -1.1795710772275925e-01 7.7358418703079224e-01</leafValues></_></weakClassifiers></_>
    <!-- stage 24 -->
    <_>
      <maxWeakCount>19</maxWeakCount>
      <stageThreshold>-5.1574176549911499e-01</stageThreshold>
      <weakClassifiers>
        <_>
          <internalNodes>
            0 -1 51 8.5220416076481342e-04</internalNodes>
          <leafValues>
            -1.6393441706895828e-02 5.7303369045257568e-01</leafValues></_>
        <_>
          <internalNodes>
            0 -1 244 1.2424851302057505e-03</internalNodes>
          <leafValues>
            -3.2891261577606201e-01 3.0061113834381104e-01</leafValues></_>
        <_>
          <internalNodes>
            0 -1 297 7.9447875032201409e-04</internalNodes>
          <leafValues>
            1.2984873354434967e-01 -7.2453570365905762e-01</leafValues></_>
        <_>
          <internalNodes>
            0 -1 292 2.5051054544746876e-03</internalNodes>
          <leafValues>
            -1.3999801874160767e-01 5.4533368349075317e-01</leafValues></_>
        <_>
          <internalNodes>
            0 -1 210 -1.5611909329891205e-03</internalNodes>
          <leafValues>
            3.6319884657859802e-01 -2.4493479728698730e-01</leafValues></_>
        <_>
          <internalNodes>
            0 -1 136 -9.5480208983644843e-04</internalNodes>
          <leafValues>
            -7.1548998355865479e-01 1.1049852520227432e-01</leafValues></_>
        <_>
          <internalNodes>
            0 -1 216 -3.1385752372443676e-03</internalNodes>
          <leafValues>
            6.0499095916748047e-01 -1.2550164759159088e-01</leafValues></_>
        <_>
          <internalNodes>
            0 -1 185 3.0642590718343854e-04</internalNodes>
          <leafValues>
            -2.3759819567203522e-01 3.0908107757568359e-01</leafValues></_>
        <_>
          <internalNodes>
            0 -1 41 -3.8627302274107933e-03</internalNodes>
          <leafValues>
            -5.2925050258636475e-01 1.4515361189842224e-01</leafValues></_>
        <_>
          <internalNodes>
            0 -1 94 8.7217264808714390e-04</internalNodes>
          <leafValues>
            -1.8486751616001129e-01 4.1964936256408691e-01</leafValues></_>
        <_>
          <internalNodes>
            0 -1 129 -6.0994187369942665e-03</internalNodes>
          <leafValues>
            5.2183783054351807e-01 -1.5172015130519867e-01</leafValues></_>
        <_>
          <internalNodes>
            0 -1 321 2.3813765437807888e-04</internalNodes>
          <leafValues>
            -2.2567473351955414e-01 3.4551060199737549e-01</leafValues></_>
        <_>
          <internalNodes>
            0 -1 156 -1.5519447624683380e-01</internalNodes>
          <leafValues>
            3.1645843386650085e-01 -2.6407855749130249e-01</leafValues></_>
        <_>
          <internalNodes>
            0 -1 336 -5.2765589207410812e-03</internalNodes>
          <leafValues>
            -4.2522925138473511e-01 1.8037486076354980e-01</leafValues></_>
        <_>
          <internalNodes>
            0 -1 8 1.2809360399842262e-02</internalNodes>
          <leafValues>
            -1.8445354700088501e-01 4.3388298153877258e-01</leafValues></_>
        <_>
          <internalNodes>
            0 -1 206 -5.3692129440605640e-03</internalNodes>
          <leafValues>
            4.6677979826927185e-01 -1.6104038059711456e-01</leafValues></_>
        <_>
          <internalNodes>
            0 -1 208 1.2698992155492306e-02</internalNodes>
          <leafValues>
            -1.1514045298099518e-01 6.9192022085189819e-01</leafValues></_>
        <_>
          <internalNodes>
            0 -1 22 7.1650970494374633e-04</internalNodes>
          <leafValues>
            1.6144911944866180e-01 -5.4462903738021851e-01</leafValues></_>
        <_>
          <internalNodes>
            0 -1 40 -1.0003643110394478e-02</internalNodes>
          <leafValues>
            1.8843556940555573e-01 -4.1931608319282532e-01</leafValues></_></weakClassifiers></_></stages>
  <features>
    <_>
      <rects>
        <_>
          0 0 1 2 -1.</_>
        <_>
          0 1 1 1 2.</_></rects>
      <tilted>0</tilted></_>
    <_>
      <rects>
        <_>
          0 0 2 2 -1.</_>
        <_>
          1 0 1 2 2.</_></rects>
      <tilted>0</tilted></_>
    <_>
      <rects>
        <_>
          0 0 4 1 -1.</_>
        <_>
          2 0 2 1 2.</_></rects>
      <tilted>0</tilted></_>
    <_>
      <rects>
        <_>
          0 0 6 1 -1.</_>
        <_>
          3 0 3 1 2.</_></rects>
      <tilted>0</tilted></_>
    <_>
      <rects>
        <_>
          0 0 16 4 -1.</_>
        <_>
          0 0 8 2 2.</_>
        <_>
          8 2 8 2 2.</_></rects>
      <tilted>0</tilted></_>
    <_>
      <rects>
        <_>
          0 0 19 4 -1.</_>
        <_>
          0 2 19 2 2.</_></rects>
      <tilted>0</tilted></_>
    <_>
      <rects>
        <_>
          0 1 1 9 -1.</_>
        <_>
          0 4 1 3 3.</_></rects>
      <tilted>0</tilted></_>
    <_>
      <rects>
        <_>
          0 1 8 21 -1.</_>
        <_>
          4 1 4 21 2.</_></rects>
      <tilted>0</tilted></_>
    <_>
      <rects>
        <_>
          0 1 19 2 -1.</_>
        <_>
          0 2 19 1 2.</_></rects>
      <tilted>0</tilted></_>
    <_>
      <rects>
        <_>
          0 2 12 2 -1.</_>
        <_>
          6 2 6 2 2.</_></rects>
      <tilted>0</tilted></_>
    <_>
      <rects>
        <_>
          0 2 23 22 -1.</_>
        <_>
          0 13 23 11 2.</_></rects>
      <tilted>0</tilted></_>
    <_>
      <rects>
        <_>
          0 3 21 2 -1.</_>
        <_>
          7 3 7 2 3.</_></rects>
      <tilted>0</tilted></_>
    <_>
      <rects>
        <_>
          0 3 20 12 -1.</_>
        <_>
          0 7 20 4 3.</_></rects>
      <tilted>0</tilted></_>
    <_>
      <rects>
        <_>
          0 4 24 20 -1.</_>
        <_>
          12 4 12 20 2.</_></rects>
      <tilted>0</tilted></_>
    <_>
      <rects>
        <_>
          0 4 19 9 -1.</_>
        <_>
          0 7 19 3 3.</_></rects>
      <tilted>0</tilted></_>
    <_>
      <rects>
        <_>
          0 5 2 3 -1.</_>
        <_>
          0 6 2 1 3.</_></rects>
      <tilted>0</tilted></_>
    <_>
      <rects>
        <_>
          0 5 9 8 -1.</_>
        <_>
          3 5 3 8 3.</_></rects>
      <tilted>0</tilted></_>
    <_>
      <rects>
        <_>
          0 5 6 11 -1.</_>
        <_>
          3 5 3 11 2.</_></rects>
      <tilted>0</tilted></_>
    <_>
      <rects>
        <_>
          0 6 2 9 -1.</_>
        <_>
          1 6 1 9 2.</_></rects>
      <tilted>0</tilted></_>
    <_>
      <rects>
        <_>
          0 6 2 4 -1.</_>
        <_>
          0 8 2 2 2.</_></rects>
      <tilted>0</tilted></_>
    <_>
      <rects>
        <_>
          0 6 4 8 -1.</_>
        <_>
          0 6 2 4 2.</_>
        <_>
          2 10 2 4 2.</_></rects>
      <tilted>0</tilted></_>
    <_>
      <rects>
        <_>
          0 7 22 2 -1.</_>
        <_>
          0 7 11 1 2.</_>
        <_>
          11 8 11 1 2.</_></rects>
      <tilted>0</tilted></_>
    <_>
      <rects>
        <_>
          0 8 1 2 -1.</_>
        <_>
          0 9 1 1 2.</_></rects>
      <tilted>0</tilted></_>
    <_>
      <rects>
        <_>
          0 8 22 12 -1.</_>
        <_>
          0 12 22 4 3.</_></rects>
      <tilted>0</tilted></_>
    <_>
      <rects>
        <_>
          0 9 2 4 -1.</_>
        <_>
          0 9 1 2 2.</_>
        <_>
          1 11 1 2 2.</_></rects>
      <tilted>0</tilted></_>
    <_>
      <rects>
        <_>
          0 9 15 6 -1.</_>
        <_>
          0 11 15 2 3.</_></rects>
      <tilted>0</tilted></_>
    <_>
      <rects>
        <_>
          0 10 2 6 -1.</_>
        <_>
          0 12 2 2 3.</_></rects>
      <tilted>0</tilted></_>
    <_>
      <rects>
        <_>
          0 10 4 14 -1.</_>
        <_>
          0 10 2 7 2.</_>
        <_>
          2 17 2 7 2.</_></rects>
      <tilted>0</tilted></_>
    <_>
      <rects>
        <_>
          0 11 4 12 -1.</_>
        <_>
          0 11 2 6 2.</_>
        <_>
          2 17 2 6 2.</_></rects>
      <tilted>0</tilted></_>
    <_>
      <rects>
        <_>
          0 12 2 10 -1.</_>
        <_>
          0 12 1 5 2.</_>
        <_>
          1 17 1 5 2.</_></rects>
      <tilted>0</tilted></_>
    <_>
      <rects>
        <_>
          0 12 2 12 -1.</_>
        <_>
          0 12 1 6 2.</_>
        <_>
          1 18 1 6 2.</_></rects>
      <tilted>0</tilted></_>
    <_>
      <rects>
        <_>
          0 12 4 6 -1.</_>
        <_>
          0 12 2 3 2.</_>
        <_>
          2 15 2 3 2.</_></rects>
      <tilted>0</tilted></_>
    <_>
      <rects>
        <_>
          0 12 21 3 -1.</_>
        <_>
          0 13 21 1 3.</_></rects>
      <tilted>0</tilted></_>
    <_>
      <rects>
        <_>
          0 13 3 5 -1.</_>
        <_>
          1 13 1 5 3.</_></rects>
      <tilted>0</tilted></_>
    <_>
      <rects>
        <_>
          0 14 2 1 -1.</_>
        <_>
          1 14 1 1 2.</_></rects>
      <tilted>0</tilted></_>
    <_>
      <rects>
        <_>
          0 14 3 1 -1.</_>
        <_>
          1 14 1 1 3.</_></rects>
      <tilted>0</tilted></_>
    <_>
      <rects>
        <_>
          0 14 2 6 -1.</_>
        <_>
          1 14 1 6 2.</_></rects>
      <tilted>0</tilted></_>
    <_>
      <rects>
        <_>
          0 15 2 2 -1.</_>
        <_>
          1 15 1 2 2.</_></rects>
      <tilted>0</tilted></_>
    <_>
      <rects>
        <_>
          0 15 3 6 -1.</_>
        <_>
          1 15 1 6 3.</_></rects>
      <tilted>0</tilted></_>
    <_>
      <rects>
        <_>
          0 15 8 8 -1.</_>
        <_>
          0 15 4 4 2.</_>
        <_>
          4 19 4 4 2.</_></rects>
      <tilted>0</tilted></_>
    <_>
      <rects>
        <_>
          0 17 8 6 -1.</_>
        <_>
          0 20 8 3 2.</_></rects>
      <tilted>0</tilted></_>
    <_>
      <rects>
        <_>
          0 18 1 6 -1.</_>
        <_>
          0 21 1 3 2.</_></rects>
      <tilted>0</tilted></_>
    <_>
      <rects>
        <_>
          0 18 4 4 -1.</_>
        <_>
          2 18 2 4 2.</_></rects>
      <tilted>0</tilted></_>
    <_>
      <rects>
        <_>
          0 18 8 6 -1.</_>
        <_>
          0 18 4 3 2.</_>
        <_>
          4 21 4 3 2.</_></rects>
      <tilted>0</tilted></_>
    <_>
      <rects>
        <_>
          0 19 12 4 -1.</_>
        <_>
          0 21 12 2 2.</_></rects>
      <tilted>0</tilted></_>
    <_>
      <rects>
        <_>
          0 20 6 2 -1.</_>
        <_>
          2 20 2 2 3.</_></rects>
      <tilted>0</tilted></_>
    <_>
      <rects>
        <_>
          0 20 16 4 -1.</_>
        <_>
          0 20 8 2 2.</_>
        <_>
          8 22 8 2 2.</_></rects>
      <tilted>0</tilted></_>
    <_>
      <rects>
        <_>
          0 21 1 3 -1.</_>
        <_>
          0 22 1 1 3.</_></rects>
      <tilted>0</tilted></_>
    <_>
      <rects>
        <_>
          0 22 2 1 -1.</_>
        <_>
          1 22 1 1 2.</_></rects>
      <tilted>0</tilted></_>
    <_>
      <rects>
        <_>
          0 22 8 2 -1.</_>
        <_>
          4 22 4 2 2.</_></rects>
      <tilted>0</tilted></_>
    <_>
      <rects>
        <_>
          0 22 24 2 -1.</_>
        <_>
          8 22 8 2 3.</_></rects>
      <tilted>0</tilted></_>
    <_>
      <rects>
        <_>
          0 22 24 2 -1.</_>
        <_>
          0 23 24 1 2.</_></rects>
      <tilted>0</tilted></_>
    <_>
      <rects>
        <_>
          0 23 2 1 -1.</_>
        <_>
          1 23 1 1 2.</_></rects>
      <tilted>0</tilted></_>
    <_>
      <rects>
        <_>
          0 23 8 1 -1.</_>
        <_>
          4 23 4 1 2.</_></rects>
      <tilted>0</tilted></_>
    <_>
      <rects>
        <_>
          1 0 4 6 -1.</_>
        <_>
          3 0 2 6 2.</_></rects>
      <tilted>0</tilted></_>
    <_>
      <rects>
        <_>
          1 1 17 6 -1.</_>
        <_>
          1 3 17 2 3.</_></rects>
      <tilted>0</tilted></_>
    <_>
      <rects>
        <_>
          1 2 19 10 -1.</_>
        <_>
          1 7 19 5 2.</_></rects>
      <tilted>0</tilted></_>
    <_>
      <rects>
        <_>
          1 4 12 6 -1.</_>
        <_>
          7 4 6 6 2.</_></rects>
      <tilted>0</tilted></_>
    <_>
      <rects>
        <_>
          1 4 13 6 -1.</_>
        <_>
          1 7 13 3 2.</_></rects>
      <tilted>0</tilted></_>
    <_>
      <rects>
        <_>
          1 5 16 6 -1.</_>
        <_>
          1 7 16 2 3.</_></rects>
      <tilted>0</tilted></_>
    <_>
      <rects>
        <_>
          1 6 2 2 -1.</_>
        <_>
          1 7 2 1 2.</_></rects>
      <tilted>0</tilted></_>
    <_>
      <rects>
        <_>
          1 6 15 18 -1.</_>
        <_>
          1 15 15 9 2.</_></rects>
      <tilted>0</tilted></_>
    <_>
      <rects>
        <_>
          1 7 2 10 -1.</_>
        <_>
          2 7 1 10 2.</_></rects>
      <tilted>0</tilted></_>
    <_>
      <rects>
        <_>
          1 8 4 6 -1.</_>
        <_>
          1 10 4 2 3.</_></rects>
      <tilted>0</tilted></_>
    <_>
      <rects>
        <_>
          1 8 6 6 -1.</_>
        <_>
          1 10 6 2 3.</_></rects>
      <tilted>0</tilted></_>
    <_>
      <rects>
        <_>
          1 9 5 14 -1.</_>
        <_>
          1 16 5 7 2.</_></rects>
      <tilted>0</tilted></_>
    <_>
      <rects>
        <_>
          1 10 2 14 -1.</_>
        <_>
          1 10 1 7 2.</_>
        <_>
          2 17 1 7 2.</_></rects>
      <tilted>0</tilted></_>
    <_>
      <rects>
        <_>
          1 10 22 4 -1.</_>
        <_>
          1 10 11 2 2.</_>
        <_>
          12 12 11 2 2.</_></rects>
      <tilted>0</tilted></_>
    <_>
      <rects>
        <_>
          1 11 22 12 -1.</_>
        <_>
          1 17 22 6 2.</_></rects>
      <tilted>0</tilted></_>
    <_>
      <rects>
        <_>
          1 12 18 2 -1.</_>
        <_>
          1 12 9 1 2.</_>
        <_>
          10 13 9 1 2.</_></rects>
      <tilted>0</tilted></_>
    <_>
      <rects>
        <_>
          1 13 23 9 -1.</_>
        <_>
          1 16 23 3 3.</_></rects>
      <tilted>0</tilted></_>
    <_>
      <rects>
        <_>
          1 14 22 4 -1.</_>
        <_>
          1 16 22 2 2.</_></rects>
      <tilted>0</tilted></_>
    <_>
      <rects>
        <_>
          1 16 9 2 -1.</_>
        <_>
          4 16 3 2 3.</_></rects>
      <tilted>0</tilted></_>
    <_>
      <rects>
        <_>
          1 16 7 6 -1.</_>
        <_>
          1 19 7 3 2.</_></rects>
      <tilted>0</tilted></_>
    <_>
      <rects>
        <_>
          1 16 8 8 -1.</_>
        <_>
          1 20 8 4 2.</_></rects>
      <tilted>0</tilted></_>
    <_>
      <rects>
        <_>
          1 17 15 6 -1.</_>
        <_>
          1 20 15 3 2.</_></rects>
      <tilted>0</tilted></_>
    <_>
      <rects>
        <_>
          1 19 20 2 -1.</_>
        <_>
          1 20 20 1 2.</_></rects>
      <tilted>0</tilted></_>
    <_>
      <rects>
        <_>
          1 22 2 2 -1.</_>
        <_>
          2 22 1 2 2.</_></rects>
      <tilted>0</tilted></_>
    <_>
      <rects>
        <_>
          1 22 4 2 -1.</_>
        <_>
          3 22 2 2 2.</_></rects>
      <tilted>0</tilted></_>
    <_>
      <rects>
        <_>
          1 23 2 1 -1.</_>
        <_>
          2 23 1 1 2.</_></rects>
      <tilted>0</tilted></_>
    <_>
      <rects>
        <_>
          1 23 3 1 -1.</_>
        <_>
          2 23 1 1 3.</_></rects>
      <tilted>0</tilted></_>
    <_>
      <rects>
        <_>
          2 2 4 8 -1.</_>
        <_>
          2 2 2 4 2.</_>
        <_>
          4 6 2 4 2.</_></rects>
      <tilted>0</tilted></_>
    <_>
      <rects>
        <_>
          2 4 21 6 -1.</_>
        <_>
          9 4 7 6 3.</_></rects>
      <tilted>0</tilted></_>
    <_>
      <rects>
        <_>
          2 6 4 4 -1.</_>
        <_>
          4 6 2 4 2.</_></rects>
      <tilted>0</tilted></_>
    <_>
      <rects>
        <_>
          2 6 6 10 -1.</_>
        <_>
          2 6 3 5 2.</_>
        <_>
          5 11 3 5 2.</_></rects>
      <tilted>0</tilted></_>
    <_>
      <rects>
        <_>
          2 7 3 3 -1.</_>
        <_>
          3 7 1 3 3.</_></rects>
      <tilted>0</tilted></_>
    <_>
      <rects>
        <_>
          2 7 14 15 -1.</_>
        <_>
          2 12 14 5 3.</_></rects>
      <tilted>0</tilted></_>
    <_>
      <rects>
        <_>
          2 9 21 14 -1.</_>
        <_>
          2 16 21 7 2.</_></rects>
      <tilted>0</tilted></_>
    <_>
      <rects>
        <_>
          2 10 3 9 -1.</_>
        <_>
          2 13 3 3 3.</_></rects>
      <tilted>0</tilted></_>
    <_>
      <rects>
        <_>
          2 10 19 6 -1.</_>
        <_>
          2 12 19 2 3.</_></rects>
      <tilted>0</tilted></_>
    <_>
      <rects>
        <_>
          2 11 1 8 -1.</_>
        <_>
          2 15 1 4 2.</_></rects>
      <tilted>0</tilted></_>
    <_>
      <rects>
        <_>
          2 11 1 10 -1.</_>
        <_>
          2 16 1 5 2.</_></rects>
      <tilted>0</tilted></_>
    <_>
      <rects>
        <_>
          2 13 20 10 -1.</_>
        <_>
          2 18 20 5 2.</_></rects>
      <tilted>0</tilted></_>
    <_>
      <rects>
        <_>
          2 18 13 6 -1.</_>
        <_>
          2 20 13 2 3.</_></rects>
      <tilted>0</tilted></_>
    <_>
      <rects>
        <_>
          2 20 4 4 -1.</_>
        <_>
          2 20 2 2 2.</_>
        <_>
          4 22 2 2 2.</_></rects>
      <tilted>0</tilted></_>
    <_>
      <rects>
        <_>
          2 21 22 3 -1.</_>
        <_>
          2 22 22 1 3.</_></rects>
      <tilted>0</tilted></_>
    <_>
      <rects>
        <_>
          2 23 2 1 -1.</_>
        <_>
          3 23 1 1 2.</_></rects>
      <tilted>0</tilted></_>
    <_>
      <rects>
        <_>
          3 0 20 4 -1.</_>
        <_>
          3 2 20 2 2.</_></rects>
      <tilted>0</tilted></_>
    <_>
      <rects>
        <_>
          3 1 2 15 -1.</_>
        <_>
          3 6 2 5 3.</_></rects>
      <tilted>0</tilted></_>
    <_>
      <rects>
        <_>
          3 1 21 4 -1.</_>
        <_>
          10 1 7 4 3.</_></rects>
      <tilted>0</tilted></_>
    <_>
      <rects>
        <_>
          3 1 21 10 -1.</_>
        <_>
          10 1 7 10 3.</_></rects>
      <tilted>0</tilted></_>
    <_>
      <rects>
        <_>
          3 1 21 6 -1.</_>
        <_>
          3 4 21 3 2.</_></rects>
      <tilted>0</tilted></_>
    <_>
      <rects>
        <_>
          3 2 2 2 -1.</_>
        <_>
          4 2 1 2 2.</_></rects>
      <tilted>0</tilted></_>
    <_>
      <rects>
        <_>
          3 2 4 3 -1.</_>
        <_>
          5 2 2 3 2.</_></rects>
      <tilted>0</tilted></_>
    <_>
      <rects>
        <_>
          3 4 21 1 -1.</_>
        <_>
          10 4 7 1 3.</_></rects>
      <tilted>0</tilted></_>
    <_>
      <rects>
        <_>
          3 4 18 7 -1.</_>
        <_>
          12 4 9 7 2.</_></rects>
      <tilted>0</tilted></_>
    <_>
      <rects>
        <_>
          3 5 4 4 -1.</_>
        <_>
          5 5 2 4 2.</_></rects>
      <tilted>0</tilted></_>
    <_>
      <rects>
        <_>
          3 6 1 2 -1.</_>
        <_>
          3 7 1 1 2.</_></rects>
      <tilted>0</tilted></_>
    <_>
      <rects>
        <_>
          3 6 4 4 -1.</_>
        <_>
          5 6 2 4 2.</_></rects>
      <tilted>0</tilted></_>
    <_>
      <rects>
        <_>
          3 6 18 9 -1.</_>
        <_>
          9 6 6 9 3.</_></rects>
      <tilted>0</tilted></_>
    <_>
      <rects>
        <_>
          3 7 12 4 -1.</_>
        <_>
          7 7 4 4 3.</_></rects>
      <tilted>0</tilted></_>
    <_>
      <rects>
        <_>
          3 7 9 15 -1.</_>
        <_>
          3 12 9 5 3.</_></rects>
      <tilted>0</tilted></_>
    <_>
      <rects>
        <_>
          3 8 2 2 -1.</_>
        <_>
          3 8 1 1 2.</_>
        <_>
          4 9 1 1 2.</_></rects>
      <tilted>0</tilted></_>
    <_>
      <rects>
        <_>
          3 8 6 4 -1.</_>
        <_>
          6 8 3 4 2.</_></rects>
      <tilted>0</tilted></_>
    <_>
      <rects>
        <_>
          3 9 5 6 -1.</_>
        <_>
          3 11 5 2 3.</_></rects>
      <tilted>0</tilted></_>
    <_>
      <rects>
        <_>
          3 12 17 12 -1.</_>
        <_>
          3 18 17 6 2.</_></rects>
      <tilted>0</tilted></_>
    <_>
      <rects>
        <_>
          3 16 6 6 -1.</_>
        <_>
          3 16 3 3 2.</_>
        <_>
          6 19 3 3 2.</_></rects>
      <tilted>0</tilted></_>
    <_>
      <rects>
        <_>
          3 17 4 6 -1.</_>
        <_>
          3 17 2 3 2.</_>
        <_>
          5 20 2 3 2.</_></rects>
      <tilted>0</tilted></_>
    <_>
      <rects>
        <_>
          3 23 3 1 -1.</_>
        <_>
          4 23 1 1 3.</_></rects>
      <tilted>0</tilted></_>
    <_>
      <rects>
        <_>
          4 0 10 2 -1.</_>
        <_>
          4 0 5 1 2.</_>
        <_>
          9 1 5 1 2.</_></rects>
      <tilted>0</tilted></_>
    <_>
      <rects>
        <_>
          4 0 14 24 -1.</_>
        <_>
          4 12 14 12 2.</_></rects>
      <tilted>0</tilted></_>
    <_>
      <rects>
        <_>
          4 1 6 9 -1.</_>
        <_>
          6 1 2 9 3.</_></rects>
      <tilted>0</tilted></_>
    <_>
      <rects>
        <_>
          4 1 10 3 -1.</_>
        <_>
          4 2 10 1 3.</_></rects>
      <tilted>0</tilted></_>
    <_>
      <rects>
        <_>
          4 1 14 2 -1.</_>
        <_>
          4 2 14 1 2.</_></rects>
      <tilted>0</tilted></_>
    <_>
      <rects>
        <_>
          4 2 5 15 -1.</_>
        <_>
          4 7 5 5 3.</_></rects>
      <tilted>0</tilted></_>
    <_>
      <rects>
        <_>
          4 3 6 9 -1.</_>
        <_>
          6 3 2 9 3.</_></rects>
      <tilted>0</tilted></_>
    <_>
      <rects>
        <_>
          4 4 2 2 -1.</_>
        <_>
          4 4 1 1 2.</_>
        <_>
          5 5 1 1 2.</_></rects>
      <tilted>0</tilted></_>
    <_>
      <rects>
        <_>
          4 6 6 6 -1.</_>
        <_>
          6 6 2 6 3.</_></rects>
      <tilted>0</tilted></_>
    <_>
      <rects>
        <_>
          4 9 14 6 -1.</_>
        <_>
          4 11 14 2 3.</_></rects>
      <tilted>0</tilted></_>
    <_>
      <rects>
        <_>
          4 11 4 6 -1.</_>
        <_>
          4 13 4 2 3.</_></rects>
      <tilted>0</tilted></_>
    <_>
      <rects>
        <_>
          4 11 11 4 -1.</_>
        <_>
          4 13 11 2 2.</_></rects>
      <tilted>0</tilted></_>
    <_>
      <rects>
        <_>
          4 13 5 3 -1.</_>
        <_>
          4 14 5 1 3.</_></rects>
      <tilted>0</tilted></_>
    <_>
      <rects>
        <_>
          4 17 4 5 -1.</_>
        <_>
          6 17 2 5 2.</_></rects>
      <tilted>0</tilted></_>
    <_>
      <rects>
        <_>
          4 18 11 4 -1.</_>
        <_>
          4 20 11 2 2.</_></rects>
      <tilted>0</tilted></_>
    <_>
      <rects>
        <_>
          4 22 2 2 -1.</_>
        <_>
          5 22 1 2 2.</_></rects>
      <tilted>0</tilted></_>
    <_>
      <rects>
        <_>
          4 23 2 1 -1.</_>
        <_>
          5 23 1 1 2.</_></rects>
      <tilted>0</tilted></_>
    <_>
      <rects>
        <_>
          4 23 3 1 -1.</_>
        <_>
          5 23 1 1 3.</_></rects>
      <tilted>0</tilted></_>
    <_>
      <rects>
        <_>
          5 0 19 15 -1.</_>
        <_>
          5 5 19 5 3.</_></rects>
      <tilted>0</tilted></_>
    <_>
      <rects>
        <_>
          5 1 5 6 -1.</_>
        <_>
          5 3 5 2 3.</_></rects>
      <tilted>0</tilted></_>
    <_>
      <rects>
        <_>
          5 1 13 6 -1.</_>
        <_>
          5 3 13 2 3.</_></rects>
      <tilted>0</tilted></_>
    <_>
      <rects>
        <_>
          5 3 19 6 -1.</_>
        <_>
          5 6 19 3 2.</_></rects>
      <tilted>0</tilted></_>
    <_>
      <rects>
        <_>
          5 4 4 4 -1.</_>
        <_>
          5 4 2 2 2.</_>
        <_>
          7 6 2 2 2.</_></rects>
      <tilted>0</tilted></_>
    <_>
      <rects>
        <_>
          5 5 12 3 -1.</_>
        <_>
          5 6 12 1 3.</_></rects>
      <tilted>0</tilted></_>
    <_>
      <rects>
        <_>
          5 10 18 6 -1.</_>
        <_>
          5 12 18 2 3.</_></rects>
      <tilted>0</tilted></_>
    <_>
      <rects>
        <_>
          5 16 7 8 -1.</_>
        <_>
          5 20 7 4 2.</_></rects>
      <tilted>0</tilted></_>
    <_>
      <rects>
        <_>
          5 18 6 2 -1.</_>
        <_>
          7 18 2 2 3.</_></rects>
      <tilted>0</tilted></_>
    <_>
      <rects>
        <_>
          5 18 12 4 -1.</_>
        <_>
          5 20 12 2 2.</_></rects>
      <tilted>0</tilted></_>
    <_>
      <rects>
        <_>
          5 23 2 1 -1.</_>
        <_>
          6 23 1 1 2.</_></rects>
      <tilted>0</tilted></_>
    <_>
      <rects>
        <_>
          6 0 9 9 -1.</_>
        <_>
          6 3 9 3 3.</_></rects>
      <tilted>0</tilted></_>
    <_>
      <rects>
        <_>
          6 1 5 3 -1.</_>
        <_>
          6 2 5 1 3.</_></rects>
      <tilted>0</tilted></_>
    <_>
      <rects>
        <_>
          6 2 16 2 -1.</_>
        <_>
          6 2 8 1 2.</_>
        <_>
          14 3 8 1 2.</_></rects>
      <tilted>0</tilted></_>
    <_>
      <rects>
        <_>
          6 3 4 4 -1.</_>
        <_>
          6 5 4 2 2.</_></rects>
      <tilted>0</tilted></_>
    <_>
      <rects>
        <_>
          6 9 4 2 -1.</_>
        <_>
          6 9 2 1 2.</_>
        <_>
          8 10 2 1 2.</_></rects>
      <tilted>0</tilted></_>
    <_>
      <rects>
        <_>
          6 10 3 3 -1.</_>
        <_>
          6 11 3 1 3.</_></rects>
      <tilted>0</tilted></_>
    <_>
      <rects>
        <_>
          6 11 12 9 -1.</_>
        <_>
          10 11 4 9 3.</_></rects>
      <tilted>0</tilted></_>
    <_>
      <rects>
        <_>
          6 12 7 12 -1.</_>
        <_>
          6 18 7 6 2.</_></rects>
      <tilted>0</tilted></_>
    <_>
      <rects>
        <_>
          6 12 18 10 -1.</_>
        <_>
          6 17 18 5 2.</_></rects>
      <tilted>0</tilted></_>
    <_>
      <rects>
        <_>
          6 15 14 8 -1.</_>
        <_>
          6 19 14 4 2.</_></rects>
      <tilted>0</tilted></_>
    <_>
      <rects>
        <_>
          6 16 14 3 -1.</_>
        <_>
          6 17 14 1 3.</_></rects>
      <tilted>0</tilted></_>
    <_>
      <rects>
        <_>
          6 23 3 1 -1.</_>
        <_>
          7 23 1 1 3.</_></rects>
      <tilted>0</tilted></_>
    <_>
      <rects>
        <_>
          7 0 2 4 -1.</_>
        <_>
          7 2 2 2 2.</_></rects>
      <tilted>0</tilted></_>
    <_>
      <rects>
        <_>
          7 0 14 2 -1.</_>
        <_>
          7 1 14 1 2.</_></rects>
      <tilted>0</tilted></_>
    <_>
      <rects>
        <_>
          7 0 17 4 -1.</_>
        <_>
          7 2 17 2 2.</_></rects>
      <tilted>0</tilted></_>
    <_>
      <rects>
        <_>
          7 1 1 15 -1.</_>
        <_>
          7 6 1 5 3.</_></rects>
      <tilted>0</tilted></_>
    <_>
      <rects>
        <_>
          7 1 5 3 -1.</_>
        <_>
          7 2 5 1 3.</_></rects>
      <tilted>0</tilted></_>
    <_>
      <rects>
        <_>
          7 1 7 10 -1.</_>
        <_>
          7 6 7 5 2.</_></rects>
      <tilted>0</tilted></_>
    <_>
      <rects>
        <_>
          7 2 12 22 -1.</_>
        <_>
          13 2 6 22 2.</_></rects>
      <tilted>0</tilted></_>
    <_>
      <rects>
        <_>
          7 3 15 9 -1.</_>
        <_>
          7 6 15 3 3.</_></rects>
      <tilted>0</tilted></_>
    <_>
      <rects>
        <_>
          7 4 12 6 -1.</_>
        <_>
          7 7 12 3 2.</_></rects>
      <tilted>0</tilted></_>
    <_>
      <rects>
        <_>
          7 8 3 2 -1.</_>
        <_>
          8 8 1 2 3.</_></rects>
      <tilted>0</tilted></_>
    <_>
      <rects>
        <_>
          7 12 15 12 -1.</_>
        <_>
          7 18 15 6 2.</_></rects>
      <tilted>0</tilted></_>
    <_>
      <rects>
        <_>
          7 16 10 2 -1.</_>
        <_>
          7 17 10 1 2.</_></rects>
      <tilted>0</tilted></_>
    <_>
      <rects>
        <_>
          7 19 8 1 -1.</_>
        <_>
          11 19 4 1 2.</_></rects>
      <tilted>0</tilted></_>
    <_>
      <rects>
        <_>
