<?xml version="1.0"?>
<opencv_storage>
<cascade>
  <stageType>BOOST</stageType>
  <featureType>HAAR</featureType>
  <height>24</height>
  <width>24</width>
  <stageParams>
    <boostType>GAB</boostType>
    <minHitRate>9.9500000476837158e-01</minHitRate>
    <maxFalseAlarm>5.0000000000000000e-01</maxFalseAlarm>
    <weightTrimRate>9.4999999999999996e-01</weightTrimRate>
    <maxDepth>1</maxDepth>
    <maxWeakCount>100</maxWeakCount></stageParams>
  <featureParams>
    <maxCatCount>0</maxCatCount>
    <featSize>1</featSize>
    <mode>BASIC</mode></featureParams>
  <stageNum>30</stageNum>
  <stages>
    <!-- stage 0 -->
    <_>
      <maxWeakCount>12</maxWeakCount>
      <stageThreshold>-1.2467939853668213e+00</stageThreshold>
      <weakClassifiers>
        <_>
          <internalNodes>
            0 -1 470 -5.8320112526416779e-02</internalNodes>
          <leafValues>
            6.7238688468933105e-01 -3.3409351110458374e-01</leafValues></_>
        <_>
          <internalNodes>
            0 -1 1342 9.6844667568802834e-03</internalNodes>
          <leafValues>
            -2.4373036623001099e-01 6.3671779632568359e-01</leafValues></_>
        <_>
          <internalNodes>
            0 -1 106 -2.5205521378666162e-03</internalNodes>
          <leafValues>
            5.8441901206970215e-01 -2.7063772082328796e-01</leafValues></_>
        <_>
          <internalNodes>
            0 -1 638 -8.4576150402426720e-03</internalNodes>
          <leafValues>
            3.8542219996452332e-01 -3.8673719763755798e-01</leafValues></_>
        <_>
          <internalNodes>
            0 -1 105 -1.7379950731992722e-03</internalNodes>
          <leafValues>
            5.5726659297943115e-01 -2.5999754667282104e-01</leafValues></_>
        <_>
          <internalNodes>
            0 -1 422 7.9273022711277008e-03</internalNodes>
          <leafValues>
            -2.6863458752632141e-01 5.1381164789199829e-01</leafValues></_>
        <_>
          <internalNodes>
            0 -1 633 -3.0205007642507553e-03</internalNodes>
          <leafValues>
            6.4727705717086792e-01 -1.7677493393421173e-01</leafValues></_>
        <_>
          <internalNodes>
            0 -1 803 -6.4928922802209854e-03</internalNodes>
          <leafValues>
            4.3683436512947083e-01 -2.9836630821228027e-01</leafValues></_>
        <_>
          <internalNodes>
            0 -1 122 2.9612486250698566e-03</internalNodes>
          <leafValues>
            -1.4144745469093323e-01 7.1584904193878174e-01</leafValues></_>
        <_>
          <internalNodes>
            0 -1 1092 -1.7460369272157550e-03</internalNodes>
          <leafValues>
            4.2244723439216614e-01 -2.3109239339828491e-01</leafValues></_>
        <_>
          <internalNodes>
            0 -1 986 -1.5207484830170870e-03</internalNodes>
          <leafValues>
            5.1471704244613647e-01 -2.2094954550266266e-01</leafValues></_>
        <_>
          <internalNodes>
            0 -1 181 -2.3766467347741127e-03</internalNodes>
          <leafValues>
            4.0150666236877441e-01 -2.4486477673053741e-01</leafValues></_></weakClassifiers></_>
    <!-- stage 1 -->
    <_>
      <maxWeakCount>17</maxWeakCount>
      <stageThreshold>-8.2025986909866333e-01</stageThreshold>
      <weakClassifiers>
        <_>
          <internalNodes>
            0 -1 1430 3.9717014878988266e-03</internalNodes>
          <leafValues>
            5.4522924125194550e-02 7.6897132396697998e-01</leafValues></_>
        <_>
          <internalNodes>
            0 -1 480 -4.4753998517990112e-02</internalNodes>
          <leafValues>
            3.7780836224555969e-01 -3.9204391837120056e-01</leafValues></_>
        <_>
          <internalNodes>
            0 -1 113 -9.4709880650043488e-03</internalNodes>
          <leafValues>
            6.2264841794967651e-01 -2.1680849790573120e-01</leafValues></_>
        <_>
          <internalNodes>
            0 -1 248 -8.5675772279500961e-03</internalNodes>
          <leafValues>
            3.3781847357749939e-01 -3.1828874349594116e-01</leafValues></_>
        <_>
          <internalNodes>
            0 -1 1378 -2.1688630804419518e-03</internalNodes>
          <leafValues>
            5.3169327974319458e-01 -1.8993701040744781e-01</leafValues></_>
        <_>
          <internalNodes>
            0 -1 1376 1.8790434114634991e-03</internalNodes>
          <leafValues>
            -1.8867450952529907e-01 4.9934351444244385e-01</leafValues></_>
        <_>
          <internalNodes>
            0 -1 416 -2.6087509468197823e-03</internalNodes>
          <leafValues>
            4.9416303634643555e-01 -1.6953514516353607e-01</leafValues></_>
        <_>
          <internalNodes>
            0 -1 175 -5.1853638142347336e-03</internalNodes>
          <leafValues>
            3.4986633062362671e-01 -2.5018921494483948e-01</leafValues></_>
        <_>
          <internalNodes>
            0 -1 426 3.2913894392549992e-03</internalNodes>
          <leafValues>
            -1.6601590812206268e-01 5.1562422513961792e-01</leafValues></_>
        <_>
          <internalNodes>
            0 -1 274 -7.2127999737858772e-03</internalNodes>
          <leafValues>
            5.3707396984100342e-01 -1.3065773248672485e-01</leafValues></_>
        <_>
          <internalNodes>
            0 -1 1102 -1.2372193858027458e-02</internalNodes>
          <leafValues>
            4.8667651414871216e-01 -1.7454224824905396e-01</leafValues></_>
        <_>
          <internalNodes>
            0 -1 1275 1.6081877052783966e-02</internalNodes>
          <leafValues>
            -1.7665825784206390e-01 4.8101440072059631e-01</leafValues></_>
        <_>
          <internalNodes>
            0 -1 917 1.8908733036369085e-03</internalNodes>
          <leafValues>
            -1.5711131691932678e-01 5.2194768190383911e-01</leafValues></_>
        <_>
          <internalNodes>
            0 -1 875 1.8685304094105959e-03</internalNodes>
          <leafValues>
            -1.9084511697292328e-01 4.8230472207069397e-01</leafValues></_>
        <_>
          <internalNodes>
            0 -1 829 -4.3038822710514069e-02</internalNodes>
          <leafValues>
            2.1681846678256989e-01 -3.9605122804641724e-01</leafValues></_>
        <_>
          <internalNodes>
            0 -1 1089 -7.1590449661016464e-03</internalNodes>
          <leafValues>
            5.2297389507293701e-01 -1.5618449449539185e-01</leafValues></_>
        <_>
          <internalNodes>
            0 -1 1450 1.2217455077916384e-03</internalNodes>
          <leafValues>
            -1.4342175424098969e-01 5.4201221466064453e-01</leafValues></_></weakClassifiers></_>
    <!-- stage 2 -->
    <_>
      <maxWeakCount>25</maxWeakCount>
      <stageThreshold>-1.0617705583572388e+00</stageThreshold>
      <weakClassifiers>
        <_>
          <internalNodes>
            0 -1 664 -7.3934994637966156e-02</internalNodes>
          <leafValues>
            5.8240395784378052e-01 -3.6832410842180252e-02</leafValues></_>
        <_>
          <internalNodes>
            0 -1 110 -5.5936328135430813e-03</internalNodes>
          <leafValues>
            3.8291889429092407e-01 -2.7078825235366821e-01</leafValues></_>
        <_>
          <internalNodes>
            0 -1 1356 2.5783581659197807e-03</internalNodes>
          <leafValues>
            -3.0013915896415710e-01 2.9765582084655762e-01</leafValues></_>
        <_>
          <internalNodes>
            0 -1 512 1.7632383853197098e-02</internalNodes>
          <leafValues>
            -2.1528485417366028e-01 4.0677344799041748e-01</leafValues></_>
        <_>
          <internalNodes>
            0 -1 69 -5.4921461269259453e-03</internalNodes>
          <leafValues>
            2.2362929582595825e-01 -3.3106106519699097e-01</leafValues></_>
        <_>
          <internalNodes>
            0 -1 951 -1.4327455312013626e-02</internalNodes>
          <leafValues>
            4.3632709980010986e-01 -1.8222612142562866e-01</leafValues></_>
        <_>
          <internalNodes>
            0 -1 742 2.6845154352486134e-03</internalNodes>
          <leafValues>
            -1.7827533185482025e-01 3.7571769952774048e-01</leafValues></_>
        <_>
          <internalNodes>
            0 -1 1024 -2.2698638495057821e-03</internalNodes>
          <leafValues>
            3.1383818387985229e-01 -2.4140413105487823e-01</leafValues></_>
        <_>
          <internalNodes>
            0 -1 138 1.8330254824832082e-03</internalNodes>
          <leafValues>
            -1.5129874646663666e-01 4.7203606367111206e-01</leafValues></_>
        <_>
          <internalNodes>
            0 -1 145 -6.7272456362843513e-04</internalNodes>
          <leafValues>
            3.6499026417732239e-01 -2.2668732702732086e-01</leafValues></_>
        <_>
          <internalNodes>
            0 -1 1447 -7.9869874753057957e-04</internalNodes>
          <leafValues>
            5.1520079374313354e-01 -1.2059526890516281e-01</leafValues></_>
        <_>
          <internalNodes>
            0 -1 1425 3.5819234326481819e-03</internalNodes>
          <leafValues>
            -1.4458811283111572e-01 4.1271525621414185e-01</leafValues></_>
        <_>
          <internalNodes>
            0 -1 926 -2.3882556706666946e-03</internalNodes>
          <leafValues>
            3.8085508346557617e-01 -1.5813553333282471e-01</leafValues></_>
        <_>
          <internalNodes>
            0 -1 846 -1.0294219478964806e-02</internalNodes>
          <leafValues>
            4.1644644737243652e-01 -1.2759824097156525e-01</leafValues></_>
        <_>
          <internalNodes>
            0 -1 838 -1.3312793336808681e-02</internalNodes>
          <leafValues>
            3.3976814150810242e-01 -1.5615206956863403e-01</leafValues></_>
        <_>
          <internalNodes>
            0 -1 199 -1.3392606888373848e-05</internalNodes>
          <leafValues>
            1.9074785709381104e-01 -2.7972450852394104e-01</leafValues></_>
        <_>
          <internalNodes>
            0 -1 1419 -3.4811296500265598e-03</internalNodes>
          <leafValues>
            4.2268770933151245e-01 -1.2202093005180359e-01</leafValues></_>
        <_>
          <internalNodes>
            0 -1 255 1.5006383880972862e-02</internalNodes>
          <leafValues>
            -8.5362605750560760e-02 5.8059996366500854e-01</leafValues></_>
        <_>
          <internalNodes>
            0 -1 1095 -8.1225053872913122e-04</internalNodes>
          <leafValues>
            3.6572775244712830e-01 -1.3261939585208893e-01</leafValues></_>
        <_>
          <internalNodes>
            0 -1 1158 -3.3252199646085501e-03</internalNodes>
          <leafValues>
            6.1022567749023438e-01 -8.4677033126354218e-02</leafValues></_>
        <_>
          <internalNodes>
            0 -1 1045 -1.9220006652176380e-03</internalNodes>
          <leafValues>
            4.9131816625595093e-01 -1.0637447237968445e-01</leafValues></_>
        <_>
          <internalNodes>
            0 -1 161 8.9728768216446042e-04</internalNodes>
          <leafValues>
            -9.9688887596130371e-02 5.3905707597732544e-01</leafValues></_>
        <_>
          <internalNodes>
            0 -1 631 -2.2956646978855133e-02</internalNodes>
          <leafValues>
            2.8059136867523193e-01 -1.7572267353534698e-01</leafValues></_>
        <_>
          <internalNodes>
            0 -1 945 -2.1141586825251579e-02</internalNodes>
          <leafValues>
            1.5214866399765015e-01 -3.8354071974754333e-01</leafValues></_>
        <_>
          <internalNodes>
            0 -1 1316 3.2089953310787678e-03</internalNodes>
          <leafValues>
            -1.2661509215831757e-01 4.8508885502815247e-01</leafValues></_></weakClassifiers></_>
    <!-- stage 3 -->
    <_>
      <maxWeakCount>22</maxWeakCount>
      <stageThreshold>-9.7375756502151489e-01</stageThreshold>
      <weakClassifiers>
        <_>
          <internalNodes>
            0 -1 372 -7.1118623018264771e-02</internalNodes>
          <leafValues>
            5.7518613338470459e-01 -3.7810218334197998e-01</leafValues></_>
        <_>
          <internalNodes>
            0 -1 236 -3.9642855525016785e-02</internalNodes>
          <leafValues>
            4.6491339802742004e-01 -2.0207902789115906e-01</leafValues></_>
        <_>
          <internalNodes>
            0 -1 24 3.9272151887416840e-02</internalNodes>
          <leafValues>
            -2.1380774676799774e-01 4.5154130458831787e-01</leafValues></_>
        <_>
          <internalNodes>
            0 -1 1470 -4.7381804324686527e-04</internalNodes>
          <leafValues>
            -6.4962714910507202e-01 1.2627062201499939e-01</leafValues></_>
        <_>
          <internalNodes>
            0 -1 645 -2.3622155189514160e-02</internalNodes>
          <leafValues>
            4.7571811079978943e-01 -2.0043514668941498e-01</leafValues></_>
        <_>
          <internalNodes>
            0 -1 1286 1.6742669977247715e-03</internalNodes>
          <leafValues>
            -2.8220862150192261e-01 2.6205843687057495e-01</leafValues></_>
        <_>
          <internalNodes>
            0 -1 1331 -9.5958597958087921e-03</internalNodes>
          <leafValues>
            4.0511998534202576e-01 -1.6681559383869171e-01</leafValues></_>
        <_>
          <internalNodes>
            0 -1 1076 6.9194723619148135e-04</internalNodes>
          <leafValues>
            1.1887396872043610e-01 -5.3085559606552124e-01</leafValues></_>
        <_>
          <internalNodes>
            0 -1 173 -1.1853110045194626e-02</internalNodes>
          <leafValues>
            3.2294335961341858e-01 -1.9292710721492767e-01</leafValues></_>
        <_>
          <internalNodes>
            0 -1 505 1.5403849538415670e-03</internalNodes>
          <leafValues>
            1.2215805053710938e-01 -5.1043188571929932e-01</leafValues></_>
        <_>
          <internalNodes>
            0 -1 417 -4.6218972653150558e-02</internalNodes>
          <leafValues>
            3.8064211606979370e-01 -1.4810429513454437e-01</leafValues></_>
        <_>
          <internalNodes>
            0 -1 643 2.7366831898689270e-02</internalNodes>
          <leafValues>
            -1.2727044522762299e-01 4.9224850535392761e-01</leafValues></_>
        <_>
          <internalNodes>
            0 -1 18 -2.6514571160078049e-02</internalNodes>
          <leafValues>
            5.0355565547943115e-01 -1.0021350532770157e-01</leafValues></_>
        <_>
          <internalNodes>
            0 -1 751 1.8613014370203018e-02</internalNodes>
          <leafValues>
            -1.5181787312030792e-01 4.9468699097633362e-01</leafValues></_>
        <_>
          <internalNodes>
            0 -1 102 3.1226404011249542e-02</internalNodes>
          <leafValues>
            -1.6439265012741089e-01 3.9665094017982483e-01</leafValues></_>
        <_>
          <internalNodes>
            0 -1 434 -5.1079377532005310e-02</internalNodes>
          <leafValues>
            2.8333672881126404e-01 -2.4475921690464020e-01</leafValues></_>
        <_>
          <internalNodes>
            0 -1 300 3.3921743743121624e-03</internalNodes>
          <leafValues>
            -1.9425190985202789e-01 2.8814238309860229e-01</leafValues></_>
        <_>
          <internalNodes>
            0 -1 39 2.0020091906189919e-02</internalNodes>
          <leafValues>
            -1.2784667313098907e-01 4.9102047085762024e-01</leafValues></_>
        <_>
          <internalNodes>
            0 -1 906 -2.6258965954184532e-02</internalNodes>
          <leafValues>
            3.8085657358169556e-01 -1.4858023822307587e-01</leafValues></_>
        <_>
          <internalNodes>
            0 -1 369 3.2445505261421204e-02</internalNodes>
          <leafValues>
            -1.1536040157079697e-01 5.2049261331558228e-01</leafValues></_>
        <_>
          <internalNodes>
            0 -1 455 3.2307147048413754e-03</internalNodes>
          <leafValues>
            -1.6089817881584167e-01 3.7286701798439026e-01</leafValues></_>
        <_>
          <internalNodes>
            0 -1 23 -6.1191469430923462e-02</internalNodes>
          <leafValues>
            4.0356644988059998e-01 -1.2713885307312012e-01</leafValues></_></weakClassifiers></_>
    <!-- stage 4 -->
    <_>
      <maxWeakCount>30</maxWeakCount>
      <stageThreshold>-8.8077759742736816e-01</stageThreshold>
      <weakClassifiers>
        <_>
          <internalNodes>
            0 -1 467 -1.0035197436809540e-01</internalNodes>
          <leafValues>
            5.6006240844726563e-01 -2.2779922187328339e-01</leafValues></_>
        <_>
          <internalNodes>
            0 -1 703 1.6626160591840744e-02</internalNodes>
          <leafValues>
            2.2196950018405914e-01 -4.9412649869918823e-01</leafValues></_>
        <_>
          <internalNodes>
            0 -1 205 2.5683920830488205e-04</internalNodes>
          <leafValues>
            1.4004488289356232e-01 -5.5924409627914429e-01</leafValues></_>
        <_>
          <internalNodes>
            0 -1 1344 5.6174974888563156e-03</internalNodes>
          <leafValues>
            -2.9614120721817017e-01 2.8514611721038818e-01</leafValues></_>
        <_>
          <internalNodes>
            0 -1 121 -1.3031233102083206e-02</internalNodes>
          <leafValues>
            3.7463632225990295e-01 -1.6725978255271912e-01</leafValues></_>
        <_>
          <internalNodes>
            0 -1 557 -3.8616031408309937e-02</internalNodes>
          <leafValues>
            2.4873059988021851e-01 -2.2920601069927216e-01</leafValues></_>
        <_>
          <internalNodes>
            0 -1 1085 -3.4019265323877335e-02</internalNodes>
          <leafValues>
            3.4018230438232422e-01 -1.4452613890171051e-01</leafValues></_>
        <_>
          <internalNodes>
            0 -1 1412 1.0973086580634117e-02</internalNodes>
          <leafValues>
            -1.0548622906208038e-01 5.1492166519165039e-01</leafValues></_>
        <_>
          <internalNodes>
            0 -1 687 1.8085903720930219e-03</internalNodes>
          <leafValues>
            -1.8621173501014709e-01 2.5245413184165955e-01</leafValues></_>
        <_>
          <internalNodes>
            0 -1 214 1.8022309988737106e-02</internalNodes>
          <leafValues>
            -1.0515359044075012e-01 4.6926087141036987e-01</leafValues></_>
        <_>
          <internalNodes>
            0 -1 693 -5.9970237314701080e-02</internalNodes>
          <leafValues>
            3.5513603687286377e-01 -1.5150858461856842e-01</leafValues></_>
        <_>
          <internalNodes>
            0 -1 1248 -7.1283016586676240e-04</internalNodes>
          <leafValues>
            -5.4258400201797485e-01 9.5173574984073639e-02</leafValues></_>
        <_>
          <internalNodes>
            0 -1 108 4.4441442005336285e-03</internalNodes>
          <leafValues>
            -1.3402898609638214e-01 3.7360873818397522e-01</leafValues></_>
        <_>
          <internalNodes>
            0 -1 139 -2.1851975470781326e-03</internalNodes>
          <leafValues>
            2.8674429655075073e-01 -1.6306670010089874e-01</leafValues></_>
        <_>
          <internalNodes>
            0 -1 237 -2.0593879744410515e-03</internalNodes>
          <leafValues>
            -5.7562273740768433e-01 7.7849522233009338e-02</leafValues></_>
        <_>
          <internalNodes>
            0 -1 1419 -2.3847883567214012e-03</internalNodes>
          <leafValues>
            3.0746290087699890e-01 -1.4432296156883240e-01</leafValues></_>
        <_>
          <internalNodes>
            0 -1 43 3.6351647228002548e-02</internalNodes>
          <leafValues>
            -1.2399718910455704e-01 3.3069092035293579e-01</leafValues></_>
        <_>
          <internalNodes>
            0 -1 347 -4.8113696277141571e-02</internalNodes>
          <leafValues>
            3.3589592576026917e-01 -1.2994673848152161e-01</leafValues></_>
        <_>
          <internalNodes>
            0 -1 1470 -1.1353280569892377e-04</internalNodes>
          <leafValues>
            -3.4204563498497009e-01 1.2180703133344650e-01</leafValues></_>
        <_>
          <internalNodes>
            0 -1 0 -3.3025851007550955e-04</internalNodes>
          <leafValues>
            -3.3625596761703491e-01 1.2595312297344208e-01</leafValues></_>
        <_>
          <internalNodes>
            0 -1 729 -1.8909443169832230e-02</internalNodes>
          <leafValues>
            4.4561475515365601e-01 -1.0010910779237747e-01</leafValues></_>
        <_>
          <internalNodes>
            0 -1 732 4.9957749433815479e-03</internalNodes>
          <leafValues>
            -1.4834123849868774e-01 3.2646030187606812e-01</leafValues></_>
        <_>
          <internalNodes>
            0 -1 728 9.3586161732673645e-02</internalNodes>
          <leafValues>
            -7.5617857277393341e-02 6.9017452001571655e-01</leafValues></_>
        <_>
          <internalNodes>
            0 -1 213 4.5713834464550018e-02</internalNodes>
          <leafValues>
            -1.4999566972255707e-01 2.9399445652961731e-01</leafValues></_>
        <_>
          <internalNodes>
            0 -1 49 -7.7925147488713264e-03</internalNodes>
          <leafValues>
            3.9086759090423584e-01 -1.1506857722997665e-01</leafValues></_>
        <_>
          <internalNodes>
            0 -1 644 2.2774586454033852e-02</internalNodes>
          <leafValues>
            -1.1145534366369247e-01 3.6357384920120239e-01</leafValues></_>
        <_>
          <internalNodes>
            0 -1 575 -6.4485579729080200e-02</internalNodes>
          <leafValues>
            5.2962779998779297e-01 -8.2172714173793793e-02</leafValues></_>
        <_>
          <internalNodes>
            0 -1 766 -4.2082764208316803e-02</internalNodes>
          <leafValues>
            5.3389275074005127e-01 -7.7624127268791199e-02</leafValues></_>
        <_>
          <internalNodes>
            0 -1 532 -3.4950174391269684e-02</internalNodes>
          <leafValues>
            4.1616320610046387e-01 -9.0318635106086731e-02</leafValues></_>
        <_>
          <internalNodes>
            0 -1 827 -3.6147337406873703e-02</internalNodes>
          <leafValues>
            1.4253073930740356e-01 -3.0036893486976624e-01</leafValues></_></weakClassifiers></_>
    <!-- stage 5 -->
    <_>
      <maxWeakCount>42</maxWeakCount>
      <stageThreshold>-9.9745309352874756e-01</stageThreshold>
      <weakClassifiers>
        <_>
          <internalNodes>
            0 -1 1344 1.1870806105434895e-02</internalNodes>
          <leafValues>
            1.0773298144340515e-01 6.2089300155639648e-01</leafValues></_>
        <_>
          <internalNodes>
            0 -1 98 -4.1323238983750343e-03</internalNodes>
          <leafValues>
            3.5241714119911194e-01 -1.7159192264080048e-01</leafValues></_>
        <_>
          <internalNodes>
            0 -1 301 2.2096175234764814e-04</internalNodes>
          <leafValues>
            1.2843628227710724e-01 -4.7561112046241760e-01</leafValues></_>
        <_>
          <internalNodes>
            0 -1 203 2.2226078435778618e-03</internalNodes>
          <leafValues>
            -2.5337263941764832e-01 2.3112048208713531e-01</leafValues></_>
        <_>
          <internalNodes>
            0 -1 904 -7.7022342011332512e-03</internalNodes>
          <leafValues>
            1.9726923108100891e-01 -3.0529856681823730e-01</leafValues></_>
        <_>
          <internalNodes>
            0 -1 77 2.8674963861703873e-02</internalNodes>
          <leafValues>
            -1.3275666534900665e-01 3.8162544369697571e-01</leafValues></_>
        <_>
          <internalNodes>
            0 -1 65 -2.4622399359941483e-02</internalNodes>
          <leafValues>
            3.7934997677803040e-01 -1.4596322178840637e-01</leafValues></_>
        <_>
          <internalNodes>
            0 -1 749 2.1376118063926697e-02</internalNodes>
          <leafValues>
            -1.8267710506916046e-01 2.8367877006530762e-01</leafValues></_>
        <_>
          <internalNodes>
            0 -1 89 8.5108473896980286e-02</internalNodes>
          <leafValues>
            7.6414555311203003e-02 -5.7519304752349854e-01</leafValues></_>
        <_>
          <internalNodes>
            0 -1 1417 3.2739411108195782e-03</internalNodes>
          <leafValues>
            -1.9272013008594513e-01 2.1997004747390747e-01</leafValues></_>
        <_>
          <internalNodes>
            0 -1 262 5.3722124546766281e-02</internalNodes>
          <leafValues>
            -1.2545269727706909e-01 3.4398406744003296e-01</leafValues></_>
        <_>
          <internalNodes>
            0 -1 727 -1.3481221161782742e-02</internalNodes>
          <leafValues>
            3.9401769638061523e-01 -1.1046721041202545e-01</leafValues></_>
        <_>
          <internalNodes>
            0 -1 1452 -5.7500740513205528e-03</internalNodes>
          <leafValues>
            5.8408671617507935e-01 -6.9973379373550415e-02</leafValues></_>
        <_>
          <internalNodes>
            0 -1 1271 -4.3770819902420044e-03</internalNodes>
          <leafValues>
            2.9503926634788513e-01 -1.4613136649131775e-01</leafValues></_>
        <_>
          <internalNodes>
            0 -1 1290 -5.3755781846120954e-04</internalNodes>
          <leafValues>
            -5.0909304618835449e-01 9.5991790294647217e-02</leafValues></_>
        <_>
          <internalNodes>
            0 -1 880 4.9675069749355316e-03</internalNodes>
          <leafValues>
            -9.4687744975090027e-02 4.3447509407997131e-01</leafValues></_>
        <_>
          <internalNodes>
            0 -1 220 8.9266076683998108e-03</internalNodes>
          <leafValues>
            -1.3213020563125610e-01 2.8877398371696472e-01</leafValues></_>
        <_>
          <internalNodes>
            0 -1 333 -3.6605966743081808e-03</internalNodes>
          <leafValues>
            3.4924727678298950e-01 -1.2113595753908157e-01</leafValues></_>
        <_>
          <internalNodes>
            0 -1 1477 2.2901156917214394e-03</internalNodes>
          <leafValues>
            6.7825265228748322e-02 -5.6776189804077148e-01</leafValues></_>
        <_>
          <internalNodes>
            0 -1 812 9.0815722942352295e-03</internalNodes>
          <leafValues>
            -8.4765732288360596e-02 4.2465123534202576e-01</leafValues></_>
        <_>
          <internalNodes>
            0 -1 1407 -2.6806438108906150e-04</internalNodes>
          <leafValues>
            -3.9681008458137512e-01 9.6851281821727753e-02</leafValues></_>
        <_>
          <internalNodes>
            0 -1 1387 -3.1134565360844135e-03</internalNodes>
          <leafValues>
            2.9655838012695313e-01 -1.3148620724678040e-01</leafValues></_>
        <_>
          <internalNodes>
            0 -1 637 5.4595634341239929e-02</internalNodes>
          <leafValues>
            -9.8795510828495026e-02 3.7926906347274780e-01</leafValues></_>
        <_>
          <internalNodes>
            0 -1 1080 -1.6175720840692520e-02</internalNodes>
          <leafValues>
            2.5184521079063416e-01 -1.7394739389419556e-01</leafValues></_>
        <_>
          <internalNodes>
            0 -1 560 -1.1459416709840298e-02</internalNodes>
          <leafValues>
            2.3073697090148926e-01 -1.6854368150234222e-01</leafValues></_>
        <_>
          <internalNodes>
            0 -1 60 1.0861687362194061e-02</internalNodes>
          <leafValues>
            -1.2101245671510696e-01 3.4511733055114746e-01</leafValues></_>
        <_>
          <internalNodes>
            0 -1 1440 -4.7700391151010990e-03</internalNodes>
          <leafValues>
            4.0817722678184509e-01 -9.5517307519912720e-02</leafValues></_>
        <_>
          <internalNodes>
            0 -1 968 4.8165107145905495e-03</internalNodes>
          <leafValues>
            -9.0769045054912567e-02 4.4294610619544983e-01</leafValues></_>
        <_>
          <internalNodes>
            0 -1 241 -2.7179322205483913e-03</internalNodes>
          <leafValues>
            2.6043149828910828e-01 -1.4583383500576019e-01</leafValues></_>
        <_>
          <internalNodes>
            0 -1 616 3.0023499857634306e-04</internalNodes>
          <leafValues>
            1.1888592690229416e-01 -3.4105646610260010e-01</leafValues></_>
        <_>
          <internalNodes>
            0 -1 74 5.6126918643712997e-03</internalNodes>
          <leafValues>
            5.8424782007932663e-02 -6.2000185251235962e-01</leafValues></_>
        <_>
          <internalNodes>
            0 -1 166 -7.9779513180255890e-03</internalNodes>
          <leafValues>
            2.3851653933525085e-01 -1.5100856125354767e-01</leafValues></_>
        <_>
          <internalNodes>
            0 -1 782 -1.3192690908908844e-02</internalNodes>
          <leafValues>
            2.9037046432495117e-01 -1.3409724831581116e-01</leafValues></_>
        <_>
          <internalNodes>
            0 -1 1306 7.2360560297966003e-03</internalNodes>
          <leafValues>
            7.0507161319255829e-02 -5.6324684619903564e-01</leafValues></_>
        <_>
          <internalNodes>
            0 -1 353 -1.5993978828191757e-02</internalNodes>
          <leafValues>
            2.0125646889209747e-01 -1.8363489210605621e-01</leafValues></_>
        <_>
          <internalNodes>
            0 -1 895 -9.8634660243988037e-03</internalNodes>
          <leafValues>
            3.2042542099952698e-01 -1.2621189653873444e-01</leafValues></_>
        <_>
          <internalNodes>
            0 -1 304 2.7049728669226170e-03</internalNodes>
          <leafValues>
            5.6774824857711792e-02 -6.7979949712753296e-01</leafValues></_>
        <_>
          <internalNodes>
            0 -1 1169 -6.4788977615535259e-03</internalNodes>
          <leafValues>
            3.1257790327072144e-01 -1.2038137018680573e-01</leafValues></_>
        <_>
          <internalNodes>
            0 -1 1230 6.4851148054003716e-03</internalNodes>
          <leafValues>
            -1.1115702986717224e-01 3.7750789523124695e-01</leafValues></_>
        <_>
          <internalNodes>
            0 -1 1232 -1.4041442191228271e-03</internalNodes>
          <leafValues>
            3.2246050238609314e-01 -1.2609587609767914e-01</leafValues></_>
        <_>
          <internalNodes>
            0 -1 1408 7.6007941970601678e-04</internalNodes>
          <leafValues>
            8.9683108031749725e-02 -4.3885451555252075e-01</leafValues></_>
        <_>
          <internalNodes>
            0 -1 1213 1.8396925181150436e-02</internalNodes>
          <leafValues>
            -9.5088742673397064e-02 4.4956421852111816e-01</leafValues></_></weakClassifiers></_>
    <!-- stage 6 -->
    <_>
      <maxWeakCount>30</maxWeakCount>
      <stageThreshold>-9.2465817928314209e-01</stageThreshold>
      <weakClassifiers>
        <_>
          <internalNodes>
            0 -1 388 -1.3277363777160645e-01</internalNodes>
          <leafValues>
            7.3249548673629761e-01 5.2963428199291229e-02</leafValues></_>
        <_>
          <internalNodes>
            0 -1 1325 -1.2593129649758339e-03</internalNodes>
          <leafValues>
            -5.9899753332138062e-01 2.1348461508750916e-01</leafValues></_>
        <_>
          <internalNodes>
            0 -1 577 2.3240026086568832e-02</internalNodes>
          <leafValues>
            -2.0336675643920898e-01 4.4321319460868835e-01</leafValues></_>
        <_>
          <internalNodes>
            0 -1 410 3.1840137671679258e-04</internalNodes>
          <leafValues>
            1.5057158470153809e-01 -4.9677664041519165e-01</leafValues></_>
        <_>
          <internalNodes>
            0 -1 1466 2.9236649425001815e-05</internalNodes>
          <leafValues>
            -3.5038918256759644e-01 1.8589058518409729e-01</leafValues></_>
        <_>
          <internalNodes>
            0 -1 511 -8.8592372834682465e-02</internalNodes>
          <leafValues>
            4.2636972665786743e-01 -1.3413740694522858e-01</leafValues></_>
        <_>
          <internalNodes>
            0 -1 743 4.9881474114954472e-04</internalNodes>
          <leafValues>
            1.1925813555717468e-01 -4.3919315934181213e-01</leafValues></_>
        <_>
          <internalNodes>
            0 -1 199 -6.2044331571087241e-05</internalNodes>
          <leafValues>
            1.9097214937210083e-01 -2.8783604502677917e-01</leafValues></_>
        <_>
          <internalNodes>
            0 -1 1264 2.1029578521847725e-02</internalNodes>
          <leafValues>
            -1.6262109577655792e-01 3.0927494168281555e-01</leafValues></_>
        <_>
          <internalNodes>
            0 -1 738 -2.4424530565738678e-02</internalNodes>
          <leafValues>
            5.5566102266311646e-01 -9.6324212849140167e-02</leafValues></_>
        <_>
          <internalNodes>
            0 -1 403 9.9257528781890869e-03</internalNodes>
          <leafValues>
            -1.5900014340877533e-01 4.1010364890098572e-01</leafValues></_>
        <_>
          <internalNodes>
            0 -1 597 -6.2877260148525238e-02</internalNodes>
          <leafValues>
            5.4797875881195068e-01 -7.2301380336284637e-02</leafValues></_>
        <_>
          <internalNodes>
            0 -1 570 6.0834951000288129e-04</internalNodes>
          <leafValues>
            9.9749594926834106e-02 -5.1950812339782715e-01</leafValues></_>
        <_>
          <internalNodes>
            0 -1 929 -6.5579526126384735e-02</internalNodes>
          <leafValues>
            3.5717326402664185e-01 -1.2308373302221298e-01</leafValues></_>
        <_>
          <internalNodes>
            0 -1 1160 -1.9771276041865349e-02</internalNodes>
          <leafValues>
            4.6442273259162903e-01 -9.9492684006690979e-02</leafValues></_>
        <_>
          <internalNodes>
            0 -1 86 -3.9344590157270432e-02</internalNodes>
          <leafValues>
            4.4228285551071167e-01 -8.4528736770153046e-02</leafValues></_>
        <_>
          <internalNodes>
            0 -1 243 -3.7064380012452602e-03</internalNodes>
          <leafValues>
            -5.9854918718338013e-01 7.6778471469879150e-02</leafValues></_>
        <_>
          <internalNodes>
            0 -1 1431 -1.0047872550785542e-02</internalNodes>
          <leafValues>
            4.8734953999519348e-01 -8.9380651712417603e-02</leafValues></_>
        <_>
          <internalNodes>
            0 -1 321 6.3347935676574707e-02</internalNodes>
          <leafValues>
            1.0199809074401855e-01 -4.5534044504165649e-01</leafValues></_>
        <_>
          <internalNodes>
            0 -1 134 1.3091307133436203e-02</internalNodes>
          <leafValues>
            -1.3063998520374298e-01 3.5211354494094849e-01</leafValues></_>
        <_>
          <internalNodes>
            0 -1 1179 8.5583503823727369e-04</internalNodes>
          <leafValues>
            9.5927052199840546e-02 -4.9388459324836731e-01</leafValues></_>
        <_>
          <internalNodes>
            0 -1 628 -4.1180238127708435e-02</internalNodes>
          <leafValues>
            5.4864686727523804e-01 -7.9374402761459351e-02</leafValues></_>
        <_>
          <internalNodes>
            0 -1 955 -1.6858644783496857e-02</internalNodes>
          <leafValues>
            3.4786596894264221e-01 -1.2002857774496078e-01</leafValues></_>
        <_>
          <internalNodes>
            0 -1 1218 -1.1440808884799480e-03</internalNodes>
          <leafValues>
            -4.8906570672988892e-01 8.8351786136627197e-02</leafValues></_>
        <_>
          <internalNodes>
            0 -1 626 9.4365719705820084e-03</internalNodes>
          <leafValues>
            -1.2228603661060333e-01 4.1065877676010132e-01</leafValues></_>
        <_>
          <internalNodes>
            0 -1 269 -6.1386674642562866e-02</internalNodes>
          <leafValues>
            3.3326125144958496e-01 -1.1965569853782654e-01</leafValues></_>
        <_>
          <internalNodes>
            0 -1 504 8.9086091611534357e-04</internalNodes>
          <leafValues>
            1.0184805095195770e-01 -4.3546152114868164e-01</leafValues></_>
        <_>
          <internalNodes>
            0 -1 558 -4.7123964759521186e-04</internalNodes>
          <leafValues>
            2.6118180155754089e-01 -1.6536454856395721e-01</leafValues></_>
        <_>
          <internalNodes>
            0 -1 1174 -2.9684284236282110e-03</internalNodes>
          <leafValues>
            2.7196824550628662e-01 -1.4072091877460480e-01</leafValues></_>
        <_>
          <internalNodes>
            0 -1 1364 8.6057721637189388e-04</internalNodes>
          <leafValues>
            8.6921900510787964e-02 -5.0682187080383301e-01</leafValues></_></weakClassifiers></_>
    <!-- stage 7 -->
    <_>
      <maxWeakCount>50</maxWeakCount>
      <stageThreshold>-9.1247308254241943e-01</stageThreshold>
      <weakClassifiers>
        <_>
          <internalNodes>
            0 -1 202 6.9263461045920849e-04</internalNodes>
          <leafValues>
            6.7157313227653503e-02 5.1270925998687744e-01</leafValues></_>
        <_>
          <internalNodes>
            0 -1 371 -1.4234769344329834e-01</internalNodes>
          <leafValues>
            2.3741243779659271e-01 -2.2509343922138214e-01</leafValues></_>
        <_>
          <internalNodes>
            0 -1 1417 8.0719776451587677e-03</internalNodes>
          <leafValues>
            -1.4962245523929596e-01 3.3367535471916199e-01</leafValues></_>
        <_>
          <internalNodes>
            0 -1 423 2.2294532507658005e-02</internalNodes>
          <leafValues>
            -8.4448963403701782e-02 5.6973147392272949e-01</leafValues></_>
        <_>
          <internalNodes>
            0 -1 748 -6.1000175774097443e-03</internalNodes>
          <leafValues>
            4.0672492980957031e-01 -1.3969019055366516e-01</leafValues></_>
        <_>
          <internalNodes>
            0 -1 639 1.7212541773915291e-02</internalNodes>
          <leafValues>
            1.0036150366067886e-01 -4.2502486705780029e-01</leafValues></_>
        <_>
          <internalNodes>
            0 -1 301 -2.4984514311654493e-05</internalNodes>
          <leafValues>
            1.7158141732215881e-01 -2.4785383045673370e-01</leafValues></_>
        <_>
          <internalNodes>
            0 -1 543 1.3027697801589966e-02</internalNodes>
          <leafValues>
            -1.1134888231754303e-01 3.9290344715118408e-01</leafValues></_>
        <_>
          <internalNodes>
            0 -1 373 -1.5348695218563080e-02</internalNodes>
          <leafValues>
            4.6528068184852600e-01 -1.0066144168376923e-01</leafValues></_>
        <_>
          <internalNodes>
            0 -1 165 -1.9181195646524429e-02</internalNodes>
          <leafValues>
            2.4972219765186310e-01 -1.6226622462272644e-01</leafValues></_>
        <_>
          <internalNodes>
            0 -1 118 1.6824835911393166e-03</internalNodes>
          <leafValues>
            -1.6945511102676392e-01 2.3215797543525696e-01</leafValues></_>
        <_>
          <internalNodes>
            0 -1 61 -1.1296652257442474e-02</internalNodes>
          <leafValues>
            2.7592980861663818e-01 -1.3820986449718475e-01</leafValues></_>
        <_>
          <internalNodes>
            0 -1 469 -1.9161924719810486e-02</internalNodes>
          <leafValues>
            6.1129307746887207e-01 -6.3061743974685669e-02</leafValues></_>
        <_>
          <internalNodes>
            0 -1 819 -1.0966470465064049e-02</internalNodes>
          <leafValues>
            4.5172908902168274e-01 -7.2554245591163635e-02</leafValues></_>
        <_>
          <internalNodes>
            0 -1 840 6.3045523129403591e-03</internalNodes>
          <leafValues>
            -3.8383211940526962e-02 8.6600649356842041e-01</leafValues></_>
        <_>
          <internalNodes>
            0 -1 1408 -1.1460611131042242e-03</internalNodes>
          <leafValues>
            -5.0891852378845215e-01 7.3941111564636230e-02</leafValues></_>
        <_>
          <internalNodes>
            0 -1 923 -4.1136476211249828e-03</internalNodes>
          <leafValues>
            3.6585396528244019e-01 -8.5705399513244629e-02</leafValues></_>
        <_>
          <internalNodes>
            0 -1 1287 1.2868691555922851e-05</internalNodes>
          <leafValues>
            -1.7920848727226257e-01 1.8499721586704254e-01</leafValues></_>
        <_>
          <internalNodes>
            0 -1 157 -3.5952343605458736e-03</internalNodes>
          <leafValues>
            3.4024330973625183e-01 -1.0218143463134766e-01</leafValues></_>
        <_>
          <internalNodes>
            0 -1 157 2.1455618552863598e-03</internalNodes>
          <leafValues>
            -1.1561737209558487e-01 3.1003141403198242e-01</leafValues></_>
        <_>
          <internalNodes>
            0 -1 503 3.7864514160901308e-04</internalNodes>
          <leafValues>
            8.4712639451026917e-02 -4.0462750196456909e-01</leafValues></_>
        <_>
          <internalNodes>
            0 -1 1362 1.7845713591668755e-04</internalNodes>
          <leafValues>
            -2.3145431280136108e-01 1.4779703319072723e-01</leafValues></_>
        <_>
          <internalNodes>
            0 -1 602 -1.1174427345395088e-02</internalNodes>
          <leafValues>
            4.3541914224624634e-01 -7.2577558457851410e-02</leafValues></_>
        <_>
          <internalNodes>
            0 -1 1052 1.5565280802547932e-02</internalNodes>
          <leafValues>
            -1.0516373068094254e-01 3.2642695307731628e-01</leafValues></_>
        <_>
          <internalNodes>
            0 -1 53 1.1494107311591506e-03</internalNodes>
          <leafValues>
            -1.5069159865379333e-01 2.1429336071014404e-01</leafValues></_>
        <_>
          <internalNodes>
            0 -1 515 2.2964752279222012e-03</internalNodes>
          <leafValues>
            -1.3420024514198303e-01 2.6713648438453674e-01</leafValues></_>
        <_>
          <internalNodes>
            0 -1 385 -5.6333565153181553e-03</internalNodes>
          <leafValues>
            3.2005265355110168e-01 -1.0026191174983978e-01</leafValues></_>
        <_>
          <internalNodes>
            0 -1 1196 1.2147920206189156e-03</internalNodes>
          <leafValues>
            -1.1028305441141129e-01 2.9141688346862793e-01</leafValues></_>
        <_>
          <internalNodes>
            0 -1 1155 2.3396147298626602e-04</internalNodes>
          <leafValues>
            -1.7465549707412720e-01 2.0440560579299927e-01</leafValues></_>
        <_>
          <internalNodes>
            0 -1 1388 2.6609408669173717e-03</internalNodes>
          <leafValues>
            -1.1786438524723053e-01 2.6572611927986145e-01</leafValues></_>
        <_>
          <internalNodes>
            0 -1 1384 -2.5606153067201376e-03</internalNodes>
          <leafValues>
            2.9938259720802307e-01 -1.7014388740062714e-01</leafValues></_>
        <_>
          <internalNodes>
            0 -1 504 -6.5523141529411077e-04</internalNodes>
          <leafValues>
            -3.7260395288467407e-01 8.5015162825584412e-02</leafValues></_>
        <_>
          <internalNodes>
            0 -1 1265 2.5621201843023300e-02</internalNodes>
          <leafValues>
            7.8368008136749268e-02 -3.8891381025314331e-01</leafValues></_>
        <_>
          <internalNodes>
            0 -1 1177 1.7110200133174658e-04</internalNodes>
          <leafValues>
            1.1422687023878098e-01 -2.7024933695793152e-01</leafValues></_>
        <_>
          <internalNodes>
            0 -1 293 4.2966958135366440e-03</internalNodes>
          <leafValues>
            -1.0176484286785126e-01 3.1056731939315796e-01</leafValues></_>
        <_>
          <internalNodes>
            0 -1 160 -1.5954780578613281e-01</internalNodes>
          <leafValues>
            -5.9075444936752319e-01 5.3854912519454956e-02</leafValues></_>
        <_>
          <internalNodes>
            0 -1 682 3.8069586735218763e-03</internalNodes>
          <leafValues>
            -1.1547227203845978e-01 2.7960392832756042e-01</leafValues></_>
        <_>
          <internalNodes>
            0 -1 911 2.4967784993350506e-03</internalNodes>
          <leafValues>
            6.4345851540565491e-02 -4.7327411174774170e-01</leafValues></_>
        <_>
          <internalNodes>
            0 -1 1146 -5.0118491053581238e-03</internalNodes>
          <leafValues>
            2.7952051162719727e-01 -1.1482484638690948e-01</leafValues></_>
        <_>
          <internalNodes>
            0 -1 1191 -1.0097949998453259e-03</internalNodes>
          <leafValues>
            2.1832072734832764e-01 -1.3941781222820282e-01</leafValues></_>
        <_>
          <internalNodes>
            0 -1 1144 -4.6079698950052261e-03</internalNodes>
          <leafValues>
            1.8835082650184631e-01 -1.9650118052959442e-01</leafValues></_>
        <_>
          <internalNodes>
            0 -1 982 1.1598212644457817e-02</internalNodes>
          <leafValues>
            -5.7709697633981705e-02 5.7666212320327759e-01</leafValues></_>
        <_>
          <internalNodes>
            0 -1 1079 3.8475476205348969e-02</internalNodes>
          <leafValues>
            5.4398506879806519e-02 -6.9804728031158447e-01</leafValues></_>
        <_>
          <internalNodes>
            0 -1 1367 1.4223984908312559e-03</internalNodes>
          <leafValues>
            8.8999524712562561e-02 -3.3385413885116577e-01</leafValues></_>
        <_>
          <internalNodes>
            0 -1 994 -3.9499448612332344e-03</internalNodes>
          <leafValues>
            2.6850673556327820e-01 -1.1299960315227509e-01</leafValues></_>
        <_>
          <internalNodes>
            0 -1 983 -2.0814249292016029e-03</internalNodes>
          <leafValues>
            3.7569451332092285e-01 -7.9312048852443695e-02</leafValues></_>
        <_>
          <internalNodes>
            0 -1 280 -2.7097715064883232e-03</internalNodes>
          <leafValues>
            1.7792081832885742e-01 -1.8113619089126587e-01</leafValues></_>
        <_>
          <internalNodes>
            0 -1 1141 -5.1608276553452015e-03</internalNodes>
          <leafValues>
            -3.9540010690689087e-01 8.5035622119903564e-02</leafValues></_>
        <_>
          <internalNodes>
            0 -1 1261 6.7981716711074114e-04</internalNodes>
          <leafValues>
            -1.4190044999122620e-01 2.2081689536571503e-01</leafValues></_>
        <_>
          <internalNodes>
            0 -1 1330 -5.2081928588449955e-03</internalNodes>
          <leafValues>
            3.3847326040267944e-01 -8.5979402065277100e-02</leafValues></_></weakClassifiers></_>
    <!-- stage 8 -->
    <_>
      <maxWeakCount>36</maxWeakCount>
      <stageThreshold>-8.0428892374038696e-01</stageThreshold>
      <weakClassifiers>
        <_>
          <internalNodes>
            0 -1 1403 1.2875196262029931e-05</internalNodes>
          <leafValues>
            -2.3090586066246033e-02 5.8831006288528442e-01</leafValues></_>
        <_>
          <internalNodes>
            0 -1 468 -1.6052508354187012e-01</internalNodes>
          <leafValues>
            2.8497922420501709e-01 -3.0051460862159729e-01</leafValues></_>
        <_>
          <internalNodes>
            0 -1 295 -2.1811349142808467e-05</internalNodes>
          <leafValues>
            2.4026668071746826e-01 -2.9632958769798279e-01</leafValues></_>
        <_>
          <internalNodes>
            0 -1 1439 7.7866157516837120e-03</internalNodes>
          <leafValues>
            -1.1143558472394943e-01 4.6756339073181152e-01</leafValues></_>
        <_>
          <internalNodes>
            0 -1 1413 -2.6246507331961766e-05</internalNodes>
          <leafValues>
            2.0551367104053497e-01 -2.4408906698226929e-01</leafValues></_>
        <_>
          <internalNodes>
            0 -1 20 1.1074917892983649e-05</internalNodes>
          <leafValues>
            -1.7031390964984894e-01 2.3993842303752899e-01</leafValues></_>
        <_>
          <internalNodes>
            0 -1 295 2.7252099243924022e-05</internalNodes>
          <leafValues>
            -1.5739662945270538e-01 2.9834467172622681e-01</leafValues></_>
        <_>
          <internalNodes>
            0 -1 902 8.4405485540628433e-03</internalNodes>
          <leafValues>
            -1.8473665416240692e-01 2.2406330704689026e-01</leafValues></_>
        <_>
          <internalNodes>
            0 -1 1030 -3.5988064482808113e-03</internalNodes>
          <leafValues>
            -5.8729243278503418e-01 5.4201040416955948e-02</leafValues></_>
        <_>
          <internalNodes>
            0 -1 1396 -3.8646650500595570e-03</internalNodes>
          <leafValues>
            3.5302072763442993e-01 -1.1835832148790359e-01</leafValues></_>
        <_>
          <internalNodes>
            0 -1 84 -7.3929638601839542e-03</internalNodes>
          <leafValues>
            3.6316600441932678e-01 -1.0922607034444809e-01</leafValues></_>
        <_>
          <internalNodes>
            0 -1 357 -1.3114159926772118e-02</internalNodes>
          <leafValues>
            -6.1679029464721680e-01 6.1865281313657761e-02</leafValues></_>
        <_>
          <internalNodes>
            0 -1 652 5.4138181731104851e-03</internalNodes>
          <leafValues>
            5.8684498071670532e-02 -5.8523547649383545e-01</leafValues></_>
        <_>
          <internalNodes>
            0 -1 885 -2.2066798992455006e-03</internalNodes>
          <leafValues>
            3.3437770605087280e-01 -1.1394522339105606e-01</leafValues></_>
        <_>
          <internalNodes>
            0 -1 912 -3.5622292198240757e-03</internalNodes>
          <leafValues>
            -5.7408994436264038e-01 7.2646006941795349e-02</leafValues></_>
        <_>
          <internalNodes>
            0 -1 1256 2.0172321237623692e-03</internalNodes>
          <leafValues>
            -1.2555414438247681e-01 3.1078705191612244e-01</leafValues></_>
        <_>
          <internalNodes>
            0 -1 1279 -1.2893223356513772e-05</internalNodes>
          <leafValues>
            1.9706982374191284e-01 -1.9214601814746857e-01</leafValues></_>
        <_>
          <internalNodes>
            0 -1 722 1.4272511005401611e-02</internalNodes>
          <leafValues>
            -8.9096680283546448e-02 4.3258383870124817e-01</leafValues></_>
        <_>
          <internalNodes>
            0 -1 1250 2.0266135688871145e-03</internalNodes>
          <leafValues>
            9.1736435890197754e-02 -4.3210095167160034e-01</leafValues></_>
        <_>
          <internalNodes>
            0 -1 516 -6.8369559012353420e-03</internalNodes>
          <leafValues>
            4.0204662084579468e-01 -9.6708096563816071e-02</leafValues></_>
        <_>
          <internalNodes>
            0 -1 427 1.3301872058946174e-05</internalNodes>
          <leafValues>
            -1.9847466051578522e-01 1.8615226447582245e-01</leafValues></_>
        <_>
          <internalNodes>
            0 -1 562 2.9391554562607780e-05</internalNodes>
          <leafValues>
            -1.4916154742240906e-01 2.4773335456848145e-01</leafValues></_>
        <_>
          <internalNodes>
            0 -1 588 -7.7985925599932671e-03</internalNodes>
          <leafValues>
            5.4623490571975708e-01 -6.7629151046276093e-02</leafValues></_>
        <_>
          <internalNodes>
            0 -1 1379 6.1318087391555309e-03</internalNodes>
          <leafValues>
            8.3175137639045715e-02 -4.5561817288398743e-01</leafValues></_>
        <_>
          <internalNodes>
            0 -1 1324 -2.3860190995037556e-03</internalNodes>
          <leafValues>
            -7.2301501035690308e-01 4.3868374079465866e-02</leafValues></_>
        <_>
          <internalNodes>
            0 -1 935 -6.0529364272952080e-03</internalNodes>
          <leafValues>
            3.9648821949958801e-01 -9.3331389129161835e-02</leafValues></_>
        <_>
          <internalNodes>
            0 -1 1399 1.7756942543201149e-04</internalNodes>
          <leafValues>
            -1.5503253042697906e-01 2.4159047007560730e-01</leafValues></_>
        <_>
          <internalNodes>
            0 -1 758 -7.4736453825607896e-05</internalNodes>
          <leafValues>
            2.1338933706283569e-01 -1.7261682450771332e-01</leafValues></_>
        <_>
          <internalNodes>
            0 -1 51 1.8173789139837027e-03</internalNodes>
          <leafValues>
            7.5132787227630615e-02 -4.9063828587532043e-01</leafValues></_>
        <_>
          <internalNodes>
            0 -1 312 2.4560485035181046e-02</internalNodes>
          <leafValues>
            -1.1044486612081528e-01 3.1696709990501404e-01</leafValues></_>
        <_>
          <internalNodes>
            0 -1 4 1.4630239456892014e-03</internalNodes>
          <leafValues>
            1.0623047500848770e-01 -3.8139584660530090e-01</leafValues></_>
        <_>
          <internalNodes>
            0 -1 656 -3.4219603985548019e-03</internalNodes>
          <leafValues>
            -6.3454598188400269e-01 5.5065318942070007e-02</leafValues></_>
        <_>
          <internalNodes>
            0 -1 580 -4.6266131103038788e-03</internalNodes>
          <leafValues>
            2.6630908250808716e-01 -1.4284835755825043e-01</leafValues></_>
        <_>
          <internalNodes>
            0 -1 72 2.0397934131324291e-03</internalNodes>
          <leafValues>
            7.4229992926120758e-02 -5.3494685888290405e-01</leafValues></_>
        <_>
          <internalNodes>
            0 -1 1023 -1.8952506070490927e-04</internalNodes>
          <leafValues>
            2.1811303496360779e-01 -1.5418188273906708e-01</leafValues></_>
        <_>
          <internalNodes>
            0 -1 609 -3.6894060671329498e-02</internalNodes>
          <leafValues>
            4.6464160084724426e-01 -7.1191228926181793e-02</leafValues></_></weakClassifiers></_>
    <!-- stage 9 -->
    <_>
      <maxWeakCount>47</maxWeakCount>
      <stageThreshold>-9.4113761186599731e-01</stageThreshold>
      <weakClassifiers>
        <_>
          <internalNodes>
            0 -1 380 -1.5903148055076599e-01</internalNodes>
          <leafValues>
            5.5456852912902832e-01 2.3131672292947769e-02</leafValues></_>
        <_>
          <internalNodes>
            0 -1 45 5.4973743855953217e-02</internalNodes>
          <leafValues>
            -1.2873892486095428e-01 4.0110087394714355e-01</leafValues></_>
        <_>
          <internalNodes>
            0 -1 1292 -6.7162228515371680e-04</internalNodes>
          <leafValues>
            -4.2253777384757996e-01 1.3476914167404175e-01</leafValues></_>
        <_>
          <internalNodes>
            0 -1 329 1.1474004387855530e-01</internalNodes>
          <leafValues>
            -9.4407729804515839e-02 4.9437975883483887e-01</leafValues></_>
        <_>
          <internalNodes>
            0 -1 331 -1.1165194213390350e-01</internalNodes>
          <leafValues>
            3.3556142449378967e-01 -1.6442656517028809e-01</leafValues></_>
        <_>
          <internalNodes>
            0 -1 68 -9.6666231751441956e-02</internalNodes>
          <leafValues>
            4.7594431042671204e-01 -8.2463577389717102e-02</leafValues></_>
        <_>
          <internalNodes>
            0 -1 1138 4.3904193444177508e-04</internalNodes>
          <leafValues>
            1.0610952973365784e-01 -3.7571725249290466e-01</leafValues></_>
        <_>
          <internalNodes>
            0 -1 181 -3.4958950709551573e-03</internalNodes>
          <leafValues>
            2.1673630177974701e-01 -2.0290783047676086e-01</leafValues></_>
        <_>
          <internalNodes>
            0 -1 197 -6.0234300326555967e-04</internalNodes>
          <leafValues>
            -3.9998444914817810e-01 9.3623571097850800e-02</leafValues></_>
        <_>
          <internalNodes>
            0 -1 1185 -3.4323908388614655e-02</internalNodes>
          <leafValues>
            2.7901998162269592e-01 -1.3171014189720154e-01</leafValues></_>
        <_>
          <internalNodes>
            0 -1 1457 8.2210323307663202e-04</internalNodes>
          <leafValues>
            -1.0978027433156967e-01 3.2542073726654053e-01</leafValues></_>
        <_>
          <internalNodes>
            0 -1 1395 3.6828906740993261e-03</internalNodes>
          <leafValues>
            -9.9270448088645935e-02 3.6036801338195801e-01</leafValues></_>
        <_>
          <internalNodes>
            0 -1 1 -8.8882353156805038e-04</internalNodes>
          <leafValues>
            -3.8995337486267090e-01 8.8953875005245209e-02</leafValues></_>
        <_>
          <internalNodes>
            0 -1 1 1.1563155567273498e-03</internalNodes>
          <leafValues>
            8.0212980508804321e-02 -4.7693613171577454e-01</leafValues></_>
        <_>
          <internalNodes>
            0 -1 1495 -5.1062232814729214e-03</internalNodes>
          <leafValues>
            -4.0887328982353210e-01 8.7913006544113159e-02</leafValues></_>
        <_>
          <internalNodes>
            0 -1 1220 -4.1257557459175587e-03</internalNodes>
          <leafValues>
            -5.1480114459991455e-01 6.8951234221458435e-02</leafValues></_>
        <_>
          <internalNodes>
            0 -1 1224 -4.0376698598265648e-03</internalNodes>
          <leafValues>
            3.0789253115653992e-01 -1.1614508181810379e-01</leafValues></_>
        <_>
          <internalNodes>
            0 -1 1231 5.8850459754467010e-03</internalNodes>
          <leafValues>
            8.3381511270999908e-02 -4.7388330101966858e-01</leafValues></_>
        <_>
          <internalNodes>
            0 -1 351 -6.0687586665153503e-03</internalNodes>
          <leafValues>
            4.2325076460838318e-01 -9.0682022273540497e-02</leafValues></_>
        <_>
          <internalNodes>
            0 -1 715 -3.6963522434234619e-02</internalNodes>
          <leafValues>
            4.1082966327667236e-01 -7.1676574647426605e-02</leafValues></_>
        <_>
          <internalNodes>
            0 -1 661 -9.3995090574026108e-03</internalNodes>
          <leafValues>
            3.5437563061714172e-01 -9.5892682671546936e-02</leafValues></_>
        <_>
          <internalNodes>
            0 -1 383 9.8959142342209816e-03</internalNodes>
          <leafValues>
            -1.2711679935455322e-01 3.2874926924705505e-01</leafValues></_>
        <_>
          <internalNodes>
            0 -1 777 7.3803972918540239e-04</internalNodes>
          <leafValues>
            1.0567053407430649e-01 -3.3939406275749207e-01</leafValues></_>
        <_>
          <internalNodes>
            0 -1 308 4.3840743601322174e-03</internalNodes>
          <leafValues>
            -1.1480987071990967e-01 2.9380860924720764e-01</leafValues></_>
        <_>
          <internalNodes>
            0 -1 1135 -2.1422260906547308e-03</internalNodes>
          <leafValues>
            -5.0244987010955811e-01 7.5172759592533112e-02</leafValues></_>
        <_>
          <internalNodes>
            0 -1 601 2.6129946112632751e-02</internalNodes>
          <leafValues>
            -1.1937861889600754e-01 2.8393942117691040e-01</leafValues></_>
        <_>
          <internalNodes>
            0 -1 513 -9.6392288804054260e-02</internalNodes>
          <leafValues>
            4.0415051579475403e-01 -8.3781309425830841e-02</leafValues></_>
        <_>
          <internalNodes>
            0 -1 1166 -2.0612664520740509e-02</internalNodes>
          <leafValues>
            1.7023937404155731e-01 -2.1156936883926392e-01</leafValues></_>
        <_>
          <internalNodes>
            0 -1 1417 9.2242676764726639e-03</internalNodes>
          <leafValues>
            -1.2234884500503540e-01 3.2433590292930603e-01</leafValues></_>
        <_>
          <internalNodes>
            0 -1 1381 -1.3027021195739508e-03</internalNodes>
          <leafValues>
            2.2683222591876984e-01 -1.5656210482120514e-01</leafValues></_>
        <_>
          <internalNodes>
            0 -1 771 1.3929444365203381e-02</internalNodes>
          <leafValues>
            -8.8848531246185303e-02 3.5120359063148499e-01</leafValues></_>
        <_>
          <internalNodes>
            0 -1 55 7.6257266104221344e-02</internalNodes>
          <leafValues>
            -1.0256415605545044e-01 3.4103772044181824e-01</leafValues></_>
        <_>
          <internalNodes>
            0 -1 818 -3.3240292686969042e-03</internalNodes>
          <leafValues>
            2.0032896101474762e-01 -1.8697503209114075e-01</leafValues></_>
        <_>
          <internalNodes>
            0 -1 252 2.2127819061279297e-01</internalNodes>
          <leafValues>
            -6.5773628652095795e-02 4.6603888273239136e-01</leafValues></_>
        <_>
          <internalNodes>
            0 -1 1226 3.7704533897340298e-03</internalNodes>
          <leafValues>
            -1.0117353498935699e-01 3.2138222455978394e-01</leafValues></_>
        <_>
          <internalNodes>
            0 -1 531 3.2879640348255634e-03</internalNodes>
          <leafValues>
            6.2732607126235962e-02 -5.8516454696655273e-01</leafValues></_>
        <_>
          <internalNodes>
            0 -1 1028 1.8336307257413864e-03</internalNodes>
          <leafValues>
            -1.7200031876564026e-01 1.9246029853820801e-01</leafValues></_>
        <_>
          <internalNodes>
            0 -1 542 -4.1462615132331848e-02</internalNodes>
          <leafValues>
            5.1869332790374756e-01 -5.9393800795078278e-02</leafValues></_>
        <_>
          <internalNodes>
            0 -1 1479 4.6950140967965126e-03</internalNodes>
          <leafValues>
            7.9413093626499176e-02 -4.4239631295204163e-01</leafValues></_>
        <_>
          <internalNodes>
            0 -1 76 -9.1118570417165756e-03</internalNodes>
          <leafValues>
            3.5223329067230225e-01 -8.8007248938083649e-02</leafValues></_>
        <_>
          <internalNodes>
            0 -1 1291 -5.2513682749122381e-04</internalNodes>
          <leafValues>
            -3.2265001535415649e-01 9.6303336322307587e-02</leafValues></_>
        <_>
          <internalNodes>
            0 -1 1371 7.9897651448845863e-03</internalNodes>
          <leafValues>
            -1.0448773950338364e-01 3.0672284960746765e-01</leafValues></_>
        <_>
          <internalNodes>
            0 -1 1013 -8.7576024234294891e-03</internalNodes>
          <leafValues>
            3.2798364758491516e-01 -9.3718856573104858e-02</leafValues></_>
        <_>
          <internalNodes>
            0 -1 1482 1.1323385406285524e-03</internalNodes>
          <leafValues>
            6.0393802821636200e-02 -4.9000719189643860e-01</leafValues></_>
        <_>
          <internalNodes>
            0 -1 816 4.8464778810739517e-03</internalNodes>
          <leafValues>
            -7.0710808038711548e-02 4.2751151323318481e-01</leafValues></_>
        <_>
          <internalNodes>
            0 -1 1183 1.0063908994197845e-02</internalNodes>
          <leafValues>
            5.1550857722759247e-02 -5.7516855001449585e-01</leafValues></_>
        <_>
          <internalNodes>
            0 -1 433 -1.0433240979909897e-01</internalNodes>
          <leafValues>
            3.9713358879089355e-01 -7.8674726188182831e-02</leafValues></_></weakClassifiers></_>
    <!-- stage 10 -->
    <_>
      <maxWeakCount>54</maxWeakCount>
      <stageThreshold>-7.8751003742218018e-01</stageThreshold>
      <weakClassifiers>
        <_>
          <internalNodes>
            0 -1 792 -5.0842452794313431e-02</internalNodes>
          <leafValues>
            5.0530034303665161e-01 4.1916169226169586e-02</leafValues></_>
        <_>
          <internalNodes>
            0 -1 170 -5.0440141931176186e-03</internalNodes>
          <leafValues>
            2.6207694411277771e-01 -1.8420970439910889e-01</leafValues></_>
        <_>
          <internalNodes>
            0 -1 425 3.6286730319261551e-02</internalNodes>
          <leafValues>
            -1.9553756713867188e-01 2.2530002892017365e-01</leafValues></_>
        <_>
          <internalNodes>
            0 -1 129 4.4995555654168129e-03</internalNodes>
          <leafValues>
            -9.3953356146812439e-02 4.2621707916259766e-01</leafValues></_>
        <_>
          <internalNodes>
            0 -1 131 -2.6675860863178968e-03</internalNodes>
          <leafValues>
            3.0189451575279236e-01 -2.2138257324695587e-01</leafValues></_>
        <_>
          <internalNodes>
            0 -1 458 -6.7477181553840637e-02</internalNodes>
          <leafValues>
            1.6150754690170288e-01 -2.5782921910285950e-01</leafValues></_>
        <_>
          <internalNodes>
            0 -1 1444 4.8484583385288715e-03</internalNodes>
          <leafValues>
            -1.3986998796463013e-01 2.9686307907104492e-01</leafValues></_>
        <_>
          <internalNodes>
            0 -1 737 3.4323991276323795e-03</internalNodes>
          <leafValues>
            -1.2097290903329849e-01 3.0528399348258972e-01</leafValues></_>
        <_>
          <internalNodes>
            0 -1 251 6.1393701471388340e-03</internalNodes>
          <leafValues>
            9.6457399427890778e-02 -3.9542847871780396e-01</leafValues></_>
        <_>
          <internalNodes>
            0 -1 1022 -8.0369245260953903e-03</internalNodes>
          <leafValues>
            1.8114846944808960e-01 -1.7911358177661896e-01</leafValues></_>
        <_>
          <internalNodes>
            0 -1 1451 1.0992099996656179e-03</internalNodes>
          <leafValues>
            -1.3516710698604584e-01 2.6282471418380737e-01</leafValues></_>
        <_>
          <internalNodes>
            0 -1 921 3.8112653419375420e-03</internalNodes>
          <leafValues>
            -1.1893299221992493e-01 2.7764043211936951e-01</leafValues></_>
        <_>
          <internalNodes>
            0 -1 1138 -8.4257067646831274e-04</internalNodes>
          <leafValues>
            -4.7751787304878235e-01 7.1827292442321777e-02</leafValues></_>
        <_>
          <internalNodes>
            0 -1 1138 3.3658830216154456e-04</internalNodes>
          <leafValues>
            9.5024384558200836e-02 -3.3230295777320862e-01</leafValues></_>
        <_>
          <internalNodes>
            0 -1 679 2.0744167268276215e-02</internalNodes>
          <leafValues>
            -8.2818932831287384e-02 3.9581960439682007e-01</leafValues></_>
        <_>
          <internalNodes>
            0 -1 905 1.1459654197096825e-02</internalNodes>
          <leafValues>
            -9.6678197383880615e-02 3.4100899100303650e-01</leafValues></_>
        <_>
          <internalNodes>
            0 -1 450 5.0464123487472534e-03</internalNodes>
          <leafValues>
            -6.9882184267044067e-02 4.4144466519355774e-01</leafValues></_>
        <_>
          <internalNodes>
            0 -1 1503 -8.2080881111323833e-04</internalNodes>
          <leafValues>
            -3.7637576460838318e-01 8.7563201785087585e-02</leafValues></_>
        <_>
          <internalNodes>
            0 -1 529 6.1388066969811916e-03</internalNodes>
          <leafValues>
            -7.3679417371749878e-02 4.0843045711517334e-01</leafValues></_>
        <_>
          <internalNodes>
            0 -1 963 9.6522079547867179e-04</internalNodes>
          <leafValues>
            -1.2917591631412506e-01 2.2397616505622864e-01</leafValues></_>
        <_>
          <internalNodes>
            0 -1 1498 -5.6753149256110191e-03</internalNodes>
          <leafValues>
            -4.4307813048362732e-01 6.8181164562702179e-02</leafValues></_>
        <_>
          <internalNodes>
            0 -1 521 -5.0273039378225803e-03</internalNodes>
          <leafValues>
            3.7175762653350830e-01 -8.8496245443820953e-02</leafValues></_>
        <_>
          <internalNodes>
            0 -1 1406 -1.2618933105841279e-03</internalNodes>
          <leafValues>
            -3.4411683678627014e-01 9.2260107398033142e-02</leafValues></_>
        <_>
          <internalNodes>
            0 -1 888 7.1693286299705505e-03</internalNodes>
          <leafValues>
            -9.1683417558670044e-02 3.3772218227386475e-01</leafValues></_>
        <_>
          <internalNodes>
            0 -1 1193 5.6760793086141348e-04</internalNodes>
          <leafValues>
            1.0001554340124130e-01 -3.2824662327766418e-01</leafValues></_>
        <_>
          <internalNodes>
            0 -1 1274 8.5769407451152802e-03</internalNodes>
          <leafValues>
            -1.8177251517772675e-01 1.5422782301902771e-01</leafValues></_>
        <_>
          <internalNodes>
            0 -1 635 -6.3362993299961090e-02</internalNodes>
          <leafValues>
            6.2092113494873047e-01 -5.0305109471082687e-02</leafValues></_>
        <_>
          <internalNodes>
            0 -1 1005 -4.8969811759889126e-03</internalNodes>
          <leafValues>
            8.9011855423450470e-02 -3.8291034102439880e-01</leafValues></_>
        <_>
          <internalNodes>
            0 -1 391 2.5252623017877340e-03</internalNodes>
          <leafValues>
            -1.3204120099544525e-01 2.3378361761569977e-01</leafValues></_>
        <_>
          <internalNodes>
            0 -1 1097 -1.6381610184907913e-02</internalNodes>
          <leafValues>
            2.9488369822502136e-01 -9.4681218266487122e-02</leafValues></_>
        <_>
          <internalNodes>
            0 -1 216 9.6290670335292816e-03</internalNodes>
          <leafValues>
            -9.6718974411487579e-02 2.7394112944602966e-01</leafValues></_>
        <_>
          <internalNodes>
            0 -1 816 -2.0178877748548985e-03</internalNodes>
          <leafValues>
            3.1982699036598206e-01 -9.9973164498806000e-02</leafValues></_>
        <_>
          <internalNodes>
            0 -1 93 -3.4177121706306934e-03</internalNodes>
          <leafValues>
            -4.9146470427513123e-01 6.3910923898220062e-02</leafValues></_>
        <_>
          <internalNodes>
            0 -1 1372 5.9021217748522758e-03</internalNodes>
          <leafValues>
            3.5278640687465668e-02 -7.3315089941024780e-01</leafValues></_>
        <_>
          <internalNodes>
            0 -1 779 4.6543627977371216e-02</internalNodes>
          <leafValues>
            -1.2253565341234207e-01 2.3277945816516876e-01</leafValues></_>
        <_>
          <internalNodes>
            0 -1 1480 -3.6344813997857273e-04</internalNodes>
          <leafValues>
            -2.4843119084835052e-01 1.0426708310842514e-01</leafValues></_>
        <_>
          <internalNodes>
            0 -1 696 1.8704885151237249e-03</internalNodes>
          <leafValues>
            -9.7209595143795013e-02 2.8172150254249573e-01</leafValues></_>
        <_>
          <internalNodes>
            0 -1 553 -6.0640909941866994e-04</internalNodes>
          <leafValues>
            1.9971071183681488e-01 -1.2898889183998108e-01</leafValues></_>
        <_>
          <internalNodes>
            0 -1 1252 1.5144995413720608e-03</internalNodes>
          <leafValues>
            7.3198348283767700e-02 -3.5984200239181519e-01</leafValues></_>
        <_>
          <internalNodes>
            0 -1 1458 -2.8269030153751373e-03</internalNodes>
          <leafValues>
            3.7474793195724487e-01 -7.2163134813308716e-02</leafValues></_>
        <_>
          <internalNodes>
            0 -1 1260 2.5086663663387299e-03</internalNodes>
          <leafValues>
            6.2355652451515198e-02 -4.5798060297966003e-01</leafValues></_>
        <_>
          <internalNodes>
            0 -1 990 -2.7589067816734314e-02</internalNodes>
          <leafValues>
            6.1668032407760620e-01 -4.2955748736858368e-02</leafValues></_>
        <_>
          <internalNodes>
            0 -1 1170 8.0688949674367905e-03</internalNodes>
          <leafValues>
            -8.1414029002189636e-02 2.8660976886749268e-01</leafValues></_>
        <_>
          <internalNodes>
            0 -1 1347 -6.4704224467277527e-02</internalNodes>
          <leafValues>
            -6.7239511013031006e-01 4.0588181465864182e-02</leafValues></_>
        <_>
          <internalNodes>
            0 -1 194 -4.1555976495146751e-03</internalNodes>
          <leafValues>
            1.5176407992839813e-01 -1.7576040327548981e-01</leafValues></_>
        <_>
          <internalNodes>
            0 -1 1069 -1.9535548053681850e-03</internalNodes>
          <leafValues>
            2.9602739214897156e-01 -1.0282479226589203e-01</leafValues></_>
        <_>
          <internalNodes>
            0 -1 206 -7.4567057890817523e-04</internalNodes>
          <leafValues>
            -3.6391082406044006e-01 8.3365194499492645e-02</leafValues></_>
        <_>
          <internalNodes>
            0 -1 205 2.2350531071424484e-04</internalNodes>
          <leafValues>
            7.5217507779598236e-02 -3.5320988297462463e-01</leafValues></_>
        <_>
          <internalNodes>
            0 -1 238 7.1157976053655148e-03</internalNodes>
          <leafValues>
            -9.4750106334686279e-02 3.3058768510818481e-01</leafValues></_>
        <_>
          <internalNodes>
            0 -1 219 -3.8661728613078594e-03</internalNodes>
          <leafValues>
            3.2055097818374634e-01 -9.5380581915378571e-02</leafValues></_>
        <_>
          <internalNodes>
            0 -1 1432 -2.8929620981216431e-02</internalNodes>
          <leafValues>
            -6.4066982269287109e-01 4.3090086430311203e-02</leafValues></_>
        <_>
          <internalNodes>
            0 -1 104 -2.4412490427494049e-02</internalNodes>
          <leafValues>
            3.2877516746520996e-01 -8.6536549031734467e-02</leafValues></_>
        <_>
          <internalNodes>
            0 -1 981 -1.1785870417952538e-02</internalNodes>
          <leafValues>
            4.6612519025802612e-01 -5.6775197386741638e-02</leafValues></_>
        <_>
          <internalNodes>
            0 -1 1247 1.1961994459852576e-05</internalNodes>
          <leafValues>
            -1.5972363948822021e-01 1.5091702342033386e-01</leafValues></_></weakClassifiers></_>
    <!-- stage 11 -->
    <_>
      <maxWeakCount>49</maxWeakCount>
      <stageThreshold>-7.2957414388656616e-01</stageThreshold>
      <weakClassifiers>
        <_>
          <internalNodes>
            0 -1 46 -8.2661762833595276e-02</internalNodes>
          <leafValues>
            4.3747135996818542e-01 -1.0638298094272614e-01</leafValues></_>
        <_>
          <internalNodes>
            0 -1 576 1.9398137927055359e-02</internalNodes>
          <leafValues>
            -7.5236268341541290e-02 5.3137916326522827e-01</leafValues></_>
        <_>
          <internalNodes>
            0 -1 569 7.8409314155578613e-03</internalNodes>
          <leafValues>
            -1.5332978963851929e-01 3.1588277220726013e-01</leafValues></_>
        <_>
          <internalNodes>
            0 -1 552 -9.8537392914295197e-02</internalNodes>
          <leafValues>
            2.2276696562767029e-01 -2.1159105002880096e-01</leafValues></_>
        <_>
          <internalNodes>
            0 -1 599 9.6684973686933517e-03</internalNodes>
          <leafValues>
            -1.0898244380950928e-01 4.7974881529808044e-01</leafValues></_>
        <_>
          <internalNodes>
            0 -1 1430 4.4258744455873966e-03</internalNodes>
          <leafValues>
            -1.7227530479431152e-01 2.2965726256370544e-01</leafValues></_>
        <_>
          <internalNodes>
            0 -1 688 6.7779654636979103e-04</internalNodes>
          <leafValues>
            9.0345650911331177e-02 -4.2694568634033203e-01</leafValues></_>
        <_>
          <internalNodes>
            0 -1 50 1.7061356455087662e-02</internalNodes>
          <leafValues>
            -5.9215635061264038e-02 6.0267442464828491e-01</leafValues></_>
        <_>
          <internalNodes>
            0 -1 541 1.2639140710234642e-02</internalNodes>
          <leafValues>
            -6.6879361867904663e-02 4.7687318921089172e-01</leafValues></_>
        <_>
          <internalNodes>
            0 -1 164 -6.4638010226190090e-03</internalNodes>
          <leafValues>
            -3.8206881284713745e-01 8.1846676766872406e-02</leafValues></_>
        <_>
          <internalNodes>
            0 -1 1108 -9.9683571606874466e-03</internalNodes>
          <leafValues>
            4.1077911853790283e-01 -7.7239044010639191e-02</leafValues></_>
        <_>
          <internalNodes>
            0 -1 1205 4.9434266984462738e-03</internalNodes>
          <leafValues>
            -9.6167452633380890e-02 3.6615288257598877e-01</leafValues></_>
        <_>
          <internalNodes>
            0 -1 139 -5.1777483895421028e-03</internalNodes>
          <leafValues>
            3.2432237267494202e-01 -1.0028367489576340e-01</leafValues></_>
        <_>
          <internalNodes>
            0 -1 561 -5.6941054761409760e-02</internalNodes>
          <leafValues>
            3.2053908705711365e-01 -9.9104426801204681e-02</leafValues></_>
        <_>
          <internalNodes>
            0 -1 503 5.6700722780078650e-04</internalNodes>
          <leafValues>
            7.2196416556835175e-02 -4.3795755505561829e-01</leafValues></_>
        <_>
          <internalNodes>
            0 -1 525 -1.2056685984134674e-02</internalNodes>
          <leafValues>
            1.3028863072395325e-01 -2.1396179497241974e-01</leafValues></_>
        <_>
          <internalNodes>
            0 -1 549 1.2537234462797642e-02</internalNodes>
          <leafValues>
            -9.4848483800888062e-02 3.0249330401420593e-01</leafValues></_>
        <_>
          <internalNodes>
            0 -1 1249 5.4600060684606433e-04</internalNodes>
          <leafValues>
            8.1702716648578644e-02 -3.5266819596290588e-01</leafValues></_>
        <_>
          <internalNodes>
            0 -1 747 -3.8373386487364769e-03</internalNodes>
          <leafValues>
            2.6234108209609985e-01 -1.1032056063413620e-01</leafValues></_>
        <_>
          <internalNodes>
            0 -1 632 -3.2372893765568733e-03</internalNodes>
          <leafValues>
            2.7550986409187317e-01 -1.1394967883825302e-01</leafValues></_>
        <_>
          <internalNodes>
            0 -1 872 -1.2974604964256287e-02</internalNodes>
          <leafValues>
            -5.9851276874542236e-01 4.9038428813219070e-02</leafValues></_>
        <_>
          <internalNodes>
            0 -1 186 -3.7136499304324389e-03</internalNodes>
          <leafValues>
            -5.0444585084915161e-01 5.1221270114183426e-02</leafValues></_>
        <_>
          <internalNodes>
            0 -1 861 -2.3518827219959348e-04</internalNodes>
          <leafValues>
            2.4299901723861694e-01 -1.1172264814376831e-01</leafValues></_>
        <_>
          <internalNodes>
            0 -1 21 1.8198171164840460e-04</internalNodes>
          <leafValues>
            1.3013353943824768e-01 -2.0584642887115479e-01</leafValues></_>
        <_>
          <internalNodes>
            0 -1 47 9.1407966101542115e-04</internalNodes>
          <leafValues>
            6.9368124008178711e-02 -4.1526618599891663e-01</leafValues></_>
        <_>
          <internalNodes>
            0 -1 1038 -7.8840792179107666e-02</internalNodes>
          <leafValues>
            6.7973935604095459e-01 -4.1857533156871796e-02</leafValues></_>
        <_>
          <internalNodes>
            0 -1 787 -2.7252903673797846e-03</internalNodes>
          <leafValues>
            2.3313389718532562e-01 -1.1594437807798386e-01</leafValues></_>
        <_>
          <internalNodes>
            0 -1 266 2.0337654277682304e-03</internalNodes>
          <leafValues>
            -9.1249123215675354e-02 3.1915852427482605e-01</leafValues></_>
        <_>
          <internalNodes>
            0 -1 1472 -4.5269690454006195e-03</internalNodes>
          <leafValues>
            -9.0981626510620117e-01 3.2563325017690659e-02</leafValues></_>
        <_>
          <internalNodes>
            0 -1 1471 5.5496575077995658e-04</internalNodes>
          <leafValues>
            7.7563241124153137e-02 -3.1427049636840820e-01</leafValues></_>
        <_>
          <internalNodes>
            0 -1 1471 -1.8446294416207820e-04</internalNodes>
          <leafValues>
            -2.3447895050048828e-01 1.2928020954132080e-01</leafValues></_>
        <_>
          <internalNodes>
            0 -1 179 -6.8566938862204552e-03</internalNodes>
          <leafValues>
            2.1557863056659698e-01 -1.3207709789276123e-01</leafValues></_>
        <_>
          <internalNodes>
            0 -1 1071 -4.3767942115664482e-03</internalNodes>
          <leafValues>
            2.8761366009712219e-01 -9.7303278744220734e-02</leafValues></_>
        <_>
          <internalNodes>
            0 -1 698 2.6931422762572765e-03</internalNodes>
          <leafValues>
            -1.1752669513225555e-01 2.4793481826782227e-01</leafValues></_>
        <_>
          <internalNodes>
            0 -1 1130 1.0951450094580650e-02</internalNodes>
          <leafValues>
            -7.8278340399265289e-02 3.4623846411705017e-01</leafValues></_>
        <_>
          <internalNodes>
            0 -1 1293 2.0545430015772581e-03</internalNodes>
          <leafValues>
            7.3546633124351501e-02 -4.0714395046234131e-01</leafValues></_>
        <_>
          <internalNodes>
            0 -1 1381 -3.9531243965029716e-03</internalNodes>
          <leafValues>
            2.8772196173667908e-01 -1.0320232808589935e-01</leafValues></_>
        <_>
          <internalNodes>
            0 -1 1411 -7.1049719117581844e-03</internalNodes>
          <leafValues>
            3.7713727355003357e-01 -7.5604386627674103e-02</leafValues></_>
        <_>
          <internalNodes>
            0 -1 1121 -6.3856155611574650e-03</internalNodes>
          <leafValues>
            9.3250609934329987e-02 -2.9719728231430054e-01</leafValues></_>
        <_>
          <internalNodes>
            0 -1 1049 2.3944661952555180e-03</internalNodes>
          <leafValues>
            2.0267841219902039e-01 -1.3904878497123718e-01</leafValues></_>
        <_>
          <internalNodes>
            0 -1 690 -9.7588505595922470e-03</internalNodes>
          <leafValues>
            -5.5895256996154785e-01 5.2178632467985153e-02</leafValues></_>
        <_>
          <internalNodes>
            0 -1 539 3.3703207969665527e-02</internalNodes>
          <leafValues>
            -5.0479624420404434e-02 5.8016353845596313e-01</leafValues></_>
        <_>
          <internalNodes>
            0 -1 527 1.9117423798888922e-03</internalNodes>
          <leafValues>
            5.7516872882843018e-02 -4.8435854911804199e-01</leafValues></_>
        <_>
          <internalNodes>
            0 -1 666 8.5662701167166233e-04</internalNodes>
          <leafValues>
            -1.2074536830186844e-01 2.0866850018501282e-01</leafValues></_>
        <_>
          <internalNodes>
            0 -1 910 -1.3591675087809563e-03</internalNodes>
          <leafValues>
            -5.2216666936874390e-01 4.9508020281791687e-02</leafValues></_>
        <_>
          <internalNodes>
            0 -1 1389 1.3532077427953482e-03</internalNodes>
          <leafValues>
            -9.0811602771282196e-02 3.1614667177200317e-01</leafValues></_>
        <_>
          <internalNodes>
            0 -1 491 5.5539555847644806e-02</internalNodes>
          <leafValues>
            -3.9294615387916565e-02 5.9520041942596436e-01</leafValues></_>
        <_>
          <internalNodes>
            0 -1 1029 -1.0487684048712254e-03</internalNodes>
          <leafValues>
            -4.6891635656356812e-01 5.9386290609836578e-02</leafValues></_>
        <_>
          <internalNodes>
            0 -1 898 -1.2569352984428406e-03</internalNodes>
          <leafValues>
            2.1504856646060944e-01 -1.2733624875545502e-01</leafValues></_></weakClassifiers></_>
    <!-- stage 12 -->
    <_>
      <maxWeakCount>46</maxWeakCount>
      <stageThreshold>-8.0671554803848267e-01</stageThreshold>
      <weakClassifiers>
        <_>
          <internalNodes>
            0 -1 752 6.2563191168010235e-03</internalNodes>
          <leafValues>
            1.9166183471679688e-01 5.8478933572769165e-01</leafValues></_>
        <_>
          <internalNodes>
            0 -1 975 -7.0435702800750732e-03</internalNodes>
          <leafValues>
            4.7843283414840698e-01 -7.4535362422466278e-02</leafValues></_>
        <_>
          <internalNodes>
            0 -1 259 1.2790547683835030e-02</internalNodes>
          <leafValues>
            -9.4956934452056885e-02 4.6866047382354736e-01</leafValues></_>
        <_>
          <internalNodes>
            0 -1 370 -7.4181286618113518e-03</internalNodes>
          <leafValues>
            4.0402695536613464e-01 -1.7236162722110748e-01</leafValues></_>
        <_>
          <internalNodes>
            0 -1 809 5.3261214634403586e-04</internalNodes>
          <leafValues>
            1.1126639693975449e-01 -4.2924711108207703e-01</leafValues></_>
        <_>
          <internalNodes>
            0 -1 1361 2.5906316295731813e-05</internalNodes>
          <leafValues>
            -2.1316653490066528e-01 1.8897949159145355e-01</leafValues></_>
        <_>
          <internalNodes>
            0 -1 1290 5.7746330276131630e-04</internalNodes>
          <leafValues>
            8.4665186703205109e-02 -4.2762401700019836e-01</leafValues></_>
        <_>
          <internalNodes>
            0 -1 590 5.2050398662686348e-03</internalNodes>
          <leafValues>
            -6.9452211260795593e-02 5.1086807250976563e-01</leafValues></_>
        <_>
          <internalNodes>
            0 -1 592 -3.3134352415800095e-03</internalNodes>
          <leafValues>
            4.0410944819450378e-01 -9.4472251832485199e-02</leafValues></_>
        <_>
          <internalNodes>
            0 -1 1134 2.3809238336980343e-03</internalNodes>
          <leafValues>
            -2.5688007473945618e-01 1.5079820156097412e-01</leafValues></_>
        <_>
          <internalNodes>
            0 -1 979 -3.5153324715793133e-03</internalNodes>
          <leafValues>
            3.0137208104133606e-01 -1.2011998146772385e-01</leafValues></_>
        <_>
          <internalNodes>
            0 -1 382 -4.5730667188763618e-03</internalNodes>
          <leafValues>
            3.1078293919563293e-01 -1.1082792282104492e-01</leafValues></_>
        <_>
          <internalNodes>
            0 -1 1001 5.4580885916948318e-03</internalNodes>
          <leafValues>
            -6.0749351978302002e-02 5.2754348516464233e-01</leafValues></_>
        <_>
          <internalNodes>
            0 -1 809 -7.3799485107883811e-04</internalNodes>
          <leafValues>
            -4.0573909878730774e-01 8.9998304843902588e-02</leafValues></_>
        <_>
          <internalNodes>
            0 -1 1429 -5.5635776370763779e-03</internalNodes>
          <leafValues>
            3.3088159561157227e-01 -1.0354926437139511e-01</leafValues></_>
        <_>
          <internalNodes>
            0 -1 1393 -8.5578141734004021e-03</internalNodes>
          <leafValues>
            4.6024531126022339e-01 -7.9948619008064270e-02</leafValues></_>
        <_>
          <internalNodes>
            0 -1 74 3.9698770269751549e-03</internalNodes>
          <leafValues>
            7.3238506913185120e-02 -4.5769849419593811e-01</leafValues></_>
        <_>
          <internalNodes>
            0 -1 928 -3.7874858826398849e-03</internalNodes>
          <leafValues>
            2.9251748323440552e-01 -1.1450126022100449e-01</leafValues></_>
        <_>
          <internalNodes>
            0 -1 847 6.6273063421249390e-03</internalNodes>
          <leafValues>
            -1.1264867335557938e-01 2.6664367318153381e-01</leafValues></_>
        <_>
          <internalNodes>
            0 -1 948 -1.0303605347871780e-02</internalNodes>
          <leafValues>
            4.0140166878700256e-01 -8.6492694914340973e-02</leafValues></_>
        <_>
          <internalNodes>
            0 -1 63 1.5604063868522644e-02</internalNodes>
          <leafValues>
            -1.5053746104240417e-01 2.1089938282966614e-01</leafValues></_>
        <_>
          <internalNodes>
            0 -1 1302 -4.0870122611522675e-03</internalNodes>
          <leafValues>
            3.5134449601173401e-01 -8.3146207034587860e-02</leafValues></_>
        <_>
          <internalNodes>
            0 -1 206 8.0499344039708376e-04</internalNodes>
          <leafValues>
            7.6053880155086517e-02 -4.1506141424179077e-01</leafValues></_>
        <_>
          <internalNodes>
            0 -1 71 1.1493397876620293e-02</internalNodes>
          <leafValues>
            -8.3876289427280426e-02 4.0127485990524292e-01</leafValues></_>
        <_>
          <internalNodes>
            0 -1 859 -2.6765014044940472e-03</internalNodes>
          <leafValues>
            3.7834322452545166e-01 -7.8834205865859985e-02</leafValues></_>
        <_>
          <internalNodes>
            0 -1 410 -2.3759355826769024e-05</internalNodes>
          <leafValues>
            1.6415621340274811e-01 -1.9556924700737000e-01</leafValues></_>
        <_>
          <internalNodes>
            0 -1 474 9.2791318893432617e-03</internalNodes>
          <leafValues>
            -8.1636995077133179e-02 4.2270430922508240e-01</leafValues></_>
        <_>
          <internalNodes>
            0 -1 753 -1.1503682471811771e-02</internalNodes>
          <leafValues>
            4.0337726473808289e-01 -6.8368747830390930e-02</leafValues></_>
        <_>
          <internalNodes>
            0 -1 399 -6.1563275754451752e-02</internalNodes>
          <leafValues>
            2.4871620535850525e-01 -1.2512646615505219e-01</leafValues></_>
        <_>
          <internalNodes>
            0 -1 389 -2.9005426913499832e-02</internalNodes>
          <leafValues>
            2.6721492409706116e-01 -1.3885562121868134e-01</leafValues></_>
        <_>
          <internalNodes>
            0 -1 37 -6.6230595111846924e-03</internalNodes>
          <leafValues>
            2.7771025896072388e-01 -1.1563794314861298e-01</leafValues></_>
        <_>
          <internalNodes>
            0 -1 873 1.1372076347470284e-02</internalNodes>
          <leafValues>
            -1.2072548270225525e-01 2.6065251231193542e-01</leafValues></_>
        <_>
          <internalNodes>
            0 -1 1435 -2.7889660486835055e-05</internalNodes>
          <leafValues>
            1.9369179010391235e-01 -1.6407886147499084e-01</leafValues></_>
        <_>
          <internalNodes>
            0 -1 733 -7.1751028299331665e-03</internalNodes>
          <leafValues>
            6.6788691282272339e-01 -4.3556883931159973e-02</leafValues></_>
        <_>
          <internalNodes>
            0 -1 731 1.2900296133011580e-03</internalNodes>
          <leafValues>
            -1.0981206595897675e-01 2.8195846080780029e-01</leafValues></_>
        <_>
          <internalNodes>
            0 -1 1423 -1.5467440709471703e-02</internalNodes>
          <leafValues>
            -4.3004393577575684e-01 7.3164276778697968e-02</leafValues></_>
        <_>
          <internalNodes>
            0 -1 1470 2.7814325221697800e-05</internalNodes>
          <leafValues>
            -1.9869804382324219e-01 1.5667852759361267e-01</leafValues></_>
        <_>
          <internalNodes>
            0 -1 941 6.0540875419974327e-03</internalNodes>
          <leafValues>
            -5.6808564811944962e-02 5.3673362731933594e-01</leafValues></_>
        <_>
          <internalNodes>
            0 -1 1219 9.6799631137400866e-04</internalNodes>
          <leafValues>
            1.0306112468242645e-01 -3.1180915236473083e-01</leafValues></_>
        <_>
          <internalNodes>
            0 -1 79 -4.1231177747249603e-02</internalNodes>
          <leafValues>
            3.6140593886375427e-01 -8.7448187172412872e-02</leafValues></_>
        <_>
          <internalNodes>
            0 -1 451 -5.7464302517473698e-04</internalNodes>
          <leafValues>
            -2.2554408013820648e-01 1.3775071501731873e-01</leafValues></_>
        <_>
          <internalNodes>
            0 -1 324 1.0392902418971062e-02</internalNodes>
          <leafValues>
            9.0017937123775482e-02 -3.2122689485549927e-01</leafValues></_>
        <_>
          <internalNodes>
            0 -1 450 -3.8976136129349470e-03</internalNodes>
          <leafValues>
            3.6168271303176880e-01 -8.7146393954753876e-02</leafValues></_>
        <_>
          <internalNodes>
            0 -1 668 1.2236363254487514e-02</internalNodes>
          <leafValues>
            -1.1238537728786469e-01 2.9112374782562256e-01</leafValues></_>
        <_>
          <internalNodes>
            0 -1 1290 2.7818903618026525e-05</internalNodes>
          <leafValues>
            -1.8006834387779236e-01 1.7137596011161804e-01</leafValues></_>
        <_>
          <internalNodes>
            0 -1 1258 -7.1399300359189510e-03</internalNodes>
          <leafValues>
            4.9001714587211609e-01 -6.6853702068328857e-02</leafValues></_></weakClassifiers></_>
    <!-- stage 13 -->
    <_>
      <maxWeakCount>54</maxWeakCount>
      <stageThreshold>-6.4002817869186401e-01</stageThreshold>
      <weakClassifiers>
        <_>
          <internalNodes>
            0 -1 25 5.0965331494808197e-02</internalNodes>
          <leafValues>
            1.5856236219406128e-01 5.5260831117630005e-01</leafValues></_>
        <_>
          <internalNodes>
            0 -1 867 2.5869931560009718e-03</internalNodes>
          <leafValues>
            -1.4791643619537354e-01 2.3524212837219238e-01</leafValues></_>
        <_>
          <internalNodes>
            0 -1 1461 5.1692745182663202e-04</internalNodes>
          <leafValues>
            -1.7198085784912109e-01 1.9365102052688599e-01</leafValues></_>
        <_>
          <internalNodes>
            0 -1 192 -3.2552456104895100e-05</internalNodes>
          <leafValues>
            1.3758377730846405e-01 -2.4496562778949738e-01</leafValues></_>
        <_>
          <internalNodes>
            0 -1 570 7.1524456143379211e-04</internalNodes>
          <leafValues>
            1.7816457897424698e-02 -5.9165692329406738e-01</leafValues></_>
        <_>
          <internalNodes>
            0 -1 11 1.3807257637381554e-02</internalNodes>
          <leafValues>
            -1.2501485645771027e-01 2.3870113492012024e-01</leafValues></_>
        <_>
          <internalNodes>
            0 -1 358 -2.5272723287343979e-02</internalNodes>
          <leafValues>
            2.2290407121181488e-01 -1.2312706559896469e-01</leafValues></_>
        <_>
          <internalNodes>
            0 -1 349 -9.1762319207191467e-03</internalNodes>
          <leafValues>
            1.7041571438312531e-01 -1.8007646501064301e-01</leafValues></_>
        <_>
          <internalNodes>
            0 -1 1066 2.5031790137290955e-03</internalNodes>
          <leafValues>
            -9.7657307982444763e-02 3.1016778945922852e-01</leafValues></_>
        <_>
          <internalNodes>
            0 -1 969 6.3046260038390756e-04</internalNodes>
          <leafValues>
            7.5721383094787598e-02 -4.0232789516448975e-01</leafValues></_>
        <_>
          <internalNodes>
            0 -1 212 -8.8355854153633118e-02</internalNodes>
          <leafValues>
            4.3410798907279968e-01 -6.3734889030456543e-02</leafValues></_>
        <_>
          <internalNodes>
            0 -1 314 1.0799773968756199e-02</internalNodes>
          <leafValues>
            -1.0792224109172821e-01 2.7374964952468872e-01</leafValues></_>
        <_>
          <internalNodes>
            0 -1 1471 1.6016640001907945e-03</internalNodes>
          <leafValues>
            6.2746994197368622e-02 -5.2539920806884766e-01</leafValues></_>
        <_>
          <internalNodes>
            0 -1 710 3.7981107831001282e-02</internalNodes>
          <leafValues>
            -1.0468504577875137e-01 2.7437627315521240e-01</leafValues></_>
        <_>
          <internalNodes>
            0 -1 772 -2.4786259979009628e-02</internalNodes>
          <leafValues>
            5.1840001344680786e-01 -5.5254966020584106e-02</leafValues></_>
        <_>
          <internalNodes>
            0 -1 70 -1.3935554027557373e-01</internalNodes>
          <leafValues>
            1.0782223939895630e-01 -2.9220321774482727e-01</leafValues></_>
        <_>
          <internalNodes>
            0 -1 334 -2.6056491769850254e-03</internalNodes>
          <leafValues>
            2.2349354624748230e-01 -1.2372108548879623e-01</leafValues></_>
        <_>
          <internalNodes>
            0 -1 242 -6.1547597870230675e-03</internalNodes>
          <leafValues>
            2.8048083186149597e-01 -9.6785724163055420e-02</leafValues></_>
        <_>
          <internalNodes>
            0 -1 150 -7.4771214276552200e-03</internalNodes>
          <leafValues>
            2.2018651664257050e-01 -1.4210100471973419e-01</leafValues></_>
        <_>
          <internalNodes>
            0 -1 313 -1.6389477998018265e-02</internalNodes>
          <leafValues>
            3.7725368142127991e-01 -6.7658141255378723e-02</leafValues></_>
        <_>
          <internalNodes>
            0 -1 384 -3.0968575738370419e-03</internalNodes>
          <leafValues>
            2.5284364819526672e-01 -1.0239617526531219e-01</leafValues></_>
        <_>
          <internalNodes>
            0 -1 870 1.2448555789887905e-03</internalNodes>
          <leafValues>
            6.4405225217342377e-02 -4.3231055140495300e-01</leafValues></_>
        <_>
          <internalNodes>
            0 -1 1363 -1.8558496958576143e-04</internalNodes>
          <leafValues>
            -3.2690417766571045e-01 8.0024249851703644e-02</leafValues></_>
        <_>
          <internalNodes>
            0 -1 1214 -2.3935471836011857e-04</internalNodes>
          <leafValues>
            2.0542477071285248e-01 -1.2733510136604309e-01</leafValues></_>
        <_>
          <internalNodes>
            0 -1 1470 -4.2990679503418505e-04</internalNodes>
          <leafValues>
            -4.5344179868698120e-01 5.5586826056241989e-02</leafValues></_>
        <_>
          <internalNodes>
            0 -1 790 -9.2814248055219650e-03</internalNodes>
          <leafValues>
            -5.2090835571289063e-01 4.7687355428934097e-02</leafValues></_>
        <_>
          <internalNodes>
            0 -1 1400 1.0687706526368856e-03</internalNodes>
          <leafValues>
            -1.0448283702135086e-01 2.6242929697036743e-01</leafValues></_>
        <_>
          <internalNodes>
            0 -1 1398 -1.4742482453584671e-03</internalNodes>
          <leafValues>
            2.4953231215476990e-01 -1.1977772414684296e-01</leafValues></_>
        <_>
          <internalNodes>
            0 -1 1308 -2.8958232142031193e-03</internalNodes>
          <leafValues>
            -5.0245660543441772e-01 6.4943104982376099e-02</leafValues></_>
        <_>
          <internalNodes>
            0 -1 332 -2.5084237568080425e-03</internalNodes>
          <leafValues>
            2.2310009598731995e-01 -1.2090295553207397e-01</leafValues></_>
        <_>
          <internalNodes>
