<?xml version="1.0"?>
<opencv_storage>
<cascade>
  <stageType>BOOST</stageType>
  <featureType>HAAR</featureType>
  <height>24</height>
  <width>24</width>
  <stageParams>
    <boostType>GAB</boostType>
    <minHitRate>9.9500000476837158e-01</minHitRate>
    <maxFalseAlarm>5.0000000000000000e-01</maxFalseAlarm>
    <weightTrimRate>9.4999999999999996e-01</weightTrimRate>
    <maxDepth>1</maxDepth>
    <maxWeakCount>100</maxWeakCount></stageParams>
  <featureParams>
    <maxCatCount>0</maxCatCount>
    <featSize>1</featSize>
    <mode>BASIC</mode></featureParams>
  <stageNum>20</stageNum>
  <stages>
    <!-- stage 0 -->
    <_>
      <maxWeakCount>6</maxWeakCount>
      <stageThreshold>-2.2770221531391144e-01</stageThreshold>
      <weakClassifiers>
        <_>
          <internalNodes>
            0 -1 43 1.3222906738519669e-02</internalNodes>
          <leafValues>
            6.3478261232376099e-01 -6.5714287757873535e-01</leafValues></_>
        <_>
          <internalNodes>
            0 -1 98 3.9261661004275084e-04</internalNodes>
          <leafValues>
            -3.6985844373703003e-01 8.2538688182830811e-01</leafValues></_>
        <_>
          <internalNodes>
            0 -1 64 4.0473537519574165e-03</internalNodes>
          <leafValues>
            -4.6042934060096741e-01 7.2561395168304443e-01</leafValues></_>
        <_>
          <internalNodes>
            0 -1 37 -3.0728626996278763e-02</internalNodes>
          <leafValues>
            8.1717616319656372e-01 -3.3393716812133789e-01</leafValues></_>
        <_>
          <internalNodes>
            0 -1 58 -1.6470691189169884e-03</internalNodes>
          <leafValues>
            6.8755912780761719e-01 -4.1615808010101318e-01</leafValues></_>
        <_>
          <internalNodes>
            0 -1 18 7.5091784819960594e-03</internalNodes>
          <leafValues>
            -3.8581898808479309e-01 8.7014997005462646e-01</leafValues></_></weakClassifiers></_>
    <!-- stage 1 -->
    <_>
      <maxWeakCount>4</maxWeakCount>
      <stageThreshold>-1.8741802871227264e-01</stageThreshold>
      <weakClassifiers>
        <_>
          <internalNodes>
            0 -1 70 -6.0304976068437099e-04</internalNodes>
          <leafValues>
            8.1176471710205078e-01 -2.9230770468711853e-01</leafValues></_>
        <_>
          <internalNodes>
            0 -1 77 8.2764821127057076e-04</internalNodes>
          <leafValues>
            -3.0196434259414673e-01 8.3135700225830078e-01</leafValues></_>
        <_>
          <internalNodes>
            0 -1 61 -2.3536302614957094e-04</internalNodes>
          <leafValues>
            9.6186619997024536e-01 -3.0283981561660767e-01</leafValues></_>
        <_>
          <internalNodes>
            0 -1 72 2.4109892547130585e-04</internalNodes>
          <leafValues>
            -3.9437857270240784e-01 8.2092827558517456e-01</leafValues></_></weakClassifiers></_>
    <!-- stage 2 -->
    <_>
      <maxWeakCount>4</maxWeakCount>
      <stageThreshold>-1.9543080031871796e-01</stageThreshold>
      <weakClassifiers>
        <_>
          <internalNodes>
            0 -1 94 -1.9224797142669559e-04</internalNodes>
          <leafValues>
            8.5915493965148926e-01 -1.3924050331115723e-01</leafValues></_>
        <_>
          <internalNodes>
            0 -1 21 -1.7747972742654383e-04</internalNodes>
          <leafValues>
            9.1385585069656372e-01 -2.6862820982933044e-01</leafValues></_>
        <_>
          <internalNodes>
            0 -1 99 -2.3414571478497237e-04</internalNodes>
          <leafValues>
            9.2007523775100708e-01 -3.2576084136962891e-01</leafValues></_>
        <_>
          <internalNodes>
            0 -1 91 -5.5439679272240028e-05</internalNodes>
          <leafValues>
            7.8848385810852051e-01 -4.6019664406776428e-01</leafValues></_></weakClassifiers></_>
    <!-- stage 3 -->
    <_>
      <maxWeakCount>4</maxWeakCount>
      <stageThreshold>-4.3113529682159424e-01</stageThreshold>
      <weakClassifiers>
        <_>
          <internalNodes>
            0 -1 25 -4.7768733929842710e-04</internalNodes>
          <leafValues>
            7.9069769382476807e-01 -2.8125000000000000e-01</leafValues></_>
        <_>
          <internalNodes>
            0 -1 9 -4.2365962872281671e-04</internalNodes>
          <leafValues>
            7.9952460527420044e-01 -4.3400588631629944e-01</leafValues></_>
        <_>
          <internalNodes>
            0 -1 89 -7.6503064483404160e-03</internalNodes>
          <leafValues>
            9.0242594480514526e-01 -3.2110252976417542e-01</leafValues></_>
        <_>
          <internalNodes>
            0 -1 7 -1.7519274479127489e-05</internalNodes>
          <leafValues>
            8.7511843442916870e-01 -4.6672457456588745e-01</leafValues></_></weakClassifiers></_>
    <!-- stage 4 -->
    <_>
      <maxWeakCount>4</maxWeakCount>
      <stageThreshold>-3.1098392605781555e-01</stageThreshold>
      <weakClassifiers>
        <_>
          <internalNodes>
            0 -1 102 -3.0675472225993872e-04</internalNodes>
          <leafValues>
            8.7692308425903320e-01 -8.2352943718433380e-02</leafValues></_>
        <_>
          <internalNodes>
            0 -1 69 -1.9875538419000804e-04</internalNodes>
          <leafValues>
            8.7600106000900269e-01 -3.0990022420883179e-01</leafValues></_>
        <_>
          <internalNodes>
            0 -1 71 -2.7974467957392335e-04</internalNodes>
          <leafValues>
            7.7373754978179932e-01 -4.1573730111122131e-01</leafValues></_>
        <_>
          <internalNodes>
            0 -1 82 3.0579743906855583e-04</internalNodes>
          <leafValues>
            -4.6226945519447327e-01 7.4109923839569092e-01</leafValues></_></weakClassifiers></_>
    <!-- stage 5 -->
    <_>
      <maxWeakCount>5</maxWeakCount>
      <stageThreshold>-3.2387027144432068e-01</stageThreshold>
      <weakClassifiers>
        <_>
          <internalNodes>
            0 -1 76 -4.6031671809032559e-04</internalNodes>
          <leafValues>
            9.3548387289047241e-01 -9.0909093618392944e-02</leafValues></_>
        <_>
          <internalNodes>
            0 -1 20 5.8941799215972424e-04</internalNodes>
          <leafValues>
            -2.1746009588241577e-01 8.6440056562423706e-01</leafValues></_>
        <_>
          <internalNodes>
            0 -1 26 -3.3229184919036925e-04</internalNodes>
          <leafValues>
            6.8660688400268555e-01 -4.7577849030494690e-01</leafValues></_>
        <_>
          <internalNodes>
            0 -1 57 -2.7672247961163521e-04</internalNodes>
          <leafValues>
            8.6228334903717041e-01 -2.8820645809173584e-01</leafValues></_>
        <_>
          <internalNodes>
            0 -1 103 -2.0466340356506407e-04</internalNodes>
          <leafValues>
            8.2837176322937012e-01 -4.0200594067573547e-01</leafValues></_></weakClassifiers></_>
    <!-- stage 6 -->
    <_>
      <maxWeakCount>3</maxWeakCount>
      <stageThreshold>4.6154577285051346e-02</stageThreshold>
      <weakClassifiers>
        <_>
          <internalNodes>
            0 -1 10 -2.6663352036848664e-04</internalNodes>
          <leafValues>
            7.6190477609634399e-01 -2.1212121844291687e-01</leafValues></_>
        <_>
          <internalNodes>
            0 -1 83 -5.2657420746982098e-04</internalNodes>
          <leafValues>
            8.1890779733657837e-01 -3.1228432059288025e-01</leafValues></_>
        <_>
          <internalNodes>
            0 -1 49 -1.0062432847917080e-03</internalNodes>
          <leafValues>
            7.6849085092544556e-01 -4.0346586704254150e-01</leafValues></_></weakClassifiers></_>
    <!-- stage 7 -->
    <_>
      <maxWeakCount>6</maxWeakCount>
      <stageThreshold>-3.2732963562011719e-01</stageThreshold>
      <weakClassifiers>
        <_>
          <internalNodes>
            0 -1 14 -8.5400834679603577e-02</internalNodes>
          <leafValues>
            -1. 4.7058823704719543e-01</leafValues></_>
        <_>
          <internalNodes>
            0 -1 13 -1.6702033579349518e-02</internalNodes>
          <leafValues>
            1. -2.7031326293945312e-01</leafValues></_>
        <_>
          <internalNodes>
            0 -1 87 -2.6624482125043869e-03</internalNodes>
          <leafValues>
            7.1050423383712769e-01 -3.9086398482322693e-01</leafValues></_>
        <_>
          <internalNodes>
            0 -1 97 5.4077561944723129e-03</internalNodes>
          <leafValues>
            -4.7875756025314331e-01 6.6483265161514282e-01</leafValues></_>
        <_>
          <internalNodes>
            0 -1 59 1.1065162834711373e-04</internalNodes>
          <leafValues>
            6.0407924652099609e-01 -4.6733936667442322e-01</leafValues></_>
        <_>
          <internalNodes>
            0 -1 47 3.5190177150070667e-03</internalNodes>
          <leafValues>
            -3.3423388004302979e-01 9.5831036567687988e-01</leafValues></_></weakClassifiers></_>
    <!-- stage 8 -->
    <_>
      <maxWeakCount>5</maxWeakCount>
      <stageThreshold>1.1525246500968933e-01</stageThreshold>
      <weakClassifiers>
        <_>
          <internalNodes>
            0 -1 4 -1.6313360538333654e-03</internalNodes>
          <leafValues>
            8.3606559038162231e-01 -1.1235955171287060e-02</leafValues></_>
        <_>
          <internalNodes>
            0 -1 96 -7.6788326259702444e-04</internalNodes>
          <leafValues>
            7.5487422943115234e-01 -2.0975774526596069e-01</leafValues></_>
        <_>
          <internalNodes>
            0 -1 31 -3.3403257839381695e-03</internalNodes>
          <leafValues>
            -7.2764652967453003e-01 2.9976159334182739e-01</leafValues></_>
        <_>
          <internalNodes>
            0 -1 65 -3.3500005956739187e-03</internalNodes>
          <leafValues>
            8.4054994583129883e-01 -3.1887295842170715e-01</leafValues></_>
        <_>
          <internalNodes>
            0 -1 90 -2.8893931812490337e-05</internalNodes>
          <leafValues>
            5.5135744810104370e-01 -4.9194401502609253e-01</leafValues></_></weakClassifiers></_>
    <!-- stage 9 -->
    <_>
      <maxWeakCount>5</maxWeakCount>
      <stageThreshold>9.6885628998279572e-02</stageThreshold>
      <weakClassifiers>
        <_>
          <internalNodes>
            0 -1 23 -6.3712284900248051e-03</internalNodes>
          <leafValues>
            -8.5185188055038452e-01 5.9349590539932251e-01</leafValues></_>
        <_>
          <internalNodes>
            0 -1 27 -1.8955993652343750e-01</internalNodes>
          <leafValues>
            9.1798287630081177e-01 -4.8269894719123840e-01</leafValues></_>
        <_>
          <internalNodes>
            0 -1 51 -1.0953641030937433e-03</internalNodes>
          <leafValues>
            9.3147343397140503e-01 -3.6902070045471191e-01</leafValues></_>
        <_>
          <internalNodes>
            0 -1 75 -1.6994046745821834e-05</internalNodes>
          <leafValues>
            7.9082888364791870e-01 -3.9840659499168396e-01</leafValues></_>
        <_>
          <internalNodes>
            0 -1 81 4.6071838587522507e-03</internalNodes>
          <leafValues>
            -2.9086589813232422e-01 9.3026596307754517e-01</leafValues></_></weakClassifiers></_>
    <!-- stage 10 -->
    <_>
      <maxWeakCount>5</maxWeakCount>
      <stageThreshold>-8.1920892000198364e-02</stageThreshold>
      <weakClassifiers>
        <_>
          <internalNodes>
            0 -1 0 -7.7728152275085449e-02</internalNodes>
          <leafValues>
            8.7654322385787964e-01 -3.0434781312942505e-01</leafValues></_>
        <_>
          <internalNodes>
            0 -1 30 3.3178594894707203e-03</internalNodes>
          <leafValues>
            5.7150632143020630e-01 -5.2712649106979370e-01</leafValues></_>
        <_>
          <internalNodes>
            0 -1 50 -2.3023515939712524e-02</internalNodes>
          <leafValues>
            5.8660823106765747e-01 -5.5270761251449585e-01</leafValues></_>
        <_>
          <internalNodes>
            0 -1 56 -2.1752151660621166e-03</internalNodes>
          <leafValues>
            8.4655755758285522e-01 -3.6773928999900818e-01</leafValues></_>
        <_>
          <internalNodes>
            0 -1 88 -1.9682727725012228e-05</internalNodes>
          <leafValues>
            6.6730636358261108e-01 -5.6794834136962891e-01</leafValues></_></weakClassifiers></_>
    <!-- stage 11 -->
    <_>
      <maxWeakCount>6</maxWeakCount>
      <stageThreshold>-7.8253573179244995e-01</stageThreshold>
      <weakClassifiers>
        <_>
          <internalNodes>
            0 -1 35 -2.0944194868206978e-02</internalNodes>
          <leafValues>
            6.9892472028732300e-01 -2.6315790414810181e-01</leafValues></_>
        <_>
          <internalNodes>
            0 -1 63 -7.0315896300598979e-04</internalNodes>
          <leafValues>
            7.3770111799240112e-01 -2.8502091765403748e-01</leafValues></_>
        <_>
          <internalNodes>
            0 -1 34 -1.1707691010087729e-03</internalNodes>
          <leafValues>
            7.3827993869781494e-01 -3.3288028836250305e-01</leafValues></_>
        <_>
          <internalNodes>
            0 -1 42 3.6089466884732246e-03</internalNodes>
          <leafValues>
            -3.5943502187728882e-01 7.5908863544464111e-01</leafValues></_>
        <_>
          <internalNodes>
            0 -1 36 2.5776389986276627e-02</internalNodes>
          <leafValues>
            -3.2447481155395508e-01 8.1153845787048340e-01</leafValues></_>
        <_>
          <internalNodes>
            0 -1 46 -4.5434458297677338e-04</internalNodes>
          <leafValues>
            7.8160226345062256e-01 -2.8872704505920410e-01</leafValues></_></weakClassifiers></_>
    <!-- stage 12 -->
    <_>
      <maxWeakCount>6</maxWeakCount>
      <stageThreshold>-3.7687352299690247e-01</stageThreshold>
      <weakClassifiers>
        <_>
          <internalNodes>
            0 -1 22 -9.2189773917198181e-02</internalNodes>
          <leafValues>
            -6.8421053886413574e-01 4.8091602325439453e-01</leafValues></_>
        <_>
          <internalNodes>
            0 -1 11 -1.1773314327001572e-03</internalNodes>
          <leafValues>
            8.1476712226867676e-01 -2.5951194763183594e-01</leafValues></_>
        <_>
          <internalNodes>
            0 -1 62 2.6279194280505180e-03</internalNodes>
          <leafValues>
            -2.6327165961265564e-01 8.0368375778198242e-01</leafValues></_>
        <_>
          <internalNodes>
            0 -1 84 4.5144455507397652e-03</internalNodes>
          <leafValues>
            -2.3302517831325531e-01 8.5541582107543945e-01</leafValues></_>
        <_>
          <internalNodes>
            0 -1 12 -2.2736610844731331e-03</internalNodes>
          <leafValues>
            -8.7464952468872070e-01 2.9549261927604675e-01</leafValues></_>
        <_>
          <internalNodes>
            0 -1 32 -1.3552527525462210e-04</internalNodes>
          <leafValues>
            7.2826910018920898e-01 -3.9747339487075806e-01</leafValues></_></weakClassifiers></_>
    <!-- stage 13 -->
    <_>
      <maxWeakCount>7</maxWeakCount>
      <stageThreshold>-5.8707141876220703e-01</stageThreshold>
      <weakClassifiers>
        <_>
          <internalNodes>
            0 -1 68 -7.1381516754627228e-03</internalNodes>
          <leafValues>
            8.3333331346511841e-01 2.6020852139652106e-17</leafValues></_>
        <_>
          <internalNodes>
            0 -1 5 -3.3493582159280777e-03</internalNodes>
          <leafValues>
            7.7988284826278687e-01 -2.8798544406890869e-01</leafValues></_>
        <_>
          <internalNodes>
            0 -1 86 -3.1290449202060699e-02</internalNodes>
          <leafValues>
            8.4716141223907471e-01 -3.1648945808410645e-01</leafValues></_>
        <_>
          <internalNodes>
            0 -1 79 1.4968954958021641e-02</internalNodes>
          <leafValues>
            -2.7358755469322205e-01 8.0797398090362549e-01</leafValues></_>
        <_>
          <internalNodes>
            0 -1 67 -2.6391735300421715e-02</internalNodes>
          <leafValues>
            9.2116028070449829e-01 -2.4781695008277893e-01</leafValues></_>
        <_>
          <internalNodes>
            0 -1 92 -1.6653784550726414e-03</internalNodes>
          <leafValues>
            9.2650616168975830e-01 -2.5173059105873108e-01</leafValues></_>
        <_>
          <internalNodes>
            0 -1 28 -6.4912717789411545e-03</internalNodes>
          <leafValues>
            9.0693777799606323e-01 -2.9102292656898499e-01</leafValues></_></weakClassifiers></_>
    <!-- stage 14 -->
    <_>
      <maxWeakCount>6</maxWeakCount>
      <stageThreshold>-7.6368516683578491e-01</stageThreshold>
      <weakClassifiers>
        <_>
          <internalNodes>
            0 -1 85 -2.6818108744919300e-03</internalNodes>
          <leafValues>
            8.3870965242385864e-01 -2.2727273404598236e-02</leafValues></_>
        <_>
          <internalNodes>
            0 -1 93 3.0514355748891830e-03</internalNodes>
          <leafValues>
            -3.2049396634101868e-01 6.4353108406066895e-01</leafValues></_>
        <_>
          <internalNodes>
            0 -1 17 1.2370998738333583e-03</internalNodes>
          <leafValues>
            -3.4090304374694824e-01 7.5845140218734741e-01</leafValues></_>
        <_>
          <internalNodes>
            0 -1 100 -3.1324892770498991e-03</internalNodes>
          <leafValues>
            7.3653548955917358e-01 -3.8727143406867981e-01</leafValues></_>
        <_>
          <internalNodes>
            0 -1 44 -2.3590223863720894e-03</internalNodes>
          <leafValues>
            9.3406021595001221e-01 -3.1543302536010742e-01</leafValues></_>
        <_>
          <internalNodes>
            0 -1 53 -1.7583968292456120e-04</internalNodes>
          <leafValues>
            -4.7621086239814758e-01 5.5827701091766357e-01</leafValues></_></weakClassifiers></_>
    <!-- stage 15 -->
    <_>
      <maxWeakCount>6</maxWeakCount>
      <stageThreshold>1.6047650575637817e-01</stageThreshold>
      <weakClassifiers>
        <_>
          <internalNodes>
            0 -1 15 9.0847432613372803e-02</internalNodes>
          <leafValues>
            4.5985400676727295e-01 -1.</leafValues></_>
        <_>
          <internalNodes>
            0 -1 24 2.4605137296020985e-03</internalNodes>
          <leafValues>
            -2.6033481955528259e-01 8.9866167306900024e-01</leafValues></_>
        <_>
          <internalNodes>
            0 -1 29 2.9066565912216902e-03</internalNodes>
          <leafValues>
            -2.6344832777976990e-01 8.9049685001373291e-01</leafValues></_>
        <_>
          <internalNodes>
            0 -1 74 -3.8540624082088470e-03</internalNodes>
          <leafValues>
            1. -2.1774958074092865e-01</leafValues></_>
        <_>
          <internalNodes>
            0 -1 6 3.2277315855026245e-02</internalNodes>
          <leafValues>
            -2.2943238914012909e-01 1.</leafValues></_>
        <_>
          <internalNodes>
            0 -1 54 -2.2567100822925568e-03</internalNodes>
          <leafValues>
            6.7158758640289307e-01 -3.2019442319869995e-01</leafValues></_></weakClassifiers></_>
    <!-- stage 16 -->
    <_>
      <maxWeakCount>6</maxWeakCount>
      <stageThreshold>7.1291796863079071e-02</stageThreshold>
      <weakClassifiers>
        <_>
          <internalNodes>
            0 -1 101 -2.5772193446755409e-02</internalNodes>
          <leafValues>
            -4.7368422150611877e-01 6.0714286565780640e-01</leafValues></_>
        <_>
          <internalNodes>
            0 -1 45 2.4133995175361633e-03</internalNodes>
          <leafValues>
            -2.8812557458877563e-01 8.0816942453384399e-01</leafValues></_>
        <_>
          <internalNodes>
            0 -1 3 -8.9101417688652873e-04</internalNodes>
          <leafValues>
            7.6391392946243286e-01 -2.9513567686080933e-01</leafValues></_>
        <_>
          <internalNodes>
            0 -1 19 -8.5042491555213928e-03</internalNodes>
          <leafValues>
            8.1186348199844360e-01 -2.9312711954116821e-01</leafValues></_>
        <_>
          <internalNodes>
            0 -1 8 -1.5189186669886112e-03</internalNodes>
          <leafValues>
            6.3187688589096069e-01 -3.7904804944992065e-01</leafValues></_>
        <_>
          <internalNodes>
            0 -1 40 5.0216950476169586e-03</internalNodes>
          <leafValues>
            -2.9133963584899902e-01 8.8771611452102661e-01</leafValues></_></weakClassifiers></_>
    <!-- stage 17 -->
    <_>
      <maxWeakCount>5</maxWeakCount>
      <stageThreshold>-4.2378804087638855e-01</stageThreshold>
      <weakClassifiers>
        <_>
          <internalNodes>
            0 -1 73 1.9402496982365847e-03</internalNodes>
          <leafValues>
            7.1764707565307617e-01 -1.6923077404499054e-01</leafValues></_>
        <_>
          <internalNodes>
            0 -1 55 -1.6903832554817200e-02</internalNodes>
          <leafValues>
            6.8349218368530273e-01 -2.8722283244132996e-01</leafValues></_>
        <_>
          <internalNodes>
            0 -1 16 9.3147847801446915e-03</internalNodes>
          <leafValues>
            -2.6222980022430420e-01 7.9773074388504028e-01</leafValues></_>
        <_>
          <internalNodes>
            0 -1 39 -1.0773536050692201e-03</internalNodes>
          <leafValues>
            6.3741177320480347e-01 -3.3997601270675659e-01</leafValues></_>
        <_>
          <internalNodes>
            0 -1 80 -3.5394357983022928e-03</internalNodes>
          <leafValues>
            6.6774868965148926e-01 -4.2508918046951294e-01</leafValues></_></weakClassifiers></_>
    <!-- stage 18 -->
    <_>
      <maxWeakCount>5</maxWeakCount>
      <stageThreshold>-9.4323635101318359e-02</stageThreshold>
      <weakClassifiers>
        <_>
          <internalNodes>
            0 -1 78 -6.4908646047115326e-02</internalNodes>
          <leafValues>
            7.2839504480361938e-01 -1.3043478131294250e-01</leafValues></_>
        <_>
          <internalNodes>
            0 -1 60 2.5783077580854297e-04</internalNodes>
          <leafValues>
            4.1713854670524597e-01 -5.3136342763900757e-01</leafValues></_>
        <_>
          <internalNodes>
            0 -1 1 2.4423297145403922e-04</internalNodes>
          <leafValues>
            -3.7674012780189514e-01 6.2874543666839600e-01</leafValues></_>
        <_>
          <internalNodes>
            0 -1 52 -1.2697358615696430e-03</internalNodes>
          <leafValues>
            7.1638363599777222e-01 -3.9287060499191284e-01</leafValues></_>
        <_>
          <internalNodes>
            0 -1 38 -6.4768093579914421e-05</internalNodes>
          <leafValues>
            5.7529962062835693e-01 -4.7024649381637573e-01</leafValues></_></weakClassifiers></_>
    <!-- stage 19 -->
    <_>
      <maxWeakCount>6</maxWeakCount>
      <stageThreshold>-5.2168937399983406e-03</stageThreshold>
      <weakClassifiers>
        <_>
          <internalNodes>
            0 -1 95 1.1909835040569305e-02</internalNodes>
          <leafValues>
            7.6923079788684845e-02 9.1304349899291992e-01</leafValues></_>
        <_>
          <internalNodes>
            0 -1 66 -5.4735862649977207e-03</internalNodes>
          <leafValues>
            8.0561345815658569e-01 -1.5231838822364807e-01</leafValues></_>
        <_>
          <internalNodes>
            0 -1 2 3.0265857931226492e-03</internalNodes>
          <leafValues>
            -2.5907522439956665e-01 6.3558012247085571e-01</leafValues></_>
        <_>
          <internalNodes>
            0 -1 41 1.5371960762422532e-04</internalNodes>
          <leafValues>
            4.0116664767265320e-01 -5.4080981016159058e-01</leafValues></_>
        <_>
          <internalNodes>
            0 -1 48 -4.9172702711075544e-04</internalNodes>
          <leafValues>
            -5.2868413925170898e-01 3.7964075803756714e-01</leafValues></_>
        <_>
          <internalNodes>
            0 -1 33 -6.0282722115516663e-03</internalNodes>
          <leafValues>
            5.9979003667831421e-01 -3.3202818036079407e-01</leafValues></_></weakClassifiers></_></stages>
  <features>
    <_>
      <rects>
        <_>
          0 0 15 18 -1.</_>
        <_>
          0 9 15 9 2.</_></rects>
      <tilted>0</tilted></_>
    <_>
      <rects>
        <_>
          0 3 4 4 -1.</_>
        <_>
          0 3 2 2 2.</_>
        <_>
          2 5 2 2 2.</_></rects>
      <tilted>0</tilted></_>
    <_>
      <rects>
        <_>
          0 11 3 6 -1.</_>
        <_>
          1 11 1 6 3.</_></rects>
      <tilted>0</tilted></_>
    <_>
      <rects>
        <_>
          0 13 4 6 -1.</_>
        <_>
          0 13 2 3 2.</_>
        <_>
          2 16 2 3 2.</_></rects>
      <tilted>0</tilted></_>
    <_>
      <rects>
        <_>
          0 14 2 8 -1.</_>
        <_>
          0 14 1 4 2.</_>
        <_>
          1 18 1 4 2.</_></rects>
      <tilted>0</tilted></_>
    <_>
      <rects>
        <_>
          0 16 4 6 -1.</_>
        <_>
          0 16 2 3 2.</_>
        <_>
          2 19 2 3 2.</_></rects>
      <tilted>0</tilted></_>
    <_>
      <rects>
        <_>
          1 0 20 6 -1.</_>
        <_>
          1 2 20 2 3.</_></rects>
      <tilted>0</tilted></_>
    <_>
      <rects>
        <_>
          1 6 1 3 -1.</_>
        <_>
          1 7 1 1 3.</_></rects>
      <tilted>0</tilted></_>
    <_>
      <rects>
        <_>
          1 14 3 10 -1.</_>
        <_>
          2 14 1 10 3.</_></rects>
      <tilted>0</tilted></_>
    <_>
      <rects>
        <_>
          1 19 2 4 -1.</_>
        <_>
          2 19 1 4 2.</_></rects>
      <tilted>0</tilted></_>
    <_>
      <rects>
        <_>
          1 20 2 3 -1.</_>
        <_>
          2 20 1 3 2.</_></rects>
      <tilted>0</tilted></_>
    <_>
      <rects>
        <_>
          2 1 2 3 -1.</_>
        <_>
          2 2 2 1 3.</_></rects>
      <tilted>0</tilted></_>
    <_>
      <rects>
        <_>
          2 1 4 2 -1.</_>
        <_>
          4 1 2 2 2.</_></rects>
      <tilted>0</tilted></_>
    <_>
      <rects>
        <_>
          2 5 8 9 -1.</_>
        <_>
          2 8 8 3 3.</_></rects>
      <tilted>0</tilted></_>
    <_>
      <rects>
        <_>
          2 7 22 10 -1.</_>
        <_>
          2 7 11 5 2.</_>
        <_>
          13 12 11 5 2.</_></rects>
      <tilted>0</tilted></_>
    <_>
      <rects>
        <_>
          2 10 12 14 -1.</_>
        <_>
          8 10 6 14 2.</_></rects>
      <tilted>0</tilted></_>
    <_>
      <rects>
        <_>
          2 15 14 8 -1.</_>
        <_>
          2 15 7 4 2.</_>
        <_>
          9 19 7 4 2.</_></rects>
      <tilted>0</tilted></_>
    <_>
      <rects>
        <_>
          2 17 11 2 -1.</_>
        <_>
          2 18 11 1 2.</_></rects>
      <tilted>0</tilted></_>
    <_>
      <rects>
        <_>
          2 19 22 2 -1.</_>
        <_>
          2 19 11 1 2.</_>
        <_>
          13 20 11 1 2.</_></rects>
      <tilted>0</tilted></_>
    <_>
      <rects>
        <_>
          3 0 3 21 -1.</_>
        <_>
          4 0 1 21 3.</_></rects>
      <tilted>0</tilted></_>
    <_>
      <rects>
        <_>
          3 2 4 2 -1.</_>
        <_>
          5 2 2 2 2.</_></rects>
      <tilted>0</tilted></_>
    <_>
      <rects>
        <_>
          3 4 2 2 -1.</_>
        <_>
          4 4 1 2 2.</_></rects>
      <tilted>0</tilted></_>
    <_>
      <rects>
        <_>
          3 7 9 12 -1.</_>
        <_>
          3 13 9 6 2.</_></rects>
      <tilted>0</tilted></_>
    <_>
      <rects>
        <_>
          3 13 3 3 -1.</_>
        <_>
          4 13 1 3 3.</_></rects>
      <tilted>0</tilted></_>
    <_>
      <rects>
        <_>
          3 22 8 2 -1.</_>
        <_>
          3 23 8 1 2.</_></rects>
      <tilted>0</tilted></_>
    <_>
      <rects>
        <_>
          4 1 1 10 -1.</_>
        <_>
          4 6 1 5 2.</_></rects>
      <tilted>0</tilted></_>
    <_>
      <rects>
        <_>
          4 3 1 4 -1.</_>
        <_>
          4 5 1 2 2.</_></rects>
      <tilted>0</tilted></_>
    <_>
      <rects>
        <_>
          5 0 15 24 -1.</_>
        <_>
          5 12 15 12 2.</_></rects>
      <tilted>0</tilted></_>
    <_>
      <rects>
        <_>
          5 4 18 2 -1.</_>
        <_>
          5 4 9 1 2.</_>
        <_>
          14 5 9 1 2.</_></rects>
      <tilted>0</tilted></_>
    <_>
      <rects>
        <_>
          5 17 5 4 -1.</_>
        <_>
          5 19 5 2 2.</_></rects>
      <tilted>0</tilted></_>
    <_>
      <rects>
        <_>
          5 18 3 5 -1.</_>
        <_>
          6 18 1 5 3.</_></rects>
      <tilted>0</tilted></_>
    <_>
      <rects>
        <_>
          5 23 6 1 -1.</_>
        <_>
          7 23 2 1 3.</_></rects>
      <tilted>0</tilted></_>
    <_>
      <rects>
        <_>
          6 0 2 2 -1.</_>
        <_>
          6 0 1 1 2.</_>
        <_>
          7 1 1 1 2.</_></rects>
      <tilted>0</tilted></_>
    <_>
      <rects>
        <_>
          6 0 3 6 -1.</_>
        <_>
          6 3 3 3 2.</_></rects>
      <tilted>0</tilted></_>
    <_>
      <rects>
        <_>
          6 0 12 2 -1.</_>
        <_>
          6 0 6 1 2.</_>
        <_>
          12 1 6 1 2.</_></rects>
      <tilted>0</tilted></_>
    <_>
      <rects>
        <_>
          6 0 7 16 -1.</_>
        <_>
          6 8 7 8 2.</_></rects>
      <tilted>0</tilted></_>
    <_>
      <rects>
        <_>
          6 3 14 18 -1.</_>
        <_>
          6 3 7 9 2.</_>
        <_>
          13 12 7 9 2.</_></rects>
      <tilted>0</tilted></_>
    <_>
      <rects>
        <_>
          6 3 9 8 -1.</_>
        <_>
          6 7 9 4 2.</_></rects>
      <tilted>0</tilted></_>
    <_>
      <rects>
        <_>
          6 5 9 5 -1.</_>
        <_>
          9 5 3 5 3.</_></rects>
      <tilted>0</tilted></_>
    <_>
      <rects>
        <_>
          6 10 6 3 -1.</_>
        <_>
          6 11 6 1 3.</_></rects>
      <tilted>0</tilted></_>
    <_>
      <rects>
        <_>
          6 14 16 2 -1.</_>
        <_>
          6 15 16 1 2.</_></rects>
      <tilted>0</tilted></_>
    <_>
      <rects>
        <_>
          6 17 7 6 -1.</_>
        <_>
          6 20 7 3 2.</_></rects>
      <tilted>0</tilted></_>
    <_>
      <rects>
        <_>
          6 19 14 2 -1.</_>
        <_>
          6 19 7 1 2.</_>
        <_>
          13 20 7 1 2.</_></rects>
      <tilted>0</tilted></_>
    <_>
      <rects>
        <_>
          7 0 12 24 -1.</_>
        <_>
          7 12 12 12 2.</_></rects>
      <tilted>0</tilted></_>
    <_>
      <rects>
        <_>
          7 2 4 3 -1.</_>
        <_>
          7 3 4 1 3.</_></rects>
      <tilted>0</tilted></_>
    <_>
      <rects>
        <_>
          7 3 12 2 -1.</_>
        <_>
          13 3 6 2 2.</_></rects>
      <tilted>0</tilted></_>
    <_>
      <rects>
        <_>
          7 7 1 3 -1.</_>
        <_>
          7 8 1 1 3.</_></rects>
      <tilted>0</tilted></_>
    <_>
      <rects>
        <_>
          7 7 2 10 -1.</_>
        <_>
          7 7 1 5 2.</_>
        <_>
          8 12 1 5 2.</_></rects>
      <tilted>0</tilted></_>
    <_>
      <rects>
        <_>
          7 11 2 2 -1.</_>
        <_>
          7 12 2 1 2.</_></rects>
      <tilted>0</tilted></_>
    <_>
      <rects>
        <_>
          7 18 3 4 -1.</_>
        <_>
          7 20 3 2 2.</_></rects>
      <tilted>0</tilted></_>
    <_>
      <rects>
        <_>
          8 0 6 24 -1.</_>
        <_>
          8 12 6 12 2.</_></rects>
      <tilted>0</tilted></_>
    <_>
      <rects>
        <_>
          8 3 16 1 -1.</_>
        <_>
          16 3 8 1 2.</_></rects>
      <tilted>0</tilted></_>
    <_>
      <rects>
        <_>
          8 10 5 3 -1.</_>
        <_>
          8 11 5 1 3.</_></rects>
      <tilted>0</tilted></_>
    <_>
      <rects>
        <_>
          8 15 3 1 -1.</_>
        <_>
          9 15 1 1 3.</_></rects>
      <tilted>0</tilted></_>
    <_>
      <rects>
        <_>
          8 20 8 3 -1.</_>
        <_>
          8 21 8 1 3.</_></rects>
      <tilted>0</tilted></_>
    <_>
      <rects>
        <_>
          9 10 7 14 -1.</_>
        <_>
          9 17 7 7 2.</_></rects>
      <tilted>0</tilted></_>
    <_>
      <rects>
        <_>
          9 11 12 1 -1.</_>
        <_>
          13 11 4 1 3.</_></rects>
      <tilted>0</tilted></_>
    <_>
      <rects>
        <_>
          9 12 1 4 -1.</_>
        <_>
          9 14 1 2 2.</_></rects>
      <tilted>0</tilted></_>
    <_>
      <rects>
        <_>
          9 13 7 3 -1.</_>
        <_>
          9 14 7 1 3.</_></rects>
      <tilted>0</tilted></_>
    <_>
      <rects>
        <_>
          9 14 9 10 -1.</_>
        <_>
          12 14 3 10 3.</_></rects>
      <tilted>0</tilted></_>
    <_>
      <rects>
        <_>
          9 22 3 1 -1.</_>
        <_>
          10 22 1 1 3.</_></rects>
      <tilted>0</tilted></_>
    <_>
      <rects>
        <_>
          10 1 2 2 -1.</_>
        <_>
          10 1 1 1 2.</_>
        <_>
          11 2 1 1 2.</_></rects>
      <tilted>0</tilted></_>
    <_>
      <rects>
        <_>
          10 3 3 8 -1.</_>
        <_>
          11 3 1 8 3.</_></rects>
      <tilted>0</tilted></_>
    <_>
      <rects>
        <_>
          10 4 6 2 -1.</_>
        <_>
          10 4 3 1 2.</_>
        <_>
          13 5 3 1 2.</_></rects>
      <tilted>0</tilted></_>
    <_>
      <rects>
        <_>
          10 14 7 9 -1.</_>
        <_>
          10 17 7 3 3.</_></rects>
      <tilted>0</tilted></_>
    <_>
      <rects>
        <_>
          10 19 9 1 -1.</_>
        <_>
          13 19 3 1 3.</_></rects>
      <tilted>0</tilted></_>
    <_>
      <rects>
        <_>
          11 0 3 22 -1.</_>
        <_>
          12 0 1 22 3.</_></rects>
      <tilted>0</tilted></_>
    <_>
      <rects>
        <_>
          11 2 6 6 -1.</_>
        <_>
          11 5 6 3 2.</_></rects>
      <tilted>0</tilted></_>
    <_>
      <rects>
        <_>
          11 4 7 6 -1.</_>
        <_>
          11 6 7 2 3.</_></rects>
      <tilted>0</tilted></_>
    <_>
      <rects>
        <_>
          11 13 1 3 -1.</_>
        <_>
          11 14 1 1 3.</_></rects>
      <tilted>0</tilted></_>
    <_>
      <rects>
        <_>
          11 19 2 4 -1.</_>
        <_>
          11 21 2 2 2.</_></rects>
      <tilted>0</tilted></_>
    <_>
      <rects>
        <_>
          11 20 2 3 -1.</_>
        <_>
          11 21 2 1 3.</_></rects>
      <tilted>0</tilted></_>
    <_>
      <rects>
        <_>
          12 4 2 2 -1.</_>
        <_>
          13 4 1 2 2.</_></rects>
      <tilted>0</tilted></_>
    <_>
      <rects>
        <_>
          12 14 4 6 -1.</_>
        <_>
          12 16 4 2 3.</_></rects>
      <tilted>0</tilted></_>
    <_>
      <rects>
        <_>
          12 16 3 6 -1.</_>
        <_>
          13 16 1 6 3.</_></rects>
      <tilted>0</tilted></_>
    <_>
      <rects>
        <_>
          13 0 3 1 -1.</_>
        <_>
          14 0 1 1 3.</_></rects>
      <tilted>0</tilted></_>
    <_>
      <rects>
        <_>
          13 9 2 3 -1.</_>
        <_>
          13 10 2 1 3.</_></rects>
      <tilted>0</tilted></_>
    <_>
      <rects>
        <_>
          13 17 4 5 -1.</_>
        <_>
          15 17 2 5 2.</_></rects>
      <tilted>0</tilted></_>
    <_>
      <rects>
        <_>
          14 1 8 22 -1.</_>
        <_>
          14 12 8 11 2.</_></rects>
      <tilted>0</tilted></_>
    <_>
      <rects>
        <_>
          14 2 8 9 -1.</_>
        <_>
          14 5 8 3 3.</_></rects>
      <tilted>0</tilted></_>
    <_>
      <rects>
        <_>
          14 3 3 18 -1.</_>
        <_>
          15 3 1 18 3.</_></rects>
      <tilted>0</tilted></_>
    <_>
      <rects>
        <_>
          15 2 9 2 -1.</_>
        <_>
          18 2 3 2 3.</_></rects>
      <tilted>0</tilted></_>
    <_>
      <rects>
        <_>
          15 14 5 2 -1.</_>
        <_>
          15 15 5 1 2.</_></rects>
      <tilted>0</tilted></_>
    <_>
      <rects>
        <_>
          15 15 7 2 -1.</_>
        <_>
          15 16 7 1 2.</_></rects>
      <tilted>0</tilted></_>
    <_>
      <rects>
        <_>
          16 17 8 4 -1.</_>
        <_>
          16 17 4 2 2.</_>
        <_>
          20 19 4 2 2.</_></rects>
      <tilted>0</tilted></_>
    <_>
      <rects>
        <_>
          16 19 2 4 -1.</_>
        <_>
          16 21 2 2 2.</_></rects>
      <tilted>0</tilted></_>
    <_>
      <rects>
        <_>
          17 0 7 15 -1.</_>
        <_>
          17 5 7 5 3.</_></rects>
      <tilted>0</tilted></_>
    <_>
      <rects>
        <_>
          17 19 2 4 -1.</_>
        <_>
          17 21 2 2 2.</_></rects>
      <tilted>0</tilted></_>
    <_>
      <rects>
        <_>
          18 9 5 3 -1.</_>
        <_>
          18 10 5 1 3.</_></rects>
      <tilted>0</tilted></_>
    <_>
      <rects>
        <_>
          18 13 6 11 -1.</_>
        <_>
          20 13 2 11 3.</_></rects>
      <tilted>0</tilted></_>
    <_>
      <rects>
        <_>
          18 17 6 1 -1.</_>
        <_>
          20 17 2 1 3.</_></rects>
      <tilted>0</tilted></_>
    <_>
      <rects>
        <_>
          19 2 2 2 -1.</_>
        <_>
          19 3 2 1 2.</_></rects>
      <tilted>0</tilted></_>
    <_>
      <rects>
        <_>
          19 12 4 4 -1.</_>
        <_>
          19 12 2 2 2.</_>
        <_>
          21 14 2 2 2.</_></rects>
      <tilted>0</tilted></_>
    <_>
      <rects>
        <_>
          19 14 4 9 -1.</_>
        <_>
          21 14 2 9 2.</_></rects>
      <tilted>0</tilted></_>
    <_>
      <rects>
        <_>
          20 3 1 4 -1.</_>
        <_>
          20 5 1 2 2.</_></rects>
      <tilted>0</tilted></_>
    <_>
      <rects>
        <_>
          20 8 4 12 -1.</_>
        <_>
          20 8 2 6 2.</_>
        <_>
          22 14 2 6 2.</_></rects>
      <tilted>0</tilted></_>
    <_>
      <rects>
        <_>
          20 16 1 3 -1.</_>
        <_>
          20 17 1 1 3.</_></rects>
      <tilted>0</tilted></_>
    <_>
      <rects>
        <_>
          20 17 4 6 -1.</_>
        <_>
          22 17 2 6 2.</_></rects>
      <tilted>0</tilted></_>
    <_>
      <rects>
        <_>
          21 19 2 2 -1.</_>
        <_>
          22 19 1 2 2.</_></rects>
      <tilted>0</tilted></_>
    <_>
      <rects>
        <_>
          22 0 1 4 -1.</_>
        <_>
          22 2 1 2 2.</_></rects>
      <tilted>0</tilted></_>
    <_>
      <rects>
        <_>
          22 1 1 6 -1.</_>
        <_>
          22 4 1 3 2.</_></rects>
      <tilted>0</tilted></_>
    <_>
      <rects>
        <_>
          22 4 2 20 -1.</_>
        <_>
          22 14 2 10 2.</_></rects>
      <tilted>0</tilted></_>
    <_>
      <rects>
        <_>
          23 2 1 4 -1.</_>
        <_>
          23 4 1 2 2.</_></rects>
      <tilted>0</tilted></_>
    <_>
      <rects>
        <_>
          23 9 1 2 -1.</_>
        <_>
          23 10 1 1 2.</_></rects>
      <tilted>0</tilted></_></features></cascade>
</opencv_storage>
