<?xml version="1.0"?>
<opencv_storage>
<cascade>
  <stageType>BOOST</stageType>
  <featureType>HAAR</featureType>
  <height>24</height>
  <width>24</width>
  <stageParams>
    <boostType>GAB</boostType>
    <minHitRate>9.9500000476837158e-01</minHitRate>
    <maxFalseAlarm>5.0000000000000000e-01</maxFalseAlarm>
    <weightTrimRate>9.4999999999999996e-01</weightTrimRate>
    <maxDepth>1</maxDepth>
    <maxWeakCount>100</maxWeakCount></stageParams>
  <featureParams>
    <maxCatCount>0</maxCatCount>
    <featSize>1</featSize>
    <mode>BASIC</mode></featureParams>
  <stageNum>30</stageNum>
  <stages>
    <!-- stage 0 -->
    <_>
      <maxWeakCount>10</maxWeakCount>
      <stageThreshold>-8.7173485755920410e-01</stageThreshold>
      <weakClassifiers>
        <_>
          <internalNodes>
            0 -1 318 -1.0044735670089722e-01</internalNodes>
          <leafValues>
            8.4116691350936890e-01 -2.0411664247512817e-01</leafValues></_>
        <_>
          <internalNodes>
            0 -1 124 5.7677384465932846e-02</internalNodes>
          <leafValues>
            -1.9113102555274963e-01 8.5632127523422241e-01</leafValues></_>
        <_>
          <internalNodes>
            0 -1 279 6.2333736568689346e-03</internalNodes>
          <leafValues>
            -1.6567450761795044e-01 7.1288430690765381e-01</leafValues></_>
        <_>
          <internalNodes>
            0 -1 565 1.2643279507756233e-02</internalNodes>
          <leafValues>
            -1.9559659063816071e-01 7.1167165040969849e-01</leafValues></_>
        <_>
          <internalNodes>
            0 -1 191 -2.0881326869130135e-02</internalNodes>
          <leafValues>
            6.4826726913452148e-01 -2.4374641478061676e-01</leafValues></_>
        <_>
          <internalNodes>
            0 -1 7 1.6489034891128540e-01</internalNodes>
          <leafValues>
            2.9138281941413879e-01 -6.1629915237426758e-01</leafValues></_>
        <_>
          <internalNodes>
            0 -1 182 7.0231772959232330e-02</internalNodes>
          <leafValues>
            -2.1124590933322906e-01 7.7063477039337158e-01</leafValues></_>
        <_>
          <internalNodes>
            0 -1 376 -4.8904258757829666e-02</internalNodes>
          <leafValues>
            7.3035472631454468e-01 -1.6344067454338074e-01</leafValues></_>
        <_>
          <internalNodes>
            0 -1 354 -9.7205711062997580e-04</internalNodes>
          <leafValues>
            4.0728601813316345e-01 -3.1790912151336670e-01</leafValues></_>
        <_>
          <internalNodes>
            0 -1 464 7.4785244651138783e-03</internalNodes>
          <leafValues>
            -1.9545195996761322e-01 7.3132276535034180e-01</leafValues></_></weakClassifiers></_>
    <!-- stage 1 -->
    <_>
      <maxWeakCount>15</maxWeakCount>
      <stageThreshold>-1.1769047975540161e+00</stageThreshold>
      <weakClassifiers>
        <_>
          <internalNodes>
            0 -1 482 -2.4280834943056107e-02</internalNodes>
          <leafValues>
            6.8550366163253784e-01 -4.0932643413543701e-01</leafValues></_>
        <_>
          <internalNodes>
            0 -1 197 3.4920655190944672e-02</internalNodes>
          <leafValues>
            -1.8301416933536530e-01 8.1461989879608154e-01</leafValues></_>
        <_>
          <internalNodes>
            0 -1 361 4.7803170979022980e-02</internalNodes>
          <leafValues>
            -1.1180149018764496e-01 8.5227882862091064e-01</leafValues></_>
        <_>
          <internalNodes>
            0 -1 799 -4.3773074867203832e-04</internalNodes>
          <leafValues>
            -6.7215269804000854e-01 1.7710976302623749e-01</leafValues></_>
        <_>
          <internalNodes>
            0 -1 93 1.0494159068912268e-03</internalNodes>
          <leafValues>
            1.3612054288387299e-01 -6.9037157297134399e-01</leafValues></_>
        <_>
          <internalNodes>
            0 -1 136 3.5613983869552612e-02</internalNodes>
          <leafValues>
            -1.9186459481716156e-01 6.2576961517333984e-01</leafValues></_>
        <_>
          <internalNodes>
            0 -1 275 -1.8903706222772598e-02</internalNodes>
          <leafValues>
            4.8672071099281311e-01 -2.4451962113380432e-01</leafValues></_>
        <_>
          <internalNodes>
            0 -1 157 -1.2945132766617462e-05</internalNodes>
          <leafValues>
            3.1906792521476746e-01 -3.2055079936981201e-01</leafValues></_>
        <_>
          <internalNodes>
            0 -1 418 -2.0030524581670761e-02</internalNodes>
          <leafValues>
            6.4321804046630859e-01 -1.5000598132610321e-01</leafValues></_>
        <_>
          <internalNodes>
            0 -1 144 -3.5108290612697601e-02</internalNodes>
          <leafValues>
            5.4116457700729370e-01 -1.7049606144428253e-01</leafValues></_>
        <_>
          <internalNodes>
            0 -1 404 -2.5526298210024834e-02</internalNodes>
          <leafValues>
            5.6453067064285278e-01 -1.6591809689998627e-01</leafValues></_>
        <_>
          <internalNodes>
            0 -1 639 -1.6540098935365677e-02</internalNodes>
          <leafValues>
            5.4282712936401367e-01 -1.6676244139671326e-01</leafValues></_>
        <_>
          <internalNodes>
            0 -1 756 9.1422926634550095e-03</internalNodes>
          <leafValues>
            -1.4709168672561646e-01 6.6266459226608276e-01</leafValues></_>
        <_>
          <internalNodes>
            0 -1 744 -4.0526193333789706e-04</internalNodes>
          <leafValues>
            -5.7058221101760864e-01 1.8367174267768860e-01</leafValues></_>
        <_>
          <internalNodes>
            0 -1 239 2.9921956360340118e-02</internalNodes>
          <leafValues>
            -1.8187427520751953e-01 5.7255744934082031e-01</leafValues></_></weakClassifiers></_>
    <!-- stage 2 -->
    <_>
      <maxWeakCount>15</maxWeakCount>
      <stageThreshold>-7.0128518342971802e-01</stageThreshold>
      <weakClassifiers>
        <_>
          <internalNodes>
            0 -1 824 -5.9591460740193725e-04</internalNodes>
          <leafValues>
            -4.0384614467620850e-01 4.8790323734283447e-01</leafValues></_>
        <_>
          <internalNodes>
            0 -1 508 -3.8294106721878052e-02</internalNodes>
          <leafValues>
            7.0911729335784912e-01 -1.9506551325321198e-01</leafValues></_>
        <_>
          <internalNodes>
            0 -1 28 -1.0880692861974239e-02</internalNodes>
          <leafValues>
            5.1677691936492920e-01 -2.3828913271427155e-01</leafValues></_>
        <_>
          <internalNodes>
            0 -1 463 2.1275246515870094e-02</internalNodes>
          <leafValues>
            -1.8869544565677643e-01 6.1871808767318726e-01</leafValues></_>
        <_>
          <internalNodes>
            0 -1 472 -9.6288267523050308e-03</internalNodes>
          <leafValues>
            4.0783396363258362e-01 -2.7409559488296509e-01</leafValues></_>
        <_>
          <internalNodes>
            0 -1 715 2.0098520442843437e-02</internalNodes>
          <leafValues>
            -1.8460357189178467e-01 5.2210831642150879e-01</leafValues></_>
        <_>
          <internalNodes>
            0 -1 689 -3.6843493580818176e-04</internalNodes>
          <leafValues>
            -5.5873847007751465e-01 2.1274691820144653e-01</leafValues></_>
        <_>
          <internalNodes>
            0 -1 812 3.5186333116143942e-03</internalNodes>
          <leafValues>
            -1.9498780369758606e-01 5.3462630510330200e-01</leafValues></_>
        <_>
          <internalNodes>
            0 -1 461 4.0700705721974373e-04</internalNodes>
          <leafValues>
            2.0061230659484863e-01 -5.3951042890548706e-01</leafValues></_>
        <_>
          <internalNodes>
            0 -1 212 -1.4123752713203430e-02</internalNodes>
          <leafValues>
            4.8132395744323730e-01 -1.9419075548648834e-01</leafValues></_>
        <_>
          <internalNodes>
            0 -1 52 5.1854342222213745e-02</internalNodes>
          <leafValues>
            -1.1992169916629791e-01 7.6028579473495483e-01</leafValues></_>
        <_>
          <internalNodes>
            0 -1 235 4.3909646570682526e-02</internalNodes>
          <leafValues>
            -1.0819404572248459e-01 7.0437222719192505e-01</leafValues></_>
        <_>
          <internalNodes>
            0 -1 189 1.1828215420246124e-01</internalNodes>
          <leafValues>
            -1.3302312791347504e-01 6.3691127300262451e-01</leafValues></_>
        <_>
          <internalNodes>
            0 -1 255 -4.3981023132801056e-02</internalNodes>
          <leafValues>
            6.6096353530883789e-01 -1.2544111907482147e-01</leafValues></_>
        <_>
          <internalNodes>
            0 -1 112 1.1575708538293839e-01</internalNodes>
          <leafValues>
            -1.4997540414333344e-01 5.6378000974655151e-01</leafValues></_></weakClassifiers></_>
    <!-- stage 3 -->
    <_>
      <maxWeakCount>19</maxWeakCount>
      <stageThreshold>-8.3999508619308472e-01</stageThreshold>
      <weakClassifiers>
        <_>
          <internalNodes>
            0 -1 355 9.0270623564720154e-02</internalNodes>
          <leafValues>
            1.7488075420260429e-02 6.8126094341278076e-01</leafValues></_>
        <_>
          <internalNodes>
            0 -1 795 -2.0311519620008767e-04</internalNodes>
          <leafValues>
            -4.5528239011764526e-01 2.7218136191368103e-01</leafValues></_>
        <_>
          <internalNodes>
            0 -1 100 5.3469426929950714e-03</internalNodes>
          <leafValues>
            -2.3295322060585022e-01 4.2386665940284729e-01</leafValues></_>
        <_>
          <internalNodes>
            0 -1 324 -8.4219068288803101e-02</internalNodes>
          <leafValues>
            4.1460716724395752e-01 -2.6253026723861694e-01</leafValues></_>
        <_>
          <internalNodes>
            0 -1 341 2.0454635843634605e-02</internalNodes>
          <leafValues>
            -2.3904453217983246e-01 4.7007673978805542e-01</leafValues></_>
        <_>
          <internalNodes>
            0 -1 312 1.3516339473426342e-02</internalNodes>
          <leafValues>
            -1.7967788875102997e-01 4.7704371809959412e-01</leafValues></_>
        <_>
          <internalNodes>
            0 -1 473 -1.2782888486981392e-02</internalNodes>
          <leafValues>
            7.8763562440872192e-01 -1.0953988879919052e-01</leafValues></_>
        <_>
          <internalNodes>
            0 -1 437 9.4260871410369873e-03</internalNodes>
          <leafValues>
            -1.1248918622732162e-01 6.0075253248214722e-01</leafValues></_>
        <_>
          <internalNodes>
            0 -1 45 -3.3245556987822056e-03</internalNodes>
          <leafValues>
            4.8479956388473511e-01 -1.7643448710441589e-01</leafValues></_>
        <_>
          <internalNodes>
            0 -1 379 3.1162030063569546e-04</internalNodes>
          <leafValues>
            1.9042868912220001e-01 -4.6364969015121460e-01</leafValues></_>
        <_>
          <internalNodes>
            0 -1 486 -5.3865080699324608e-03</internalNodes>
          <leafValues>
            3.2724326848983765e-01 -2.5636535882949829e-01</leafValues></_>
        <_>
          <internalNodes>
            0 -1 379 -5.0655601080507040e-04</internalNodes>
          <leafValues>
            -4.6492865681648254e-01 1.9469660520553589e-01</leafValues></_>
        <_>
          <internalNodes>
            0 -1 50 1.4789723791182041e-03</internalNodes>
          <leafValues>
            -2.2318562865257263e-01 3.8645336031913757e-01</leafValues></_>
        <_>
          <internalNodes>
            0 -1 709 -2.0906630903482437e-02</internalNodes>
          <leafValues>
            7.3785716295242310e-01 -1.0650590062141418e-01</leafValues></_>
        <_>
          <internalNodes>
            0 -1 718 -8.8486373424530029e-03</internalNodes>
          <leafValues>
            3.4647414088249207e-01 -2.0432280004024506e-01</leafValues></_>
        <_>
          <internalNodes>
            0 -1 754 -1.1541655287146568e-02</internalNodes>
          <leafValues>
            5.4625821113586426e-01 -1.4260539412498474e-01</leafValues></_>
        <_>
          <internalNodes>
            0 -1 18 -3.0156266689300537e-01</internalNodes>
          <leafValues>
            -6.3451606035232544e-01 1.1728312075138092e-01</leafValues></_>
        <_>
          <internalNodes>
            0 -1 727 1.9844918278977275e-04</internalNodes>
          <leafValues>
            1.6997992992401123e-01 -3.9912194013595581e-01</leafValues></_>
        <_>
          <internalNodes>
            0 -1 87 -4.0147695690393448e-03</internalNodes>
          <leafValues>
            5.5650448799133301e-01 -1.4000689983367920e-01</leafValues></_></weakClassifiers></_>
    <!-- stage 4 -->
    <_>
      <maxWeakCount>17</maxWeakCount>
      <stageThreshold>-8.9994430541992188e-01</stageThreshold>
      <weakClassifiers>
        <_>
          <internalNodes>
            0 -1 192 1.0096876323223114e-01</internalNodes>
          <leafValues>
            1.0403916984796524e-01 8.2245433330535889e-01</leafValues></_>
        <_>
          <internalNodes>
            0 -1 88 -2.5767465122044086e-03</internalNodes>
          <leafValues>
            4.6966651082038879e-01 -2.4624024331569672e-01</leafValues></_>
        <_>
          <internalNodes>
            0 -1 201 1.6837779432535172e-02</internalNodes>
          <leafValues>
            -1.6252784430980682e-01 5.4551976919174194e-01</leafValues></_>
        <_>
          <internalNodes>
            0 -1 302 9.9550150334835052e-02</internalNodes>
          <leafValues>
            -1.3120537996292114e-01 7.3839581012725830e-01</leafValues></_>
        <_>
          <internalNodes>
            0 -1 689 3.4850402153097093e-04</internalNodes>
          <leafValues>
            1.6072264313697815e-01 -5.1124948263168335e-01</leafValues></_>
        <_>
          <internalNodes>
            0 -1 412 4.8574242740869522e-02</internalNodes>
          <leafValues>
            -1.4733976125717163e-01 6.4031720161437988e-01</leafValues></_>
        <_>
          <internalNodes>
            0 -1 768 -8.9604943059384823e-04</internalNodes>
          <leafValues>
            -6.3023281097412109e-01 1.5542086958885193e-01</leafValues></_>
        <_>
          <internalNodes>
            0 -1 343 -6.5715936943888664e-03</internalNodes>
          <leafValues>
            5.3414529561996460e-01 -1.6792367398738861e-01</leafValues></_>
        <_>
          <internalNodes>
            0 -1 818 1.6953700687736273e-03</internalNodes>
          <leafValues>
            -1.8907949328422546e-01 4.4801881909370422e-01</leafValues></_>
        <_>
          <internalNodes>
            0 -1 716 -2.5864597409963608e-02</internalNodes>
          <leafValues>
            6.0056704282760620e-01 -1.4401440322399139e-01</leafValues></_>
        <_>
          <internalNodes>
            0 -1 173 -1.3849020004272461e-02</internalNodes>
          <leafValues>
            4.4240736961364746e-01 -1.8700492382049561e-01</leafValues></_>
        <_>
          <internalNodes>
            0 -1 500 9.6915904432535172e-03</internalNodes>
          <leafValues>
            -1.4744099974632263e-01 6.0469567775726318e-01</leafValues></_>
        <_>
          <internalNodes>
            0 -1 133 2.1886182948946953e-03</internalNodes>
          <leafValues>
            -1.5513840317726135e-01 4.2637121677398682e-01</leafValues></_>
        <_>
          <internalNodes>
            0 -1 410 -5.3000589832663536e-03</internalNodes>
          <leafValues>
            5.0069338083267212e-01 -1.3609956204891205e-01</leafValues></_>
        <_>
          <internalNodes>
            0 -1 262 9.7261797636747360e-03</internalNodes>
          <leafValues>
            -2.3143406212329865e-01 3.5659250617027283e-01</leafValues></_>
        <_>
          <internalNodes>
            0 -1 561 -6.5820640884339809e-04</internalNodes>
          <leafValues>
            -5.3432083129882813e-01 1.3175050914287567e-01</leafValues></_>
        <_>
          <internalNodes>
            0 -1 270 -7.2331270202994347e-03</internalNodes>
          <leafValues>
            7.0008468627929688e-01 -1.0849771648645401e-01</leafValues></_></weakClassifiers></_>
    <!-- stage 5 -->
    <_>
      <maxWeakCount>19</maxWeakCount>
      <stageThreshold>-9.1720181703567505e-01</stageThreshold>
      <weakClassifiers>
        <_>
          <internalNodes>
            0 -1 396 6.1373196542263031e-02</internalNodes>
          <leafValues>
            -4.0998216718435287e-02 6.6197180747985840e-01</leafValues></_>
        <_>
          <internalNodes>
            0 -1 620 7.1352627128362656e-04</internalNodes>
          <leafValues>
            2.2959756851196289e-01 -6.4306008815765381e-01</leafValues></_>
        <_>
          <internalNodes>
            0 -1 620 -9.9066982511430979e-04</internalNodes>
          <leafValues>
            -7.3868662118911743e-01 1.6236390173435211e-01</leafValues></_>
        <_>
          <internalNodes>
            0 -1 175 -4.0964826941490173e-02</internalNodes>
          <leafValues>
            4.5848873257637024e-01 -2.3841120302677155e-01</leafValues></_>
        <_>
          <internalNodes>
            0 -1 737 -1.3223316520452499e-02</internalNodes>
          <leafValues>
            3.7884756922721863e-01 -2.4459476768970490e-01</leafValues></_>
        <_>
          <internalNodes>
            0 -1 403 -2.4487635120749474e-02</internalNodes>
          <leafValues>
            7.7201801538467407e-01 -1.5288315713405609e-01</leafValues></_>
        <_>
          <internalNodes>
            0 -1 95 2.0696969295386225e-04</internalNodes>
          <leafValues>
            1.7683731019496918e-01 -4.9378868937492371e-01</leafValues></_>
        <_>
          <internalNodes>
            0 -1 307 -1.9736014306545258e-02</internalNodes>
          <leafValues>
            5.6024384498596191e-01 -1.3312794268131256e-01</leafValues></_>
        <_>
          <internalNodes>
            0 -1 229 6.8933553993701935e-02</internalNodes>
          <leafValues>
            -9.8760895431041718e-02 5.8334612846374512e-01</leafValues></_>
        <_>
          <internalNodes>
            0 -1 799 -2.4494261015206575e-04</internalNodes>
          <leafValues>
            -5.7004863023757935e-01 1.3295871019363403e-01</leafValues></_>
        <_>
          <internalNodes>
            0 -1 684 5.2447281777858734e-02</internalNodes>
          <leafValues>
            -1.4211076498031616e-01 6.2245088815689087e-01</leafValues></_>
        <_>
          <internalNodes>
            0 -1 714 -8.2835573703050613e-03</internalNodes>
          <leafValues>
            5.5679780244827271e-01 -1.4790786802768707e-01</leafValues></_>
        <_>
          <internalNodes>
            0 -1 259 2.3460898548364639e-02</internalNodes>
          <leafValues>
            -1.8322952091693878e-01 4.1401532292366028e-01</leafValues></_>
        <_>
          <internalNodes>
            0 -1 91 -3.3122238237410784e-03</internalNodes>
          <leafValues>
            3.3788260817527771e-01 -2.2729040682315826e-01</leafValues></_>
        <_>
          <internalNodes>
            0 -1 506 -3.0989583581686020e-02</internalNodes>
          <leafValues>
            5.8504831790924072e-01 -1.3377735018730164e-01</leafValues></_>
        <_>
          <internalNodes>
            0 -1 564 8.8042775169014931e-03</internalNodes>
          <leafValues>
            -1.2829175591468811e-01 5.6252354383468628e-01</leafValues></_>
        <_>
          <internalNodes>
            0 -1 675 1.5225743409246206e-03</internalNodes>
          <leafValues>
            1.1881571263074875e-01 -8.0500930547714233e-01</leafValues></_>
        <_>
          <internalNodes>
            0 -1 433 -1.6490884125232697e-02</internalNodes>
          <leafValues>
            4.2258402705192566e-01 -1.8003006279468536e-01</leafValues></_>
        <_>
          <internalNodes>
            0 -1 147 -5.2008450031280518e-02</internalNodes>
          <leafValues>
            4.2003652453422546e-01 -1.7922723293304443e-01</leafValues></_></weakClassifiers></_>
    <!-- stage 6 -->
    <_>
      <maxWeakCount>20</maxWeakCount>
      <stageThreshold>-7.3797446489334106e-01</stageThreshold>
      <weakClassifiers>
        <_>
          <internalNodes>
            0 -1 314 -1.3129439949989319e-01</internalNodes>
          <leafValues>
            6.6567164659500122e-01 -8.6792454123497009e-02</leafValues></_>
        <_>
          <internalNodes>
            0 -1 816 5.8792177587747574e-03</internalNodes>
          <leafValues>
            -9.9447943270206451e-02 6.1759948730468750e-01</leafValues></_>
        <_>
          <internalNodes>
            0 -1 477 8.5274249315261841e-02</internalNodes>
          <leafValues>
            -1.6374257206916809e-01 5.0222790241241455e-01</leafValues></_>
        <_>
          <internalNodes>
            0 -1 533 -9.5869768410921097e-03</internalNodes>
          <leafValues>
            3.4828564524650574e-01 -2.5578725337982178e-01</leafValues></_>
        <_>
          <internalNodes>
            0 -1 492 1.7832638695836067e-04</internalNodes>
          <leafValues>
            1.8743681907653809e-01 -4.4498476386070251e-01</leafValues></_>
        <_>
          <internalNodes>
            0 -1 493 -4.0028715739026666e-04</internalNodes>
          <leafValues>
            -4.9189686775207520e-01 1.4734448492527008e-01</leafValues></_>
        <_>
          <internalNodes>
            0 -1 584 -2.6519715785980225e-02</internalNodes>
          <leafValues>
            7.1067041158676147e-01 -1.1472366750240326e-01</leafValues></_>
        <_>
          <internalNodes>
            0 -1 162 2.1418000687845051e-04</internalNodes>
          <leafValues>
            1.4908576011657715e-01 -4.7665482759475708e-01</leafValues></_>
        <_>
          <internalNodes>
            0 -1 231 9.2944525182247162e-02</internalNodes>
          <leafValues>
            -1.2080698460340500e-01 5.7783949375152588e-01</leafValues></_>
        <_>
          <internalNodes>
            0 -1 280 2.5006028590723872e-04</internalNodes>
          <leafValues>
            1.9048003852367401e-01 -4.4509941339492798e-01</leafValues></_>
        <_>
          <internalNodes>
            0 -1 518 -3.8814973086118698e-02</internalNodes>
          <leafValues>
            6.8001729249954224e-01 -1.1073611676692963e-01</leafValues></_>
        <_>
          <internalNodes>
            0 -1 297 -6.9916564971208572e-03</internalNodes>
          <leafValues>
            3.1099981069564819e-01 -2.4158503115177155e-01</leafValues></_>
        <_>
          <internalNodes>
            0 -1 688 4.6940561151131988e-04</internalNodes>
          <leafValues>
            1.9808864593505859e-01 -3.8553282618522644e-01</leafValues></_>
        <_>
          <internalNodes>
            0 -1 210 3.6469340324401855e-02</internalNodes>
          <leafValues>
            -1.4114278554916382e-01 6.1131954193115234e-01</leafValues></_>
        <_>
          <internalNodes>
            0 -1 767 -1.1630404333118349e-04</internalNodes>
          <leafValues>
            -4.1721495985984802e-01 2.1618907153606415e-01</leafValues></_>
        <_>
          <internalNodes>
            0 -1 768 4.3618876952677965e-04</internalNodes>
          <leafValues>
            1.5113806724548340e-01 -4.4803774356842041e-01</leafValues></_>
        <_>
          <internalNodes>
            0 -1 781 -2.0887567661702633e-03</internalNodes>
          <leafValues>
            4.2964527010917664e-01 -1.9827882945537567e-01</leafValues></_>
        <_>
          <internalNodes>
            0 -1 276 -4.7226633876562119e-02</internalNodes>
          <leafValues>
            4.3093940615653992e-01 -1.5914613008499146e-01</leafValues></_>
        <_>
          <internalNodes>
            0 -1 125 -9.9222231656312943e-03</internalNodes>
          <leafValues>
            4.8187559843063354e-01 -1.4625199139118195e-01</leafValues></_>
        <_>
          <internalNodes>
            0 -1 749 -1.3279175385832787e-02</internalNodes>
          <leafValues>
            5.7266020774841309e-01 -1.2372690439224243e-01</leafValues></_></weakClassifiers></_>
    <!-- stage 7 -->
    <_>
      <maxWeakCount>28</maxWeakCount>
      <stageThreshold>-6.5086406469345093e-01</stageThreshold>
      <weakClassifiers>
        <_>
          <internalNodes>
            0 -1 252 -1.0386177897453308e-01</internalNodes>
          <leafValues>
            5.4352939128875732e-01 -1.7714285850524902e-01</leafValues></_>
        <_>
          <internalNodes>
            0 -1 726 6.7028701305389404e-03</internalNodes>
          <leafValues>
            -2.1488800644874573e-01 3.9674270153045654e-01</leafValues></_>
        <_>
          <internalNodes>
            0 -1 341 2.5439247488975525e-02</internalNodes>
          <leafValues>
            -1.8029977381229401e-01 4.5961254835128784e-01</leafValues></_>
        <_>
          <internalNodes>
            0 -1 323 6.6319666802883148e-03</internalNodes>
          <leafValues>
            -2.4946455657482147e-01 2.9186144471168518e-01</leafValues></_>
        <_>
          <internalNodes>
            0 -1 603 1.5170116908848286e-02</internalNodes>
          <leafValues>
            -1.4007803797721863e-01 4.4739913940429688e-01</leafValues></_>
        <_>
          <internalNodes>
            0 -1 258 6.2964130192995071e-03</internalNodes>
          <leafValues>
            -1.7895554006099701e-01 3.4783294796943665e-01</leafValues></_>
        <_>
          <internalNodes>
            0 -1 405 4.7278627753257751e-02</internalNodes>
          <leafValues>
            -1.4409807324409485e-01 4.2625239491462708e-01</leafValues></_>
        <_>
          <internalNodes>
            0 -1 622 -2.1216943860054016e-03</internalNodes>
          <leafValues>
            4.4342446327209473e-01 -1.3017801940441132e-01</leafValues></_>
        <_>
          <internalNodes>
            0 -1 434 -3.7363176234066486e-03</internalNodes>
          <leafValues>
            3.1180605292320251e-01 -2.4399451911449432e-01</leafValues></_>
        <_>
          <internalNodes>
            0 -1 377 -9.1991685330867767e-03</internalNodes>
          <leafValues>
            4.5148888230323792e-01 -1.2380627542734146e-01</leafValues></_>
        <_>
          <internalNodes>
            0 -1 480 -7.4263801798224449e-03</internalNodes>
          <leafValues>
            4.9278318881988525e-01 -1.2051201611757278e-01</leafValues></_>
        <_>
          <internalNodes>
            0 -1 615 1.0708829388022423e-02</internalNodes>
          <leafValues>
            -1.2189841270446777e-01 4.3429476022720337e-01</leafValues></_>
        <_>
          <internalNodes>
            0 -1 24 -2.7894031256437302e-02</internalNodes>
          <leafValues>
            3.8713002204895020e-01 -1.4612731337547302e-01</leafValues></_>
        <_>
          <internalNodes>
            0 -1 347 -6.1282883398234844e-03</internalNodes>
          <leafValues>
            4.3241941928863525e-01 -1.1656355857849121e-01</leafValues></_>
        <_>
          <internalNodes>
            0 -1 568 -4.4843498617410660e-03</internalNodes>
          <leafValues>
            4.3685716390609741e-01 -1.5678475797176361e-01</leafValues></_>
        <_>
          <internalNodes>
            0 -1 671 -1.9199594855308533e-02</internalNodes>
          <leafValues>
            4.7410768270492554e-01 -1.1170259863138199e-01</leafValues></_>
        <_>
          <internalNodes>
            0 -1 562 2.4802557891234756e-04</internalNodes>
          <leafValues>
            1.5931603312492371e-01 -3.5173156857490540e-01</leafValues></_>
        <_>
          <internalNodes>
            0 -1 248 3.0519595369696617e-02</internalNodes>
          <leafValues>
            -1.3551686704158783e-01 4.5870128273963928e-01</leafValues></_>
        <_>
          <internalNodes>
            0 -1 53 -1.3977598398923874e-02</internalNodes>
          <leafValues>
            3.2595366239547729e-01 -2.1972253918647766e-01</leafValues></_>
        <_>
          <internalNodes>
            0 -1 510 3.7365049123764038e-02</internalNodes>
          <leafValues>
            -1.6023181378841400e-01 4.3741655349731445e-01</leafValues></_>
        <_>
          <internalNodes>
            0 -1 560 -2.5799506693147123e-04</internalNodes>
          <leafValues>
            -3.0874028801918030e-01 1.9112293422222137e-01</leafValues></_>
        <_>
          <internalNodes>
            0 -1 101 7.6610110700130463e-03</internalNodes>
          <leafValues>
            -1.5831615030765533e-01 3.6549547314643860e-01</leafValues></_>
        <_>
          <internalNodes>
            0 -1 417 -2.5743532925844193e-02</internalNodes>
          <leafValues>
            3.3098444342613220e-01 -1.7127719521522522e-01</leafValues></_>
        <_>
          <internalNodes>
            0 -1 117 4.3251840397715569e-03</internalNodes>
          <leafValues>
            -1.1836864799261093e-01 5.2527821063995361e-01</leafValues></_>
        <_>
          <internalNodes>
            0 -1 806 3.4382632002234459e-03</internalNodes>
          <leafValues>
            -1.6141453385353088e-01 3.5105577111244202e-01</leafValues></_>
        <_>
          <internalNodes>
            0 -1 289 -1.2145368009805679e-01</internalNodes>
          <leafValues>
            7.5787866115570068e-01 -6.7879162728786469e-02</leafValues></_>
        <_>
          <internalNodes>
            0 -1 165 -2.0705596543848515e-03</internalNodes>
          <leafValues>
            -6.7273628711700439e-01 1.0190507769584656e-01</leafValues></_>
        <_>
          <internalNodes>
            0 -1 805 -1.0005717631429434e-03</internalNodes>
          <leafValues>
            3.3164227008819580e-01 -1.8895785510540009e-01</leafValues></_></weakClassifiers></_>
    <!-- stage 8 -->
    <_>
      <maxWeakCount>28</maxWeakCount>
      <stageThreshold>-7.5067836046218872e-01</stageThreshold>
      <weakClassifiers>
        <_>
          <internalNodes>
            0 -1 70 -2.7988490182906389e-03</internalNodes>
          <leafValues>
            6.4989060163497925e-01 1.3862718641757965e-01</leafValues></_>
        <_>
          <internalNodes>
            0 -1 317 -1.5746107697486877e-01</internalNodes>
          <leafValues>
            3.5167568922042847e-01 -2.3250123858451843e-01</leafValues></_>
        <_>
          <internalNodes>
            0 -1 538 -6.0486425645649433e-03</internalNodes>
          <leafValues>
            2.9056119918823242e-01 -2.1890462934970856e-01</leafValues></_>
        <_>
          <internalNodes>
            0 -1 135 -1.9158627837896347e-03</internalNodes>
          <leafValues>
            3.7975084781646729e-01 -2.0152102410793304e-01</leafValues></_>
        <_>
          <internalNodes>
            0 -1 458 2.0905697718262672e-02</internalNodes>
          <leafValues>
            -1.9021627306938171e-01 3.4072887897491455e-01</leafValues></_>
        <_>
          <internalNodes>
            0 -1 779 -3.8281050510704517e-03</internalNodes>
          <leafValues>
            3.3855769038200378e-01 -1.7593796551227570e-01</leafValues></_>
        <_>
          <internalNodes>
            0 -1 673 -2.5047434493899345e-02</internalNodes>
          <leafValues>
            4.4831281900405884e-01 -1.3986004889011383e-01</leafValues></_>
        <_>
          <internalNodes>
            0 -1 34 1.0921788401901722e-02</internalNodes>
          <leafValues>
            -9.4139739871025085e-02 5.3789794445037842e-01</leafValues></_>
        <_>
          <internalNodes>
            0 -1 793 2.0683011971414089e-03</internalNodes>
          <leafValues>
            -1.3863797485828400e-01 3.8952398300170898e-01</leafValues></_>
        <_>
          <internalNodes>
            0 -1 369 1.8828732427209616e-03</internalNodes>
          <leafValues>
            -1.6786235570907593e-01 3.2185670733451843e-01</leafValues></_>
        <_>
          <internalNodes>
            0 -1 798 -4.1352439438924193e-04</internalNodes>
          <leafValues>
            -3.4354177117347717e-01 1.5635694563388824e-01</leafValues></_>
        <_>
          <internalNodes>
            0 -1 448 5.7807110249996185e-02</internalNodes>
          <leafValues>
            -1.0599261522293091e-01 5.7957190275192261e-01</leafValues></_>
        <_>
          <internalNodes>
            0 -1 183 -2.4424078874289989e-03</internalNodes>
          <leafValues>
            3.2281062006950378e-01 -1.9165904819965363e-01</leafValues></_>
        <_>
          <internalNodes>
            0 -1 605 -8.9644510298967361e-03</internalNodes>
          <leafValues>
            4.3186619877815247e-01 -1.3417777419090271e-01</leafValues></_>
        <_>
          <internalNodes>
            0 -1 283 -2.0176269114017487e-02</internalNodes>
          <leafValues>
            -9.1149204969406128e-01 8.1181690096855164e-02</leafValues></_>
        <_>
          <internalNodes>
            0 -1 577 -1.4777309261262417e-03</internalNodes>
          <leafValues>
            2.9391872882843018e-01 -2.0780098438262939e-01</leafValues></_>
        <_>
          <internalNodes>
            0 -1 31 -5.6260969489812851e-02</internalNodes>
          <leafValues>
            4.3819013237953186e-01 -1.0692145675420761e-01</leafValues></_>
        <_>
          <internalNodes>
            0 -1 613 -9.0906117111444473e-03</internalNodes>
          <leafValues>
            4.2248478531837463e-01 -1.3072814047336578e-01</leafValues></_>
        <_>
          <internalNodes>
            0 -1 797 1.4887771103531122e-03</internalNodes>
          <leafValues>
            8.0529086291790009e-02 -6.6237777471542358e-01</leafValues></_>
        <_>
          <internalNodes>
            0 -1 665 7.9567804932594299e-02</internalNodes>
          <leafValues>
            -8.6817607283592224e-02 6.4465850591659546e-01</leafValues></_>
        <_>
          <internalNodes>
            0 -1 72 -1.7723918426781893e-03</internalNodes>
          <leafValues>
            4.1293826699256897e-01 -1.2239257991313934e-01</leafValues></_>
        <_>
          <internalNodes>
            0 -1 162 2.3809410049580038e-04</internalNodes>
          <leafValues>
            1.2238556146621704e-01 -5.2711695432662964e-01</leafValues></_>
        <_>
          <internalNodes>
            0 -1 177 -1.3372732326388359e-02</internalNodes>
          <leafValues>
            4.0964484214782715e-01 -1.5553139150142670e-01</leafValues></_>
        <_>
          <internalNodes>
            0 -1 194 -1.0285279154777527e-01</internalNodes>
          <leafValues>
            2.7930992841720581e-01 -1.8219721317291260e-01</leafValues></_>
        <_>
          <internalNodes>
            0 -1 645 7.5243571773171425e-03</internalNodes>
          <leafValues>
            -1.3844694197177887e-01 4.2540964484214783e-01</leafValues></_>
        <_>
          <internalNodes>
            0 -1 792 -1.0890188859775662e-03</internalNodes>
          <leafValues>
            3.3819442987442017e-01 -1.4082902669906616e-01</leafValues></_>
        <_>
          <internalNodes>
            0 -1 790 3.0261073261499405e-03</internalNodes>
          <leafValues>
            -1.4844551682472229e-01 5.1154428720474243e-01</leafValues></_>
        <_>
          <internalNodes>
            0 -1 254 1.0353945195674896e-02</internalNodes>
          <leafValues>
            -1.1303135007619858e-01 5.0120401382446289e-01</leafValues></_></weakClassifiers></_>
    <!-- stage 9 -->
    <_>
      <maxWeakCount>30</maxWeakCount>
      <stageThreshold>-4.9397939443588257e-01</stageThreshold>
      <weakClassifiers>
        <_>
          <internalNodes>
            0 -1 362 2.6268653571605682e-02</internalNodes>
          <leafValues>
            1.2972973287105560e-01 6.6086953878402710e-01</leafValues></_>
        <_>
          <internalNodes>
            0 -1 467 9.2490073293447495e-03</internalNodes>
          <leafValues>
            -1.4370836317539215e-01 4.0860533714294434e-01</leafValues></_>
        <_>
          <internalNodes>
            0 -1 251 -1.1109389364719391e-01</internalNodes>
          <leafValues>
            2.0253227651119232e-01 -3.1879338622093201e-01</leafValues></_>
        <_>
          <internalNodes>
            0 -1 604 -2.6512611657381058e-02</internalNodes>
          <leafValues>
            3.4412181377410889e-01 -2.0179434120655060e-01</leafValues></_>
        <_>
          <internalNodes>
            0 -1 102 3.7776440149173141e-04</internalNodes>
          <leafValues>
            1.3364765048027039e-01 -5.2216452360153198e-01</leafValues></_>
        <_>
          <internalNodes>
            0 -1 767 -6.8247143644839525e-04</internalNodes>
          <leafValues>
            -7.0335733890533447e-01 8.2509599626064301e-02</leafValues></_>
        <_>
          <internalNodes>
            0 -1 214 -1.6325853765010834e-02</internalNodes>
          <leafValues>
            4.0746507048606873e-01 -1.6476112604141235e-01</leafValues></_>
        <_>
          <internalNodes>
            0 -1 571 2.8445346280932426e-02</internalNodes>
          <leafValues>
            -1.0624493658542633e-01 5.4176914691925049e-01</leafValues></_>
        <_>
          <internalNodes>
            0 -1 679 1.8158178776502609e-02</internalNodes>
          <leafValues>
            9.9423363804817200e-02 -6.5465480089187622e-01</leafValues></_>
        <_>
          <internalNodes>
            0 -1 554 4.2816832661628723e-02</internalNodes>
          <leafValues>
            -6.0948610305786133e-02 9.1518056392669678e-01</leafValues></_>
        <_>
          <internalNodes>
            0 -1 461 -1.2507386272773147e-03</internalNodes>
          <leafValues>
            -5.9103941917419434e-01 8.9457944035530090e-02</leafValues></_>
        <_>
          <internalNodes>
            0 -1 454 -3.9357423782348633e-02</internalNodes>
          <leafValues>
            3.8061767816543579e-01 -1.3633181154727936e-01</leafValues></_>
        <_>
          <internalNodes>
            0 -1 461 3.2204133458435535e-04</internalNodes>
          <leafValues>
            1.3081979751586914e-01 -3.8656589388847351e-01</leafValues></_>
        <_>
          <internalNodes>
            0 -1 148 -2.9077012091875076e-02</internalNodes>
          <leafValues>
            3.5865747928619385e-01 -1.5634302794933319e-01</leafValues></_>
        <_>
          <internalNodes>
            0 -1 618 1.5669804066419601e-02</internalNodes>
          <leafValues>
            -9.2488683760166168e-02 5.6563431024551392e-01</leafValues></_>
        <_>
          <internalNodes>
            0 -1 286 -1.4808388426899910e-02</internalNodes>
          <leafValues>
            4.1224250197410583e-01 -1.2174805998802185e-01</leafValues></_>
        <_>
          <internalNodes>
            0 -1 654 3.0552407726645470e-02</internalNodes>
          <leafValues>
            -9.6882522106170654e-02 5.0324660539627075e-01</leafValues></_>
        <_>
          <internalNodes>
            0 -1 491 4.5009260065853596e-04</internalNodes>
          <leafValues>
            1.2315753102302551e-01 -4.2620053887367249e-01</leafValues></_>
        <_>
          <internalNodes>
            0 -1 764 1.8550755921751261e-03</internalNodes>
          <leafValues>
            1.0147021710872650e-01 -4.9301889538764954e-01</leafValues></_>
        <_>
          <internalNodes>
            0 -1 368 -2.7852043509483337e-02</internalNodes>
          <leafValues>
            3.5787060856819153e-01 -1.3813248276710510e-01</leafValues></_>
        <_>
          <internalNodes>
            0 -1 474 -1.1267278343439102e-02</internalNodes>
          <leafValues>
            2.7325552701950073e-01 -1.8097873032093048e-01</leafValues></_>
        <_>
          <internalNodes>
            0 -1 499 -1.2572504580020905e-02</internalNodes>
          <leafValues>
            6.7545455694198608e-01 -6.9372951984405518e-02</leafValues></_>
        <_>
          <internalNodes>
            0 -1 23 -6.2962213996797800e-04</internalNodes>
          <leafValues>
            -3.8441801071166992e-01 1.4014829695224762e-01</leafValues></_>
        <_>
          <internalNodes>
            0 -1 626 8.0939587205648422e-03</internalNodes>
          <leafValues>
            -1.6649737954139709e-01 3.1218791007995605e-01</leafValues></_>
        <_>
          <internalNodes>
            0 -1 621 -1.9622458145022392e-02</internalNodes>
          <leafValues>
            -6.0722339153289795e-01 7.5894564390182495e-02</leafValues></_>
        <_>
          <internalNodes>
            0 -1 685 5.5766046047210693e-02</internalNodes>
          <leafValues>
            -1.0302390903234482e-01 4.9281528592109680e-01</leafValues></_>
        <_>
          <internalNodes>
            0 -1 698 -2.5127660483121872e-03</internalNodes>
          <leafValues>
            3.2535621523857117e-01 -1.4475819468498230e-01</leafValues></_>
        <_>
          <internalNodes>
            0 -1 171 -2.4124372750520706e-02</internalNodes>
          <leafValues>
            -9.0001410245895386e-01 6.0334458947181702e-02</leafValues></_>
        <_>
          <internalNodes>
            0 -1 435 -5.9437965974211693e-03</internalNodes>
          <leafValues>
            4.4747549295425415e-01 -1.2787677347660065e-01</leafValues></_>
        <_>
          <internalNodes>
            0 -1 325 -8.2676578313112259e-03</internalNodes>
          <leafValues>
            8.3112812042236328e-01 -5.9566125273704529e-02</leafValues></_></weakClassifiers></_>
    <!-- stage 10 -->
    <_>
      <maxWeakCount>32</maxWeakCount>
      <stageThreshold>-7.8192162513732910e-01</stageThreshold>
      <weakClassifiers>
        <_>
          <internalNodes>
            0 -1 236 -4.7633212059736252e-02</internalNodes>
          <leafValues>
            5.9792029857635498e-01 8.8282503187656403e-02</leafValues></_>
        <_>
          <internalNodes>
            0 -1 337 4.1404482908546925e-03</internalNodes>
          <leafValues>
            -1.8211077153682709e-01 3.6366578936576843e-01</leafValues></_>
        <_>
          <internalNodes>
            0 -1 310 -1.7500296235084534e-01</internalNodes>
          <leafValues>
            2.6139760017395020e-01 -2.1568152308464050e-01</leafValues></_>
        <_>
          <internalNodes>
            0 -1 14 3.5640075802803040e-02</internalNodes>
          <leafValues>
            -2.1728299558162689e-01 2.5137749314308167e-01</leafValues></_>
        <_>
          <internalNodes>
            0 -1 612 5.7406164705753326e-03</internalNodes>
          <leafValues>
            -1.5642014145851135e-01 3.0315977334976196e-01</leafValues></_>
        <_>
          <internalNodes>
            0 -1 268 6.9709658622741699e-02</internalNodes>
          <leafValues>
            -1.0762076824903488e-01 4.8336631059646606e-01</leafValues></_>
        <_>
          <internalNodes>
            0 -1 299 4.4483333826065063e-02</internalNodes>
          <leafValues>
            -8.2909226417541504e-02 5.6751626729965210e-01</leafValues></_>
        <_>
          <internalNodes>
            0 -1 814 2.7646289672702551e-03</internalNodes>
          <leafValues>
            -1.0104593634605408e-01 4.8581269383430481e-01</leafValues></_>
        <_>
          <internalNodes>
            0 -1 694 1.4189911074936390e-02</internalNodes>
          <leafValues>
            -1.3437099754810333e-01 4.2727425694465637e-01</leafValues></_>
        <_>
          <internalNodes>
            0 -1 82 6.0640741139650345e-03</internalNodes>
          <leafValues>
            -1.1784699559211731e-01 3.9839857816696167e-01</leafValues></_>
        <_>
          <internalNodes>
            0 -1 493 9.6891610883176327e-04</internalNodes>
          <leafValues>
            9.0403303503990173e-02 -6.2449926137924194e-01</leafValues></_>
        <_>
          <internalNodes>
            0 -1 704 -2.4476816179230809e-05</internalNodes>
          <leafValues>
            2.4963621795177460e-01 -2.0516188442707062e-01</leafValues></_>
        <_>
          <internalNodes>
            0 -1 703 -1.3971901498734951e-03</internalNodes>
          <leafValues>
            -5.9304857254028320e-01 1.1275320500135422e-01</leafValues></_>
        <_>
          <internalNodes>
            0 -1 126 -6.3573354855179787e-03</internalNodes>
          <leafValues>
            4.7939395904541016e-01 -1.2752936780452728e-01</leafValues></_>
        <_>
          <internalNodes>
            0 -1 56 -1.6741782892495394e-03</internalNodes>
          <leafValues>
            3.3610719442367554e-01 -1.5523974597454071e-01</leafValues></_>
        <_>
          <internalNodes>
            0 -1 641 1.5720618888735771e-02</internalNodes>
          <leafValues>
            -1.2034220993518829e-01 4.3502894043922424e-01</leafValues></_>
        <_>
          <internalNodes>
            0 -1 775 -1.6132749151438475e-03</internalNodes>
          <leafValues>
            3.1996461749076843e-01 -1.6580352187156677e-01</leafValues></_>
        <_>
          <internalNodes>
            0 -1 783 3.6261579953134060e-03</internalNodes>
          <leafValues>
            -1.1263398826122284e-01 4.2140537500381470e-01</leafValues></_>
        <_>
          <internalNodes>
            0 -1 583 -6.4187950920313597e-04</internalNodes>
          <leafValues>
            2.2528159618377686e-01 -2.2168454527854919e-01</leafValues></_>
        <_>
          <internalNodes>
            0 -1 817 3.1303861178457737e-03</internalNodes>
          <leafValues>
            -1.8421679735183716e-01 2.9623770713806152e-01</leafValues></_>
        <_>
          <internalNodes>
            0 -1 800 -1.0274866363033652e-03</internalNodes>
          <leafValues>
            -6.9590479135513306e-01 7.0909686386585236e-02</leafValues></_>
        <_>
          <internalNodes>
            0 -1 570 -1.2188457185402513e-04</internalNodes>
          <leafValues>
            2.3948210477828979e-01 -1.9537544250488281e-01</leafValues></_>
        <_>
          <internalNodes>
            0 -1 383 1.6602495685219765e-02</internalNodes>
          <leafValues>
            -7.8620783984661102e-02 5.8004349470138550e-01</leafValues></_>
        <_>
          <internalNodes>
            0 -1 512 -3.2139499671757221e-03</internalNodes>
          <leafValues>
            2.7851814031600952e-01 -1.9783259928226471e-01</leafValues></_>
        <_>
          <internalNodes>
            0 -1 623 -1.7550417687743902e-03</internalNodes>
          <leafValues>
            3.8564309477806091e-01 -1.3404573500156403e-01</leafValues></_>
        <_>
          <internalNodes>
            0 -1 402 -5.1937890239059925e-03</internalNodes>
          <leafValues>
            3.4643942117691040e-01 -1.4520728588104248e-01</leafValues></_>
        <_>
          <internalNodes>
            0 -1 29 7.1981012821197510e-02</internalNodes>
          <leafValues>
            -1.7453666031360626e-01 3.3145126700401306e-01</leafValues></_>
        <_>
          <internalNodes>
            0 -1 315 -1.2056563718942925e-05</internalNodes>
          <leafValues>
            2.4007745087146759e-01 -2.1432521939277649e-01</leafValues></_>
        <_>
          <internalNodes>
            0 -1 219 -2.1632937714457512e-03</internalNodes>
          <leafValues>
            2.1780340373516083e-01 -2.4351048469543457e-01</leafValues></_>
        <_>
          <internalNodes>
            0 -1 244 -7.1638844907283783e-02</internalNodes>
          <leafValues>
            4.1937619447708130e-01 -1.1860141158103943e-01</leafValues></_>
        <_>
          <internalNodes>
            0 -1 257 8.4608122706413269e-02</internalNodes>
          <leafValues>
            -1.2882702052593231e-01 3.9009740948677063e-01</leafValues></_>
        <_>
          <internalNodes>
            0 -1 755 2.2708647884428501e-03</internalNodes>
          <leafValues>
            -1.6909474134445190e-01 2.8320050239562988e-01</leafValues></_></weakClassifiers></_>
    <!-- stage 11 -->
    <_>
      <maxWeakCount>27</maxWeakCount>
      <stageThreshold>-9.3464356660842896e-01</stageThreshold>
      <weakClassifiers>
        <_>
          <internalNodes>
            0 -1 606 -4.2135924100875854e-02</internalNodes>
          <leafValues>
            5.3623187541961670e-01 -1.1827956885099411e-01</leafValues></_>
        <_>
          <internalNodes>
            0 -1 600 5.5838357657194138e-03</internalNodes>
          <leafValues>
            -7.6488912105560303e-02 7.5589436292648315e-01</leafValues></_>
        <_>
          <internalNodes>
            0 -1 601 -4.2604906484484673e-03</internalNodes>
          <leafValues>
            5.9444427490234375e-01 -1.6062760353088379e-01</leafValues></_>
        <_>
          <internalNodes>
            0 -1 432 -4.2488425970077515e-03</internalNodes>
          <leafValues>
            4.4325125217437744e-01 -1.0902646929025650e-01</leafValues></_>
        <_>
          <internalNodes>
            0 -1 384 1.9710518419742584e-02</internalNodes>
          <leafValues>
            -1.2874841690063477e-01 7.2054219245910645e-01</leafValues></_>
        <_>
          <internalNodes>
            0 -1 320 -2.6577287353575230e-03</internalNodes>
          <leafValues>
            1.8795080482959747e-01 -3.5991054773330688e-01</leafValues></_>
        <_>
          <internalNodes>
            0 -1 549 -3.9614634588360786e-03</internalNodes>
          <leafValues>
            3.9388096332550049e-01 -1.5754503011703491e-01</leafValues></_>
        <_>
          <internalNodes>
            0 -1 646 1.0096183046698570e-02</internalNodes>
          <leafValues>
            -1.0413853824138641e-01 7.2009426355361938e-01</leafValues></_>
        <_>
          <internalNodes>
            0 -1 558 -2.3679576770518906e-05</internalNodes>
          <leafValues>
            3.2716920971870422e-01 -1.9559898972511292e-01</leafValues></_>
        <_>
          <internalNodes>
            0 -1 759 -5.9893028810620308e-04</internalNodes>
          <leafValues>
            5.3140032291412354e-01 -1.0620709508657455e-01</leafValues></_>
        <_>
          <internalNodes>
            0 -1 59 8.2479659467935562e-03</internalNodes>
          <leafValues>
            -8.3502955734729767e-02 6.5469610691070557e-01</leafValues></_>
        <_>
          <internalNodes>
            0 -1 57 -2.3527678567916155e-03</internalNodes>
          <leafValues>
            4.1371205449104309e-01 -1.7192381620407104e-01</leafValues></_>
        <_>
          <internalNodes>
            0 -1 592 4.9779023975133896e-03</internalNodes>
          <leafValues>
            9.5823824405670166e-02 -6.8448615074157715e-01</leafValues></_>
        <_>
          <internalNodes>
            0 -1 794 -7.1241112891584635e-05</internalNodes>
          <leafValues>
            2.3452746868133545e-01 -2.3267775774002075e-01</leafValues></_>
        <_>
          <internalNodes>
            0 -1 782 2.0465874113142490e-03</internalNodes>
          <leafValues>
            -1.0697377473115921e-01 6.2312507629394531e-01</leafValues></_>
        <_>
          <internalNodes>
            0 -1 277 3.6448397440835834e-04</internalNodes>
          <leafValues>
            1.4490246772766113e-01 -4.5925292372703552e-01</leafValues></_>
        <_>
          <internalNodes>
            0 -1 13 -7.0495437830686569e-03</internalNodes>
          <leafValues>
            -5.5643349885940552e-01 9.9259637296199799e-02</leafValues></_>
        <_>
          <internalNodes>
            0 -1 731 -1.3099116040393710e-04</internalNodes>
          <leafValues>
            3.2713872194290161e-01 -1.8204031884670258e-01</leafValues></_>
        <_>
          <internalNodes>
            0 -1 150 -1.7071513459086418e-02</internalNodes>
          <leafValues>
            -6.9317436218261719e-01 8.7537229061126709e-02</leafValues></_>
        <_>
          <internalNodes>
            0 -1 559 -1.6953956335783005e-02</internalNodes>
          <leafValues>
            -5.4250198602676392e-01 1.0154567658901215e-01</leafValues></_>
        <_>
          <internalNodes>
            0 -1 527 -1.8594762077555060e-03</internalNodes>
          <leafValues>
            3.3363631367683411e-01 -1.8256241083145142e-01</leafValues></_>
        <_>
          <internalNodes>
            0 -1 593 -8.0762347206473351e-03</internalNodes>
          <leafValues>
            -4.7872436046600342e-01 1.2085233628749847e-01</leafValues></_>
        <_>
          <internalNodes>
            0 -1 535 4.1667959885671735e-04</internalNodes>
          <leafValues>
            -1.5370477735996246e-01 3.8858497142791748e-01</leafValues></_>
        <_>
          <internalNodes>
            0 -1 695 -1.4084465801715851e-03</internalNodes>
          <leafValues>
            4.4328266382217407e-01 -1.3107988238334656e-01</leafValues></_>
        <_>
          <internalNodes>
            0 -1 478 -6.0318531468510628e-03</internalNodes>
          <leafValues>
            6.0038906335830688e-01 -9.2034995555877686e-02</leafValues></_>
        <_>
          <internalNodes>
            0 -1 672 -1.3267310350784101e-05</internalNodes>
          <leafValues>
            2.4095174670219421e-01 -2.5465500354766846e-01</leafValues></_>
        <_>
          <internalNodes>
            0 -1 514 2.4408963508903980e-03</internalNodes>
          <leafValues>
            -1.0273627936840057e-01 6.2780052423477173e-01</leafValues></_></weakClassifiers></_>
    <!-- stage 12 -->
    <_>
      <maxWeakCount>31</maxWeakCount>
      <stageThreshold>-6.3725966215133667e-01</stageThreshold>
      <weakClassifiers>
        <_>
          <internalNodes>
            0 -1 137 -2.6834446936845779e-02</internalNodes>
          <leafValues>
            5.2305662631988525e-01 6.8027209490537643e-03</leafValues></_>
        <_>
          <internalNodes>
            0 -1 321 -7.5642436742782593e-02</internalNodes>
          <leafValues>
            3.1283164024353027e-01 -2.4827921390533447e-01</leafValues></_>
        <_>
          <internalNodes>
            0 -1 223 1.2770309695042670e-04</internalNodes>
          <leafValues>
            1.4850023388862610e-01 -3.8749077916145325e-01</leafValues></_>
        <_>
          <internalNodes>
            0 -1 16 -3.9507430046796799e-02</internalNodes>
          <leafValues>
            -6.3845676183700562e-01 7.8816495835781097e-02</leafValues></_>
        <_>
          <internalNodes>
            0 -1 83 -7.7131837606430054e-03</internalNodes>
          <leafValues>
            3.2900559902191162e-01 -1.4922657608985901e-01</leafValues></_>
        <_>
          <internalNodes>
            0 -1 319 -3.3718761056661606e-02</internalNodes>
          <leafValues>
            4.8848220705986023e-01 -1.2162373214960098e-01</leafValues></_>
        <_>
          <internalNodes>
            0 -1 263 3.8671374320983887e-02</internalNodes>
          <leafValues>
            -1.3794641196727753e-01 4.3003162741661072e-01</leafValues></_>
        <_>
          <internalNodes>
            0 -1 342 -4.9405395984649658e-02</internalNodes>
          <leafValues>
            6.3663911819458008e-01 -7.3017634451389313e-02</leafValues></_>
        <_>
          <internalNodes>
            0 -1 597 2.4574672803282738e-02</internalNodes>
          <leafValues>
            -1.2017450481653214e-01 3.8551732897758484e-01</leafValues></_>
        <_>
          <internalNodes>
            0 -1 802 2.0647458732128143e-03</internalNodes>
          <leafValues>
            8.7024100124835968e-02 -5.1973217725753784e-01</leafValues></_>
        <_>
          <internalNodes>
            0 -1 746 1.5325622633099556e-02</internalNodes>
          <leafValues>
            -1.7537371814250946e-01 2.8691145777702332e-01</leafValues></_>
        <_>
          <internalNodes>
            0 -1 834 -3.2699499279260635e-03</internalNodes>
          <leafValues>
            -6.7715644836425781e-01 6.4669318497180939e-02</leafValues></_>
        <_>
          <internalNodes>
            0 -1 475 -6.8186791613698006e-03</internalNodes>
          <leafValues>
            -5.9454846382141113e-01 6.6795572638511658e-02</leafValues></_>
        <_>
          <internalNodes>
            0 -1 340 1.7104294151067734e-02</internalNodes>
          <leafValues>
            -1.5111728012561798e-01 3.6973646283149719e-01</leafValues></_>
        <_>
          <internalNodes>
            0 -1 415 9.3113048933446407e-04</internalNodes>
          <leafValues>
            1.4142292737960815e-01 -3.8372904062271118e-01</leafValues></_>
        <_>
          <internalNodes>
            0 -1 109 -2.5703720748424530e-02</internalNodes>
          <leafValues>
            3.1165495514869690e-01 -1.4889812469482422e-01</leafValues></_>
        <_>
          <internalNodes>
            0 -1 495 -2.4035733193159103e-02</internalNodes>
          <leafValues>
            -7.4186623096466064e-01 7.8161135315895081e-02</leafValues></_>
        <_>
          <internalNodes>
            0 -1 73 -2.6016023475676775e-03</internalNodes>
          <leafValues>
            -6.0907000303268433e-01 5.7411324232816696e-02</leafValues></_>
        <_>
          <internalNodes>
            0 -1 359 -1.0821832343935966e-02</internalNodes>
          <leafValues>
            -7.2920441627502441e-01 6.1535812914371490e-02</leafValues></_>
        <_>
          <internalNodes>
            0 -1 303 1.0718657867982984e-03</internalNodes>
          <leafValues>
            -1.0011146962642670e-01 4.8854631185531616e-01</leafValues></_>
        <_>
          <internalNodes>
            0 -1 635 -6.8569584982469678e-04</internalNodes>
          <leafValues>
            2.6047211885452271e-01 -1.7387962341308594e-01</leafValues></_>
        <_>
          <internalNodes>
            0 -1 74 2.8382334858179092e-02</internalNodes>
          <leafValues>
            -1.4087559282779694e-01 3.3227011561393738e-01</leafValues></_>
        <_>
          <internalNodes>
            0 -1 426 -5.2238698117434978e-04</internalNodes>
          <leafValues>
            -4.8916500806808472e-01 9.8545335233211517e-02</leafValues></_>
        <_>
          <internalNodes>
            0 -1 266 -2.6370249688625336e-03</internalNodes>
          <leafValues>
            3.5188227891921997e-01 -1.5509088337421417e-01</leafValues></_>
        <_>
          <internalNodes>
            0 -1 761 3.4930736292153597e-03</internalNodes>
          <leafValues>
            -7.8853793442249298e-02 5.1937943696975708e-01</leafValues></_>
        <_>
          <internalNodes>
            0 -1 771 -1.6734940931200981e-02</internalNodes>
          <leafValues>
            4.9493077397346497e-01 -1.0059436410665512e-01</leafValues></_>
        <_>
          <internalNodes>
            0 -1 642 -1.2078360654413700e-02</internalNodes>
          <leafValues>
            3.8023412227630615e-01 -1.3953171670436859e-01</leafValues></_>
        <_>
          <internalNodes>
            0 -1 835 -6.3359430059790611e-03</internalNodes>
          <leafValues>
            -7.0663535594940186e-01 7.7309034764766693e-02</leafValues></_>
        <_>
          <internalNodes>
            0 -1 697 -9.1188855003565550e-04</internalNodes>
          <leafValues>
            2.7908688783645630e-01 -1.8631620705127716e-01</leafValues></_>
        <_>
          <internalNodes>
            0 -1 81 1.5199723653495312e-02</internalNodes>
          <leafValues>
            5.6665476411581039e-02 -8.9475870132446289e-01</leafValues></_>
        <_>
          <internalNodes>
            0 -1 281 -1.5654526650905609e-02</internalNodes>
          <leafValues>
            3.7586823105812073e-01 -1.3720659911632538e-01</leafValues></_></weakClassifiers></_>
    <!-- stage 13 -->
    <_>
      <maxWeakCount>33</maxWeakCount>
      <stageThreshold>-6.7705267667770386e-01</stageThreshold>
      <weakClassifiers>
        <_>
          <internalNodes>
            0 -1 98 -2.1436822135001421e-04</internalNodes>
          <leafValues>
            5.3008598089218140e-01 5.9760957956314087e-02</leafValues></_>
        <_>
          <internalNodes>
            0 -1 388 -8.6446385830640793e-03</internalNodes>
          <leafValues>
            2.3968346416950226e-01 -2.8527608513832092e-01</leafValues></_>
        <_>
          <internalNodes>
            0 -1 33 -4.4965292327105999e-03</internalNodes>
          <leafValues>
            3.0369213223457336e-01 -1.5893273055553436e-01</leafValues></_>
        <_>
          <internalNodes>
            0 -1 748 -8.9332117931917310e-04</internalNodes>
          <leafValues>
            2.2203673422336578e-01 -2.0124012231826782e-01</leafValues></_>
        <_>
          <internalNodes>
            0 -1 426 2.1919033315498382e-04</internalNodes>
          <leafValues>
            1.0943218320608139e-01 -3.8664063811302185e-01</leafValues></_>
        <_>
          <internalNodes>
            0 -1 763 6.7855808883905411e-03</internalNodes>
          <leafValues>
            -1.7797401547431946e-01 3.0221992731094360e-01</leafValues></_>
        <_>
          <internalNodes>
            0 -1 296 -6.3988836482167244e-03</internalNodes>
          <leafValues>
            3.0216759443283081e-01 -1.4711698889732361e-01</leafValues></_>
        <_>
          <internalNodes>
            0 -1 687 -1.7257896251976490e-03</internalNodes>
          <leafValues>
            -4.7213029861450195e-01 1.0399100184440613e-01</leafValues></_>
        <_>
          <internalNodes>
            0 -1 138 -9.8296385258436203e-03</internalNodes>
          <leafValues>
            5.3846800327301025e-01 -9.2447340488433838e-02</leafValues></_>
        <_>
          <internalNodes>
            0 -1 97 3.2648220658302307e-03</internalNodes>
          <leafValues>
            6.8619281053543091e-02 -7.6944231986999512e-01</leafValues></_>
        <_>
          <internalNodes>
            0 -1 414 -6.0879301279783249e-02</internalNodes>
          <leafValues>
            7.4227297306060791e-01 -6.9011874496936798e-02</leafValues></_>
        <_>
          <internalNodes>
            0 -1 411 1.7399262636899948e-02</internalNodes>
          <leafValues>
            -1.6052907705307007e-01 3.3414849638938904e-01</leafValues></_>
        <_>
          <internalNodes>
            0 -1 826 3.5435176687315106e-04</internalNodes>
          <leafValues>
            1.0205698013305664e-01 -4.4849207997322083e-01</leafValues></_>
        <_>
          <internalNodes>
            0 -1 153 1.8268978223204613e-02</internalNodes>
          <leafValues>
            -7.6614536345005035e-02 6.0305595397949219e-01</leafValues></_>
        <_>
          <internalNodes>
            0 -1 142 -1.2032648548483849e-02</internalNodes>
          <leafValues>
            4.6094009280204773e-01 -9.9347673356533051e-02</leafValues></_>
        <_>
          <internalNodes>
            0 -1 203 -1.5618352335877717e-04</internalNodes>
          <leafValues>
            2.7592009305953979e-01 -1.5336889028549194e-01</leafValues></_>
        <_>
          <internalNodes>
            0 -1 131 1.4274567365646362e-01</internalNodes>
          <leafValues>
            -8.1715948879718781e-02 5.3152412176132202e-01</leafValues></_>
        <_>
          <internalNodes>
            0 -1 447 -3.8823415525257587e-03</internalNodes>
          <leafValues>
            3.3945339918136597e-01 -1.4172875881195068e-01</leafValues></_>
        <_>
          <internalNodes>
            0 -1 250 8.9948317036032677e-03</internalNodes>
          <leafValues>
            -1.1442797631025314e-01 3.8124179840087891e-01</leafValues></_>
        <_>
          <internalNodes>
            0 -1 391 -4.2123236926272511e-04</internalNodes>
          <leafValues>
            2.5861677527427673e-01 -1.9159947335720062e-01</leafValues></_>
        <_>
          <internalNodes>
            0 -1 836 -1.6413412522524595e-03</internalNodes>
          <leafValues>
            -5.7166665792465210e-01 7.7255643904209137e-02</leafValues></_>
        <_>
          <internalNodes>
            0 -1 624 3.2587912864983082e-03</internalNodes>
          <leafValues>
            -1.8780842423439026e-01 2.6384726166725159e-01</leafValues></_>
        <_>
          <internalNodes>
            0 -1 386 -2.0650494843721390e-03</internalNodes>
          <leafValues>
            3.0853801965713501e-01 -1.5865118801593781e-01</leafValues></_>
        <_>
          <internalNodes>
            0 -1 723 -9.2044267803430557e-03</internalNodes>
          <leafValues>
            4.3770736455917358e-01 -1.0600958019495010e-01</leafValues></_>
        <_>
          <internalNodes>
            0 -1 681 9.3137733638286591e-03</internalNodes>
          <leafValues>
            8.3822995424270630e-02 -6.5306288003921509e-01</leafValues></_>
        <_>
          <internalNodes>
            0 -1 590 2.7061754371970892e-03</internalNodes>
          <leafValues>
            -1.4526268839836121e-01 3.5565343499183655e-01</leafValues></_>
        <_>
          <internalNodes>
            0 -1 92 -1.5829869080334902e-03</internalNodes>
          <leafValues>
            -7.1210008859634399e-01 7.6641075313091278e-02</leafValues></_>
        <_>
          <internalNodes>
            0 -1 267 -8.6877811700105667e-03</internalNodes>
          <leafValues>
            4.7535181045532227e-01 -1.0783316940069199e-01</leafValues></_>
        <_>
          <internalNodes>
            0 -1 456 1.3605417734652292e-05</internalNodes>
          <leafValues>
            -1.8609826266765594e-01 2.3966597020626068e-01</leafValues></_>
        <_>
          <internalNodes>
            0 -1 185 -5.5535428225994110e-02</internalNodes>
          <leafValues>
            5.0739949941635132e-01 -8.9806675910949707e-02</leafValues></_>
        <_>
          <internalNodes>
            0 -1 811 9.4821704551577568e-03</internalNodes>
          <leafValues>
            -1.0239342600107193e-01 4.4976139068603516e-01</leafValues></_>
        <_>
          <internalNodes>
            0 -1 690 -1.2922233436256647e-03</internalNodes>
          <leafValues>
            3.5020476579666138e-01 -1.4388500154018402e-01</leafValues></_>
        <_>
          <internalNodes>
            0 -1 640 -1.6252325847744942e-02</internalNodes>
          <leafValues>
            4.3536391854286194e-01 -1.0818042606115341e-01</leafValues></_></weakClassifiers></_>
    <!-- stage 14 -->
    <_>
      <maxWeakCount>34</maxWeakCount>
      <stageThreshold>-7.6839607954025269e-01</stageThreshold>
      <weakClassifiers>
        <_>
          <internalNodes>
            0 -1 827 -1.5522754983976483e-04</internalNodes>
          <leafValues>
            -1.1297070980072021e-01 4.4432881474494934e-01</leafValues></_>
        <_>
          <internalNodes>
            0 -1 249 1.2301559746265411e-01</internalNodes>
          <leafValues>
            -1.2354968488216400e-01 4.2025431990623474e-01</leafValues></_>
        <_>
          <internalNodes>
            0 -1 77 -1.5323877334594727e-02</internalNodes>
          <leafValues>
            5.3322225809097290e-01 -1.1452236771583557e-01</leafValues></_>
        <_>
          <internalNodes>
            0 -1 99 1.7933594062924385e-03</internalNodes>
          <leafValues>
            -2.2354611754417419e-01 2.1018582582473755e-01</leafValues></_>
        <_>
          <internalNodes>
            0 -1 46 -1.0068722069263458e-02</internalNodes>
          <leafValues>
            3.4498208761215210e-01 -1.7240504920482635e-01</leafValues></_>
        <_>
          <internalNodes>
            0 -1 190 -1.1291723698377609e-02</internalNodes>
          <leafValues>
            3.4121617674827576e-01 -1.3308711349964142e-01</leafValues></_>
        <_>
          <internalNodes>
            0 -1 357 2.3645639419555664e-02</internalNodes>
          <leafValues>
            -5.2563752979040146e-02 6.4666819572448730e-01</leafValues></_>
        <_>
          <internalNodes>
            0 -1 722 -1.1854656040668488e-02</internalNodes>
          <leafValues>
            3.1865230202674866e-01 -1.4820787310600281e-01</leafValues></_>
        <_>
          <internalNodes>
            0 -1 544 3.1690960749983788e-03</internalNodes>
          <leafValues>
            8.5505470633506775e-02 -5.8469521999359131e-01</leafValues></_>
        <_>
          <internalNodes>
            0 -1 103 -5.3234258666634560e-04</internalNodes>
          <leafValues>
            -4.1519206762313843e-01 1.0276526212692261e-01</leafValues></_>
        <_>
          <internalNodes>
            0 -1 103 4.1080976370722055e-04</internalNodes>
          <leafValues>
            1.1476713418960571e-01 -3.9729550480842590e-01</leafValues></_>
        <_>
          <internalNodes>
            0 -1 744 -1.3840881001669914e-04</internalNodes>
          <leafValues>
            -3.7842217087745667e-01 1.1564751714468002e-01</leafValues></_>
        <_>
          <internalNodes>
            0 -1 169 -1.3857029378414154e-02</internalNodes>
          <leafValues>
            3.9044299721717834e-01 -1.0524723678827286e-01</leafValues></_>
        <_>
          <internalNodes>
            0 -1 1 3.6092477384954691e-03</internalNodes>
          <leafValues>
            8.7951868772506714e-02 -5.2994453907012939e-01</leafValues></_>
        <_>
          <internalNodes>
            0 -1 501 -4.7026677057147026e-03</internalNodes>
          <leafValues>
            2.9354897141456604e-01 -1.7767466604709625e-01</leafValues></_>
        <_>
          <internalNodes>
            0 -1 598 9.8262298852205276e-03</internalNodes>
          <leafValues>
            -9.9062278866767883e-02 5.8531516790390015e-01</leafValues></_>
        <_>
          <internalNodes>
            0 -1 17 -6.0586847364902496e-02</internalNodes>
          <leafValues>
            -5.7120019197463989e-01 9.1064415872097015e-02</leafValues></_>
        <_>
          <internalNodes>
            0 -1 820 -2.7887839823961258e-03</internalNodes>
          <leafValues>
            -5.2665787935256958e-01 8.3393678069114685e-02</leafValues></_>
        <_>
          <internalNodes>
            0 -1 667 -2.3571259225718677e-04</internalNodes>
          <leafValues>
            -2.6095691323280334e-01 1.8600910902023315e-01</leafValues></_>
        <_>
          <internalNodes>
            0 -1 644 -9.3499813228845596e-03</internalNodes>
          <leafValues>
            5.2308499813079834e-01 -9.2810653150081635e-02</leafValues></_>
        <_>
          <internalNodes>
            0 -1 65 -5.0217546522617340e-03</internalNodes>
          <leafValues>
            4.6234899759292603e-01 -8.6962491273880005e-02</leafValues></_>
        <_>
          <internalNodes>
            0 -1 79 -3.3257496543228626e-03</internalNodes>
          <leafValues>
            4.2911377549171448e-01 -1.0371889173984528e-01</leafValues></_>
        <_>
          <internalNodes>
            0 -1 536 -1.1215048842132092e-02</internalNodes>
          <leafValues>
            -8.0335861444473267e-01 6.3746914267539978e-02</leafValues></_>
        <_>
          <internalNodes>
            0 -1 351 -1.0115087032318115e-02</internalNodes>
          <leafValues>
            3.6465480923652649e-01 -1.2982548773288727e-01</leafValues></_>
        <_>
          <internalNodes>
            0 -1 540 -2.9748238623142242e-02</internalNodes>
          <leafValues>
            3.9375191926956177e-01 -1.1560553312301636e-01</leafValues></_>
        <_>
          <internalNodes>
            0 -1 108 2.3328233510255814e-02</internalNodes>
          <leafValues>
            7.7845811843872070e-02 -6.7937588691711426e-01</leafValues></_>
        <_>
          <internalNodes>
            0 -1 222 -1.0460521094501019e-02</internalNodes>
          <leafValues>
            7.8353047370910645e-01 -6.6683538258075714e-02</leafValues></_>
        <_>
          <internalNodes>
            0 -1 174 1.8731896998360753e-03</internalNodes>
          <leafValues>
            9.8551474511623383e-02 -4.7466734051704407e-01</leafValues></_>
        <_>
          <internalNodes>
            0 -1 633 -1.7584577435627580e-03</internalNodes>
          <leafValues>
            3.0113431811332703e-01 -1.4896303415298462e-01</leafValues></_>
        <_>
          <internalNodes>
            0 -1 462 1.1566631728783250e-03</internalNodes>
          <leafValues>
            -1.7473520338535309e-01 2.3477703332901001e-01</leafValues></_>
        <_>
          <internalNodes>
            0 -1 522 5.1439180970191956e-02</internalNodes>
          <leafValues>
            -5.2409697324037552e-02 7.4142301082611084e-01</leafValues></_>
        <_>
          <internalNodes>
            0 -1 573 3.5515833646059036e-02</internalNodes>
          <leafValues>
            -1.1729371547698975e-01 3.7787279486656189e-01</leafValues></_>
        <_>
          <internalNodes>
            0 -1 766 2.3531525221187621e-04</internalNodes>
          <leafValues>
            -2.3460111021995544e-01 1.8979556858539581e-01</leafValues></_>
        <_>
          <internalNodes>
            0 -1 553 -2.5794949382543564e-02</internalNodes>
          <leafValues>
            4.7089666128158569e-01 -9.7495958209037781e-02</leafValues></_></weakClassifiers></_>
    <!-- stage 15 -->
    <_>
      <maxWeakCount>33</maxWeakCount>
      <stageThreshold>-6.2626576423645020e-01</stageThreshold>
      <weakClassifiers>
        <_>
          <internalNodes>
            0 -1 401 1.9403768703341484e-02</internalNodes>
          <leafValues>
            4.1996234655380249e-01 -3.3333334326744080e-01</leafValues></_>
        <_>
          <internalNodes>
            0 -1 663 -6.1392355710268021e-03</internalNodes>
          <leafValues>
            3.1435170769691467e-01 -1.7076475918292999e-01</leafValues></_>
        <_>
          <internalNodes>
            0 -1 455 -1.2838235124945641e-02</internalNodes>
          <leafValues>
            5.0008803606033325e-01 -1.0349953919649124e-01</leafValues></_>
        <_>
          <internalNodes>
            0 -1 740 -1.5480241272598505e-03</internalNodes>
          <leafValues>
            3.9633160829544067e-01 -1.5532173216342926e-01</leafValues></_>
        <_>
          <internalNodes>
            0 -1 803 4.5783016830682755e-03</internalNodes>
          <leafValues>
            -1.9436326622962952e-01 3.0823519825935364e-01</leafValues></_>
        <_>
          <internalNodes>
            0 -1 172 4.6547673642635345e-02</internalNodes>
          <leafValues>
            -1.6728416085243225e-01 2.6484715938568115e-01</leafValues></_>
        <_>
          <internalNodes>
            0 -1 717 2.7383221313357353e-02</internalNodes>
          <leafValues>
            -1.0330664366483688e-01 5.3771609067916870e-01</leafValues></_>
        <_>
          <internalNodes>
            0 -1 778 -1.4202554011717439e-03</internalNodes>
          <leafValues>
            3.9745086431503296e-01 -1.0365718603134155e-01</leafValues></_>
        <_>
          <internalNodes>
            0 -1 370 5.9751421213150024e-02</internalNodes>
          <leafValues>
            -8.0074563622474670e-02 5.4845213890075684e-01</leafValues></_>
        <_>
          <internalNodes>
            0 -1 367 -5.9727001935243607e-02</internalNodes>
          <leafValues>
            4.8886451125144958e-01 -7.6399169862270355e-02</leafValues></_>
        <_>
          <internalNodes>
            0 -1 513 -2.7373604476451874e-02</internalNodes>
          <leafValues>
            3.4929722547531128e-01 -1.1017598956823349e-01</leafValues></_>
        <_>
          <internalNodes>
            0 -1 720 -1.3218882493674755e-02</internalNodes>
          <leafValues>
            4.9397295713424683e-01 -8.9639514684677124e-02</leafValues></_>
        <_>
          <internalNodes>
            0 -1 710 -1.0362509638071060e-02</internalNodes>
          <leafValues>
            -6.7097306251525879e-01 7.5509674847126007e-02</leafValues></_>
        <_>
          <internalNodes>
            0 -1 195 3.8840761408209801e-03</internalNodes>
          <leafValues>
            -9.8857939243316650e-02 4.6731561422348022e-01</leafValues></_>
        <_>
          <internalNodes>
            0 -1 834 3.0846402514725924e-03</internalNodes>
          <leafValues>
            7.6426073908805847e-02 -6.8927884101867676e-01</leafValues></_>
        <_>
          <internalNodes>
            0 -1 240 3.7140242755413055e-02</internalNodes>
          <leafValues>
            -1.1639101058244705e-01 4.0727365016937256e-01</leafValues></_>
        <_>
          <internalNodes>
            0 -1 800 2.7695926837623119e-04</internalNodes>
          <leafValues>
            1.3122411072254181e-01 -2.9879811406135559e-01</leafValues></_>
        <_>
          <internalNodes>
            0 -1 778 1.5926362248137593e-03</internalNodes>
          <leafValues>
            -1.0888714343309402e-01 3.5713362693786621e-01</leafValues></_>
        <_>
          <internalNodes>
            0 -1 51 2.9415469616651535e-03</internalNodes>
          <leafValues>
            -1.5383811295032501e-01 2.7317017316818237e-01</leafValues></_>
        <_>
          <internalNodes>
            0 -1 459 6.1165403574705124e-02</internalNodes>
          <leafValues>
            -4.6802986413240433e-02 8.3414483070373535e-01</leafValues></_>
        <_>
          <internalNodes>
            0 -1 575 2.8273489326238632e-02</internalNodes>
          <leafValues>
            -1.2065146863460541e-01 3.3352455496788025e-01</leafValues></_>
        <_>
          <internalNodes>
            0 -1 739 1.8359616398811340e-02</internalNodes>
          <leafValues>
            -6.4299561083316803e-02 6.1259323358535767e-01</leafValues></_>
        <_>
          <internalNodes>
            0 -1 585 2.2631758474744856e-04</internalNodes>
          <leafValues>
            1.3136923313140869e-01 -3.1663510203361511e-01</leafValues></_>
        <_>
          <internalNodes>
            0 -1 5 -3.5411514341831207e-02</internalNodes>
          <leafValues>
            4.9906897544860840e-01 -8.2407608628273010e-02</leafValues></_>
        <_>
          <internalNodes>
            0 -1 352 -2.1338212490081787e-01</internalNodes>
          <leafValues>
            7.9393684864044189e-01 -4.8326008021831512e-02</leafValues></_>
        <_>
          <internalNodes>
            0 -1 228 5.0315058231353760e-01</internalNodes>
          <leafValues>
            -7.2445124387741089e-02 5.1184397935867310e-01</leafValues></_>
        <_>
          <internalNodes>
            0 -1 86 -3.2924532424658537e-03</internalNodes>
          <leafValues>
            3.0885562300682068e-01 -1.4227071404457092e-01</leafValues></_>
        <_>
          <internalNodes>
            0 -1 651 1.1802662163972855e-02</internalNodes>
          <leafValues>
            -8.3527572453022003e-02 5.0706529617309570e-01</leafValues></_>
        <_>
          <internalNodes>
            0 -1 821 1.2053976206516381e-05</internalNodes>
          <leafValues>
            -2.5306525826454163e-01 1.7814008891582489e-01</leafValues></_>
        <_>
          <internalNodes>
            0 -1 591 -5.4408083669841290e-03</internalNodes>
          <leafValues>
            -6.7379587888717651e-01 6.8601250648498535e-02</leafValues></_>
        <_>
          <internalNodes>
            0 -1 502 -7.2309764800593257e-04</internalNodes>
          <leafValues>
            3.9640361070632935e-01 -1.2188118696212769e-01</leafValues></_>
        <_>
          <internalNodes>
            0 -1 104 -8.5297441110014915e-03</internalNodes>
          <leafValues>
            -8.1802755594253540e-01 6.4339697360992432e-02</leafValues></_>
        <_>
          <internalNodes>
            0 -1 511 -1.4691448304802179e-03</internalNodes>
          <leafValues>
            -3.1195208430290222e-01 1.3252016901969910e-01</leafValues></_></weakClassifiers></_>
    <!-- stage 16 -->
    <_>
      <maxWeakCount>35</maxWeakCount>
      <stageThreshold>-6.6175776720046997e-01</stageThreshold>
      <weakClassifiers>
        <_>
          <internalNodes>
            0 -1 32 3.7543348968029022e-02</internalNodes>
          <leafValues>
            5.9405941516160965e-02 4.7236180305480957e-01</leafValues></_>
        <_>
          <internalNodes>
            0 -1 271 2.8550883755087852e-02</internalNodes>
          <leafValues>
            -7.3643587529659271e-02 5.2144074440002441e-01</leafValues></_>
        <_>
          <internalNodes>
            0 -1 292 8.4417099133133888e-03</internalNodes>
          <leafValues>
            -1.1472205817699432e-01 4.0407419204711914e-01</leafValues></_>
        <_>
          <internalNodes>
            0 -1 762 2.7549311053007841e-03</internalNodes>
          <leafValues>
            -2.0902374386787415e-01 2.4045218527317047e-01</leafValues></_>
        <_>
          <internalNodes>
            0 -1 602 -3.1413866672664881e-03</internalNodes>
          <leafValues>
            2.4912719428539276e-01 -1.8773847818374634e-01</leafValues></_>
        <_>
          <internalNodes>
            0 -1 246 -4.8743031919002533e-02</internalNodes>
          <leafValues>
            3.9286780357360840e-01 -1.3504275679588318e-01</leafValues></_>
        <_>
          <internalNodes>
            0 -1 450 -3.0152690596878529e-03</internalNodes>
          <leafValues>
            3.2006546854972839e-01 -1.3859868049621582e-01</leafValues></_>
        <_>
          <internalNodes>
            0 -1 216 -1.3301923871040344e-02</internalNodes>
          <leafValues>
            3.7439945340156555e-01 -1.1075454205274582e-01</leafValues></_>
        <_>
          <internalNodes>
            0 -1 620 7.2419061325490475e-04</internalNodes>
          <leafValues>
            8.2044892013072968e-02 -5.3957825899124146e-01</leafValues></_>
        <_>
          <internalNodes>
            0 -1 546 3.1666983850300312e-03</internalNodes>
          <leafValues>
            5.4263681173324585e-02 -6.8554913997650146e-01</leafValues></_>
        <_>
          <internalNodes>
            0 -1 151 -7.9810060560703278e-03</internalNodes>
          <leafValues>
            2.7322432398796082e-01 -1.5240289270877838e-01</leafValues></_>
        <_>
          <internalNodes>
            0 -1 218 -4.6056509017944336e-02</internalNodes>
          <leafValues>
            3.8167199492454529e-01 -1.2803630530834198e-01</leafValues></_>
        <_>
          <internalNodes>
            0 -1 664 2.5582324713468552e-02</internalNodes>
          <leafValues>
            -6.5850034356117249e-02 6.3412642478942871e-01</leafValues></_>
        <_>
          <internalNodes>
            0 -1 10 1.5892186202108860e-03</internalNodes>
          <leafValues>
            6.9274067878723145e-02 -7.4350208044052124e-01</leafValues></_>
        <_>
          <internalNodes>
            0 -1 614 -3.5420075058937073e-02</internalNodes>
          <leafValues>
            4.8364505171775818e-01 -9.3769662082195282e-02</leafValues></_>
        <_>
          <internalNodes>
            0 -1 530 4.6540111303329468e-02</internalNodes>
          <leafValues>
            -9.1405473649501801e-02 4.9857726693153381e-01</leafValues></_>
        <_>
          <internalNodes>
            0 -1 769 9.1845722636207938e-04</internalNodes>
          <leafValues>
            9.6137359738349915e-02 -4.8803940415382385e-01</leafValues></_>
        <_>
          <internalNodes>
            0 -1 808 -4.3963175266981125e-03</internalNodes>
          <leafValues>
            4.4176834821701050e-01 -1.1490873247385025e-01</leafValues></_>
        <_>
          <internalNodes>
            0 -1 819 -1.6362875467166305e-03</internalNodes>
          <leafValues>
            3.4666454792022705e-01 -1.1643134057521820e-01</leafValues></_>
        <_>
          <internalNodes>
            0 -1 336 -9.0657718828879297e-05</internalNodes>
          <leafValues>
            2.1716716885566711e-01 -2.0827588438987732e-01</leafValues></_>
        <_>
          <internalNodes>
            0 -1 823 -1.5246296534314752e-03</internalNodes>
          <leafValues>
            -6.8140822649002075e-01 6.2492880970239639e-02</leafValues></_>
        <_>
          <internalNodes>
            0 -1 701 2.9164818115532398e-03</internalNodes>
          <leafValues>
            3.8276050239801407e-02 -9.1735064983367920e-01</leafValues></_>
        <_>
          <internalNodes>
            0 -1 390 -3.7129651755094528e-03</internalNodes>
          <leafValues>
            2.5639140605926514e-01 -1.7214860022068024e-01</leafValues></_>
        <_>
          <internalNodes>
            0 -1 389 2.2945299744606018e-02</internalNodes>
          <leafValues>
            -7.9380132257938385e-02 6.3097470998764038e-01</leafValues></_>
        <_>
          <internalNodes>
            0 -1 453 1.0061058215796947e-02</internalNodes>
          <leafValues>
            -9.3942247331142426e-02 3.9496695995330811e-01</leafValues></_>
        <_>
          <internalNodes>
            0 -1 123 -1.6347602009773254e-02</internalNodes>
          <leafValues>
            -3.0137050151824951e-01 1.4953298866748810e-01</leafValues></_>
        <_>
          <internalNodes>
            0 -1 188 -2.0587567239999771e-02</internalNodes>
          <leafValues>
            4.4675895571708679e-01 -1.1610987037420273e-01</leafValues></_>
        <_>
          <internalNodes>
            0 -1 353 -3.4271810203790665e-02</internalNodes>
          <leafValues>
            6.4094072580337524e-01 -6.2845736742019653e-02</leafValues></_>
        <_>
          <internalNodes>
            0 -1 196 -2.7456888929009438e-02</internalNodes>
          <leafValues>
            -7.2504168748855591e-01 6.2177278101444244e-02</leafValues></_>
        <_>
          <internalNodes>
            0 -1 676 -5.6994077749550343e-04</internalNodes>
          <leafValues>
            -3.4105631709098816e-01 1.0953722149133682e-01</leafValues></_>
        <_>
          <internalNodes>
            0 -1 58 1.2354591861367226e-02</internalNodes>
          <leafValues>
            -4.6985901892185211e-02 8.5097742080688477e-01</leafValues></_>
        <_>
          <internalNodes>
            0 -1 609 8.5711864812765270e-05</internalNodes>
          <leafValues>
            2.0776219666004181e-01 -1.9070886075496674e-01</leafValues></_>
        <_>
          <internalNodes>
            0 -1 677 1.7095223302021623e-04</internalNodes>
          <leafValues>
            1.1847795546054840e-01 -3.4551361203193665e-01</leafValues></_>
        <_>
          <internalNodes>
            0 -1 765 4.5897644013166428e-03</internalNodes>
          <leafValues>
            -1.1963494122028351e-01 3.9443612098693848e-01</leafValues></_>
        <_>
          <internalNodes>
            0 -1 424 4.2749759741127491e-03</internalNodes>
          <leafValues>
            -1.4610414206981659e-01 2.6056909561157227e-01</leafValues></_></weakClassifiers></_>
    <!-- stage 17 -->
    <_>
      <maxWeakCount>28</maxWeakCount>
      <stageThreshold>-7.7263170480728149e-01</stageThreshold>
      <weakClassifiers>
        <_>
          <internalNodes>
            0 -1 727 -1.1532295029610395e-03</internalNodes>
          <leafValues>
            -4.2857143282890320e-01 4.2271882295608521e-01</leafValues></_>
        <_>
          <internalNodes>
            0 -1 110 4.6362823247909546e-01</internalNodes>
          <leafValues>
            -1.5258312225341797e-01 4.7887662053108215e-01</leafValues></_>
        <_>
          <internalNodes>
            0 -1 727 4.4764159247279167e-04</internalNodes>
          <leafValues>
            1.3050653040409088e-01 -5.0945466756820679e-01</leafValues></_>
        <_>
          <internalNodes>
            0 -1 436 2.2579535841941833e-02</internalNodes>
          <leafValues>
            -8.1362649798393250e-02 7.1153956651687622e-01</leafValues></_>
        <_>
          <internalNodes>
            0 -1 539 -3.8772942498326302e-03</internalNodes>
          <leafValues>
            3.4356784820556641e-01 -1.7905418574810028e-01</leafValues></_>
        <_>
          <internalNodes>
            0 -1 660 -8.8440649211406708e-02</internalNodes>
          <leafValues>
            4.9502640962600708e-01 -1.2352676689624786e-01</leafValues></_>
        <_>
          <internalNodes>
            0 -1 801 -1.5242777299135923e-03</internalNodes>
          <leafValues>
            -4.4671583175659180e-01 1.1330155283212662e-01</leafValues></_>
        <_>
          <internalNodes>
            0 -1 493 -6.9131061900407076e-04</internalNodes>
          <leafValues>
            -5.0629377365112305e-01 1.0013940930366516e-01</leafValues></_>
        <_>
          <internalNodes>
            0 -1 524 1.1058518663048744e-02</internalNodes>
          <leafValues>
            -1.2238603085279465e-01 4.3225291371345520e-01</leafValues></_>
        <_>
          <internalNodes>
            0 -1 581 -2.5892799720168114e-02</internalNodes>
          <leafValues>
            2.7438652515411377e-01 -1.9300833344459534e-01</leafValues></_>
        <_>
          <internalNodes>
            0 -1 284 2.6186231523752213e-02</internalNodes>
          <leafValues>
            -1.1960555613040924e-01 4.0567761659622192e-01</leafValues></_>
        <_>
          <internalNodes>
            0 -1 476 1.1795438826084137e-01</internalNodes>
          <leafValues>
            -7.6931908726692200e-02 5.9133177995681763e-01</leafValues></_>
        <_>
          <internalNodes>
            0 -1 90 1.0481866775080562e-03</internalNodes>
          <leafValues>
            1.0423847287893295e-01 -4.5186769962310791e-01</leafValues></_>
        <_>
          <internalNodes>
            0 -1 657 4.1145966388285160e-03</internalNodes>
          <leafValues>
            -2.1431428194046021e-01 2.1329027414321899e-01</leafValues></_>
        <_>
          <internalNodes>
            0 -1 680 -5.9914222219958901e-04</internalNodes>
          <leafValues>
            2.3682785034179688e-01 -1.9891041517257690e-01</leafValues></_>
        <_>
          <internalNodes>
            0 -1 134 -7.1420366875827312e-03</internalNodes>
          <leafValues>
            3.4253728389739990e-01 -1.2951515614986420e-01</leafValues></_>
        <_>
          <internalNodes>
            0 -1 595 -3.4807813353836536e-03</internalNodes>
          <leafValues>
            4.7663930058479309e-01 -9.5845066010951996e-02</leafValues></_>
        <_>
          <internalNodes>
            0 -1 395 -6.9945291616022587e-03</internalNodes>
          <leafValues>
            -4.4545704126358032e-01 1.1891351640224457e-01</leafValues></_>
        <_>
          <internalNodes>
            0 -1 345 1.3639779388904572e-01</internalNodes>
          <leafValues>
            -9.5438860356807709e-02 5.6487137079238892e-01</leafValues></_>
        <_>
          <internalNodes>
            0 -1 676 2.9341137269511819e-04</internalNodes>
          <leafValues>
            1.5776635706424713e-01 -3.2649388909339905e-01</leafValues></_>
        <_>
          <internalNodes>
            0 -1 26 -2.3104778956621885e-03</internalNodes>
          <leafValues>
            -4.9505481123924255e-01 9.9722176790237427e-02</leafValues></_>
        <_>
          <internalNodes>
            0 -1 202 -3.2824181020259857e-02</internalNodes>
          <leafValues>
            6.0163182020187378e-01 -9.1957665979862213e-02</leafValues></_>
        <_>
          <internalNodes>
            0 -1 71 -1.3429782353341579e-02</internalNodes>
          <leafValues>
            -6.1714875698089600e-01 8.9466109871864319e-02</leafValues></_>
        <_>
          <internalNodes>
            0 -1 738 7.9752337187528610e-03</internalNodes>
          <leafValues>
            -8.1188179552555084e-02 6.2309646606445313e-01</leafValues></_>
        <_>
          <internalNodes>
            0 -1 488 -2.6535487268120050e-03</internalNodes>
          <leafValues>
            -4.7417306900024414e-01 1.0346914827823639e-01</leafValues></_>
        <_>
          <internalNodes>
            0 -1 156 -2.9415961762424558e-05</internalNodes>
          <leafValues>
            1.8416655063629150e-01 -2.7302089333534241e-01</leafValues></_>
        <_>
          <internalNodes>
            0 -1 155 2.7584691997617483e-04</internalNodes>
          <leafValues>
            1.5704604983329773e-01 -3.2293683290481567e-01</leafValues></_>
        <_>
          <internalNodes>
            0 -1 170 8.9545056223869324e-02</internalNodes>
          <leafValues>
            -6.5127342939376831e-02 7.5565850734710693e-01</leafValues></_></weakClassifiers></_>
    <!-- stage 18 -->
    <_>
      <maxWeakCount>31</maxWeakCount>
      <stageThreshold>-7.4947768449783325e-01</stageThreshold>
      <weakClassifiers>
        <_>
          <internalNodes>
            0 -1 366 1.4789975248277187e-02</internalNodes>
          <leafValues>
            2.1311475336551666e-01 7.1929824352264404e-01</leafValues></_>
        <_>
          <internalNodes>
            0 -1 383 -8.1097166985273361e-03</internalNodes>
          <leafValues>
            5.2198743820190430e-01 -8.4577687084674835e-02</leafValues></_>
        <_>
          <internalNodes>
            0 -1 380 -4.0478641167283058e-03</internalNodes>
          <leafValues>
            3.7176436185836792e-01 -1.8869312107563019e-01</leafValues></_>
        <_>
          <internalNodes>
            0 -1 94 -8.1590469926595688e-03</internalNodes>
          <leafValues>
            2.3757252097129822e-01 -2.1872940659523010e-01</leafValues></_>
        <_>
          <internalNodes>
            0 -1 600 -2.3663965985178947e-03</internalNodes>
          <leafValues>
            4.0179353952407837e-01 -1.3201813399791718e-01</leafValues></_>
        <_>
          <internalNodes>
            0 -1 568 -4.2787352576851845e-03</internalNodes>
          <leafValues>
            3.9385378360748291e-01 -1.3882523775100708e-01</leafValues></_>
        <_>
          <internalNodes>
            0 -1 168 5.4914295673370361e-02</internalNodes>
          <leafValues>
            6.9731712341308594e-02 -8.6184912919998169e-01</leafValues></_>
        <_>
          <internalNodes>
            0 -1 397 -1.4976204838603735e-03</internalNodes>
          <leafValues>
            5.6517314910888672e-01 -1.0301944613456726e-01</leafValues></_>
        <_>
          <internalNodes>
            0 -1 141 -1.0055950842797756e-03</internalNodes>
          <leafValues>
            5.4640269279479980e-01 -9.4070471823215485e-02</leafValues></_>
        <_>
          <internalNodes>
            0 -1 594 -1.4434070326387882e-03</internalNodes>
          <leafValues>
            -3.3615446090698242e-01 1.8242742121219635e-01</leafValues></_>
        <_>
          <internalNodes>
            0 -1 443 4.8852869076654315e-04</internalNodes>
          <leafValues>
            -1.2612104415893555e-01 3.7701055407524109e-01</leafValues></_>
        <_>
          <internalNodes>
            0 -1 140 4.9255061894655228e-03</internalNodes>
          <leafValues>
            -9.5544606447219849e-02 4.8580175638198853e-01</leafValues></_>
        <_>
          <internalNodes>
            0 -1 139 -1.6769189387559891e-03</internalNodes>
          <leafValues>
            3.4034278988838196e-01 -1.4007765054702759e-01</leafValues></_>
        <_>
          <internalNodes>
            0 -1 567 -1.5915372641757131e-03</internalNodes>
          <leafValues>
            3.0216014385223389e-01 -1.6520997881889343e-01</leafValues></_>
        <_>
          <internalNodes>
            0 -1 800 -2.9404112137854099e-04</internalNodes>
          <leafValues>
            -3.6815050244331360e-01 1.2176124751567841e-01</leafValues></_>
        <_>
          <internalNodes>
            0 -1 809 4.0738638490438461e-03</internalNodes>
          <leafValues>
            -9.6471294760704041e-02 4.8970577120780945e-01</leafValues></_>
        <_>
          <internalNodes>
            0 -1 696 6.9015710614621639e-03</internalNodes>
          <leafValues>
            -6.6354095935821533e-02 6.7373007535934448e-01</leafValues></_>
        <_>
          <internalNodes>
            0 -1 247 3.8514747284352779e-03</internalNodes>
          <leafValues>
            1.7677147686481476e-01 -2.9923114180564880e-01</leafValues></_>
        <_>
          <internalNodes>
            0 -1 735 -5.5099104065448046e-04</internalNodes>
          <leafValues>
            3.6618807911872864e-01 -1.4784815907478333e-01</leafValues></_>
        <_>
          <internalNodes>
            0 -1 656 2.9188051121309400e-04</internalNodes>
          <leafValues>
            1.4517752826213837e-01 -3.1353363394737244e-01</leafValues></_>
        <_>
          <internalNodes>
            0 -1 164 -6.5955930040217936e-05</internalNodes>
          <leafValues>
            1.9241450726985931e-01 -2.2812029719352722e-01</leafValues></_>
        <_>
          <internalNodes>
            0 -1 114 -6.8490564823150635e-02</internalNodes>
          <leafValues>
            -6.8192201852798462e-01 6.9946475327014923e-02</leafValues></_>
        <_>
          <internalNodes>
            0 -1 256 1.3333769142627716e-01</internalNodes>
          <leafValues>
            -9.6184313297271729e-02 5.3704327344894409e-01</leafValues></_>
        <_>
          <internalNodes>
            0 -1 152 8.1628989428281784e-03</internalNodes>
          <leafValues>
            -7.0234268903732300e-02 5.9714186191558838e-01</leafValues></_>
        <_>
          <internalNodes>
            0 -1 178 -2.9801931232213974e-03</internalNodes>
          <leafValues>
            2.3783735930919647e-01 -2.0241402089595795e-01</leafValues></_>
        <_>
          <internalNodes>
            0 -1 550 -2.8272140771150589e-03</internalNodes>
          <leafValues>
            3.6092272400856018e-01 -1.2900634109973907e-01</leafValues></_>
        <_>
          <internalNodes>
            0 -1 217 2.3323928937315941e-02</internalNodes>
          <leafValues>
            -9.7905360162258148e-02 4.3387407064437866e-01</leafValues></_>
        <_>
          <internalNodes>
            0 -1 525 -1.2961131687916350e-05</internalNodes>
          <leafValues>
            2.2538414597511292e-01 -2.5140020251274109e-01</leafValues></_>
        <_>
          <internalNodes>
            0 -1 425 -3.7555553717538714e-04</internalNodes>
          <leafValues>
            -4.4062227010726929e-01 1.1179837584495544e-01</leafValues></_>
        <_>
          <internalNodes>
            0 -1 589 1.2423449334164616e-05</internalNodes>
          <leafValues>
            -1.9327700138092041e-01 2.3612669110298157e-01</leafValues></_>
        <_>
          <internalNodes>
            0 -1 658 -2.1291409211698920e-04</internalNodes>
          <leafValues>
            -3.8109976053237915e-01 1.2721736729145050e-01</leafValues></_></weakClassifiers></_>
    <!-- stage 19 -->
    <_>
      <maxWeakCount>42</maxWeakCount>
      <stageThreshold>-5.8096486330032349e-01</stageThreshold>
      <weakClassifiers>
        <_>
          <internalNodes>
            0 -1 313 -7.1899324655532837e-02</internalNodes>
          <leafValues>
